tree
version=v4
num_class=4
num_tree_per_iteration=4
label_index=0
max_feature_idx=27
objective=multiclass num_class:4
feature_names=Column_0 Column_1 Column_2 Column_3 Column_4 Column_5 Column_6 Column_7 Column_8 Column_9 Column_10 Column_11 Column_12 Column_13 Column_14 Column_15 Column_16 Column_17 Column_18 Column_19 Column_20 Column_21 Column_22 Column_23 Column_24 Column_25 Column_26 Column_27
feature_infos=[26.044887542724609:748.16998291015625] [1245100:256611392] [-0.096509777009487152:0.1259777843952179] [-0.20678846538066864:0.11130178719758987] [-0.17321822047233582:0.22147943079471588] [27.038429260253906:729.9990234375] [27.916280746459961:694.86627197265625] [29.154205322265625:675.65789794921875] [0.52928650379180908:24.795200347900391] [0:100] [-0.45264741778373718:1.4415537118911743] [-2.7406487464904785:4.3214631080627441] [0.052738580852746964:0.6441618800163269] [0.082419939339160919:0.43999388813972473] [3.630000114440918:4.9800000190734863] [3.380000114440918:5.190000057220459] [-1.0800000429153442:0.74000000953674316] [11.859999656677246:52.330001831054688] [117.02639770507812:130.04130554199219] [304.01400756835938:332.40701293945312] [3.5:4.5] [3.6400001049041748:5.3299999237060547] [2.5899999141693115:4.6100001335144043] [55.439998626708984:114.58000183105469] [-22.209999084472656:30.559999465942383] [-3.355600118637085:2.4186000823974609] [-0.40000000596046448:0.5] [-1.1100000143051147:1.6399999856948853]
tree_sizes=1387 1170 1162 764 1403 1510 1508 988 1615 1614 1303 986

Tree=0
num_leaves=12
num_cat=0
split_feature=17 24 14 17 17 24 25 27 18 17 2
split_gain=2356.58 388.644 252.585 181.706 37.6008 34.7466 15.2251 15.1447 3.32748 0.323564 0.570767
threshold=16.765000343322757 -3.3249999284744258 4.5650000572204599 15.355000019073488 17.394999504089359 0.95499998331069957 0.12260000035166742 -0.10500000044703482 121.87300109863283 17.82499980926514 -0.00012275144035811533
decision_type=2 2 2 2 2 2 2 2 2 2 2
left_child=1 8 3 -3 5 7 -4 -2 -1 10 -6
right_child=4 2 6 -5 9 -7 -8 -9 -10 -11 -12
leaf_value=-0.94178118919683351 -0.86775442095328592 -0.50532694845286974 -1.0176358349752512 -0.67421230053084713 -0.98563949736978662 -0.79328001231141099 -0.83845660607683536 -1.01763622507551 -1.0176360734876158 -1.0176364611576161 -1.0176360406921616
leaf_weight=27.144035696983337 27.475060522556305 625.9679451584816 29.130184650421143 267.79908388853073 26.81301087141037 44.357326626777649 26.81301087141037 71.501362323760986 45.681425929069519 597.16878533363342 42.371177673339844
leaf_count=82 83 1891 88 809 81 134 81 216 138 1804 128
internal_value=-0.780521 -0.607361 -0.578068 -0.55593 -0.9992 -0.919475 -0.931757 -0.97603 -0.989363 -1.01635 -1.00524
internal_weight=1832.22 1022.54 949.71 893.767 809.687 143.334 55.9432 98.9764 72.8255 666.353 69.1842
internal_count=5535 3089 2869 2700 2446 433 169 299 220 2013 209
is_linear=0
shrinkage=1


Tree=1
num_leaves=10
num_cat=0
split_feature=16 20 21 17 17 16 19 25 17
split_gain=1074.11 528.95 540.671 222.551 219.881 110.011 32.7095 75.5793 2.0329
threshold=-0.085000000894069658 4.1499998569488534 4.1549999713897714 23.470000267028812 14.72499990463257 0.16499999910593036 313.37199401855474 0.030449999496340755 15.944999694824221
decision_type=2 2 2 2 2 2 2 2 2
left_child=6 4 3 -3 -2 -4 -1 -8 -6
right_child=1 2 5 -5 8 -7 7 -9 -10
leaf_value=-1.3505823400437587 -1.2906745560436057 -0.90127901703955748 -1.0481669050439701 -1.2561339310536519 -0.80196000247363708 -1.3023313303084176 -1.3505820067236625 -0.98563167461958057 -0.75151126314578254
leaf_weight=557.07852900028229 25.77741265296936 286.415696144104 59.574464797973633 63.584284543991089 27.20949113368988 316.48934423923492 50.695578217506409 24.918165564537048 173.56791186332703
leaf_count=1945 90 1000 208 222 95 1105 177 87 606
internal_value=-1.16291 -1.0478 -1.11923 -0.965745 -0.818916 -1.26207 -1.33621 -1.23031 -0.758348
internal_weight=1585.31 952.619 726.064 350 226.555 376.064 632.692 75.6137 200.777
internal_count=5535 3326 2535 1222 791 1313 2209 264 701
is_linear=0
shrinkage=1


Tree=2
num_leaves=10
num_cat=0
split_feature=27 23 15 17 27 17 22 24 17
split_gain=1015.76 788.806 241.412 198.699 184.956 153.513 134.853 51.6089 34.6775
threshold=0.17500000447034839 66.305000305175795 4.9249999523162851 14.870000362396242 -0.73000001907348622 21.025000572204593 3.0449999570846562 4.9200000762939462 15.97499990463257
decision_type=2 2 2 2 2 2 2 2 2
left_child=2 -2 4 -4 -1 -6 -3 -8 -5
right_child=1 6 3 8 5 -7 7 -9 -10
leaf_value=-1.2250907934665087 -1.8009257921420303 -1.4638812472762817 -1.7241656917273604 -1.3065937138868722 -1.7774670211137542 -1.4192379047353068 -1.0072321952642629 -1.3244613211338725 -0.97703846123837423
leaf_weight=19.36821323633194 71.225042223930359 27.49036717414856 33.529917538166046 19.784733951091766 789.93153554201126 36.862083256244659 119.33318477869034 17.285609662532806 17.910390734672546
leaf_count=93 342 132 161 95 3793 177 573 83 86
internal_value=-1.6421 -1.32409 -1.72368 -1.4203 -1.74922 -1.7615 -1.11714 -1.04737 -1.15001
internal_weight=1152.72 235.334 917.387 71.225 846.162 826.794 164.109 136.619 37.6951
internal_count=5535 1130 4405 342 4063 3970 788 656 181
is_linear=0
shrinkage=1


Tree=3
num_leaves=6
num_cat=0
split_feature=12 27 12 12 27
split_gain=2578.91 487.949 79.2642 24.7299 2.17872
threshold=0.30167949199676519 0.58000001311302196 0.44422641396522528 0.25892916321754461 -0.63499999046325672
decision_type=2 2 2 2 2
left_child=1 3 -2 4 -1
right_child=2 -3 -4 -5 -6
leaf_value=-3.3456757425835359 -0.81196559173358507 -1.4756768486515701 0.28893500079918377 -3.0746309240307572 -3.4724691306075561
leaf_weight=4.0598834268748751 3.7405667528510085 3.6949500851333132 3.9686500914394855 4.7441334426403037 232.28007201850414
leaf_count=89 82 81 87 104 5092
internal_value=-3.3352 -3.43251 -0.245223 -3.46251 -3.47029
internal_weight=252.488 244.779 7.70922 241.084 236.34
internal_count=5535 5366 169 5285 5181
is_linear=0
shrinkage=1


Tree=4
num_leaves=12
num_cat=0
split_feature=17 14 24 17 17 24 23 24 12 17 27
split_gain=1524.1 240.318 152.464 83.5413 63.0812 45.6131 50.8803 16.3627 1.23906 0.666448 0.0664367
threshold=16.550000190734867 4.5650000572204599 -3.6400001049041744 15.355000019073488 17.394999504089359 -0.65500000119209278 72.359996795654311 -1.1249999999999998 0.30167949199676519 17.82499980926514 -1.0000000180025095e-35
decision_type=2 2 2 2 2 2 2 2 2 2 2
left_child=1 2 -1 -4 5 10 -7 -3 9 -6 -2
right_child=4 7 3 -5 8 6 -8 -9 -10 -11 -12
leaf_value=-0.17163332628978356 -0.21121810115481524 -0.21566163101817476 0.22364019736741489 0.10198575775896666 -0.18490477654093046 0.063639272930392829 -0.16440545778457513 -0.049176281704722935 -0.16751909480316543 -0.2031136810110333 -0.1998028887466638
leaf_weight=35.5023373067379 30.677610397338867 43.177206367254257 624.76871073246002 226.41185763478279 67.378403067588806 75.631631731987 46.522755920886993 29.089973509311676 34.79039591550827 487.57225468754768 29.605126738548279
leaf_count=113 97 136 1904 683 217 231 146 90 156 1584 97
internal_value=0.00775732 0.152227 0.17675 0.19128 -0.171657 -0.0834826 -0.0232119 -0.148646 -0.198934 -0.200903 -0.205612
internal_weight=1731.13 958.95 886.683 851.181 772.178 182.437 122.154 72.2672 589.741 554.951 60.2827
internal_count=5454 2926 2700 2587 2528 571 377 226 1957 1801 194
is_linear=0
shrinkage=0.171583


Tree=5
num_leaves=13
num_cat=0
split_feature=16 20 21 18 16 22 19 18 22 14 27 24
split_gain=733.46 277.959 345.276 115.415 83.6652 56.5299 21.9235 45.9643 1.0764 0.0751148 0.0668672 0.0110568
threshold=-0.10000000149011611 4.1499998569488534 4.1549999713897714 118.82369995117189 0.044999999925494201 2.7150000333786015 313.37199401855474 123.42710113525392 2.8349999189376835 4.5650000572204599 0.054999999701976783 2.0499999523162846
decision_type=2 2 2 2 2 2 2 2 2 2 2 2
left_child=6 5 3 -3 -4 -2 9 -8 -7 11 -11 -1
right_child=1 2 4 -5 -6 8 7 -9 -10 10 -12 -13
leaf_value=-0.17028754176081476 0.06213666260367634 0.2955568087798055 0.16911337351265482 0.087879073196979102 -0.11285917437445282 0.25553143975163328 -0.17513331480995636 0.13627769461169656 0.29226456085309044 -0.18259919337768957 -0.17285560793247476 -0.17396200303393808
leaf_weight=363.33299227058887 39.336493343114853 114.46424970030785 34.334519356489182 252.73365035653114 317.0871584713459 27.215554505586624 38.387206315994263 21.923537567257881 171.79626256227493 30.12710365653038 67.191925406455994 26.328237622976303
leaf_count=1478 138 357 117 825 1227 83 151 77 524 109 265 103
internal_value=-0.00108524 0.0895219 0.0362653 0.152617 -0.0853099 0.250091 -0.159517 -0.0619321 0.287241 -0.171602 -0.175872 -0.170536
internal_weight=1504.26 956.968 718.62 367.198 351.422 238.348 547.291 60.3107 199.012 486.98 97.319 389.661
internal_count=5454 3271 2526 1182 1344 745 2183 228 607 1955 374 1581
is_linear=0
shrinkage=0.171583


Tree=6
num_leaves=13
num_cat=0
split_feature=27 23 14 22 18 17 27 19 25 22 13 17
split_gain=568.891 329.905 151.562 189.073 136.83 118.436 71.5895 77.4312 34.5261 14.0967 0.0486448 0.00398595
threshold=0.10500000044703485 66.305000305175795 4.4749999046325692 3.1550000905990605 128.2810974121094 15.194999694824221 -0.73000001907348622 328.87649536132818 -0.16840000450611112 3.0849999189376835 0.21777836978435519 21.625000000000004
decision_type=2 2 2 2 2 2 2 2 2 2 2 2
left_child=2 10 6 9 5 -3 -1 -8 -5 -4 11 -2
right_child=1 4 3 8 -6 -7 7 -9 -10 -11 -12 -13
leaf_value=0.22074589153953411 -0.15563508224699307 -0.073724779889851669 -0.15478532104853299 0.51385358643819223 -0.15751560440533358 0.3321931717175528 -0.14207201828772123 0.085106233634098499 0.21120445397542512 0.034959579077994851 -0.14526844291181604 -0.15892569410851934
leaf_weight=18.144269406795502 40.020542964339256 23.23067444562912 39.528653830289841 24.059699431061745 21.170991957187653 237.65129934251308 585.29051335155964 47.776017755270004 20.598505586385727 16.272518143057823 14.102566234767435 15.820739507675169
leaf_count=73 210 116 213 102 108 846 3189 238 88 76 116 79
internal_value=-0.000734719 0.179283 -0.0850345 0.111131 0.262003 0.296047 -0.115296 -0.124927 0.374258 -0.0994524 -0.15429 -0.156568
internal_weight=1103.67 351.997 751.67 100.459 282.053 260.882 651.211 633.067 44.6582 55.8012 69.9438 55.8413
internal_count=5454 1475 3979 479 1070 962 3500 3427 190 289 405 289
is_linear=0
shrinkage=0.171583


Tree=7
num_leaves=8
num_cat=0
split_feature=17 22 12 12 27 26 12
split_gain=256.408 83.9785 32.6326 0.626104 0.132425 0.0135529 0.000580965
threshold=22.429999351501468 3.5049999952316289 0.44422641396522528 0.30167949199676519 0.58000001311302196 0.085000000894069686 0.25892916321754461
decision_type=2 2 2 2 2 2 2
left_child=3 5 -3 4 6 -2 -1
right_child=1 2 -4 -5 -6 -7 -8
leaf_value=-0.13273095776661401 -0.13299366171782151 0.47283839619298884 0.20750988888069399 -0.18740132501453913 -0.15814770650483795 -0.14521165945702055 -0.1347670928541109
leaf_weight=188.0660126619041 9.6117125749587995 27.947578124701977 26.670608580112457 6.5753811895847312 6.265751600265502 3.7631350904703131 5.3758257627487174
leaf_count=4805 233 128 85 23 31 55 94
internal_value=-0.0400528 0.248913 0.343276 -0.135299 -0.133583 -0.136433 -0.132788
internal_weight=274.276 67.993 54.6182 206.283 199.708 13.3748 193.442
internal_count=5454 501 213 4953 4930 288 4899
is_linear=0
shrinkage=0.171583


Tree=8
num_leaves=14
num_cat=0
split_feature=17 14 17 26 24 17 25 17 26 17 24 14 13
split_gain=1046.85 158.805 108.807 107.801 53.787 57.6698 45.2897 28.585 20.2076 13.5941 23.0758 8.26986 0.600556
threshold=16.035000801086429 4.5650000572204599 16.875000000000004 -1.0000000180025095e-35 -2.195000052452087 14.434999942779543 0.24549999833106997 15.355000019073488 0.024999999441206459 17.394999504089359 0.95499998331069957 4.2149999141693124 0.20515381544828418
decision_type=2 2 2 2 2 2 2 2 2 2 2 2 2
left_child=1 4 3 11 5 -1 -5 -6 -3 10 -4 -2 -11
right_child=2 8 9 6 7 -7 -8 -9 -10 12 -12 -13 -14
leaf_value=0.22575073688843242 0.24390186267616637 0.0011103787267384272 -0.16373802161616804 -0.1722205263542895 0.19588285279994705 -0.099214299828006877 0.033010839256704297 0.10330984205231891 -0.19773145748523405 -0.18286791727922946 0.010117929138964898 0.11133420757975417 -0.16967623140489299
leaf_weight=25.401753515005112 28.921913981437683 24.762524098157883 76.735727399587631 92.496400564908981 540.53016471862793 43.801173806190491 48.127832621335983 120.00488778948784 38.350255846977234 393.76381708681583 31.786883682012558 26.592960029840469 137.00102186203003
leaf_count=81 88 79 266 302 1774 141 149 366 129 1437 98 81 552
internal_value=0.000177948 0.141403 -0.13385 -0.0220567 0.163986 0.0200677 -0.101981 0.179064 -0.119715 -0.168149 -0.112814 0.180399 -0.179463
internal_weight=1628.28 792.851 835.427 196.139 729.738 69.2029 140.624 660.535 63.1128 639.287 108.523 55.5149 530.765
internal_count=5543 2570 2973 620 2362 222 451 2140 208 2353 364 169 1989
is_linear=0
shrinkage=0.171583


Tree=9
num_leaves=14
num_cat=0
split_feature=16 20 21 17 17 23 16 27 22 22 17 19 22
split_gain=552.265 179.946 229.307 123.146 91.9743 79.3381 28.3918 50.7446 1.98602 1.58576 0.0851254 0.0440176 0.0358762
threshold=-0.029999999329447743 4.1499998569488534 4.1549999713897714 23.704999923706058 14.72499990463257 71.770000457763686 -0.20499999821186063 0.10500000044703485 3.7150000333786015 2.7150000333786015 14.659999847412111 313.37199401855474 3.2549999952316289
decision_type=2 2 2 2 2 2 2 2 2 2 2 2 2
left_child=6 4 3 -3 -2 -4 10 -8 -9 -6 11 -1 -12
right_child=1 2 5 -5 9 -7 7 8 -10 -11 12 -13 -14
leaf_value=-0.15911084581785853 -0.12760348426582077 0.16431106145457958 -0.10309500378790817 -0.12065882873580354 0.27480488015978721 0.16944719680061449 0.13120993527164129 -0.17406308474264617 -0.10608604145568894 0.23150863562770385 -0.16988692559376961 -0.16721823033635111 -0.16342947254556295
leaf_weight=247.4533122330904 22.354297578334808 329.36179161071777 278.6472986638546 51.645664751529694 28.375993549823761 35.446075230836868 29.098239988088608 34.732462465763092 19.907988250255585 203.90306559205055 33.7259241938591 21.522258445620537 104.0034676194191
leaf_count=1203 90 1018 1171 184 86 127 103 146 88 621 141 95 470
internal_value=0.00505362 0.0814081 0.0362039 0.125683 0.204807 -0.072338 -0.142805 -0.0518234 -0.149296 0.236798 -0.161538 -0.15976 -0.165011
internal_weight=1440.18 949.734 695.101 381.007 254.633 314.093 490.444 83.7387 54.6405 232.279 406.705 268.976 137.729
internal_count=5543 3297 2500 1202 797 1298 2246 337 234 707 1909 1298 611
is_linear=0
shrinkage=0.171583


Tree=10
num_leaves=11
num_cat=0
split_feature=27 23 24 15 17 15 17 17 12 24
split_gain=420.791 223.475 118.451 98.5205 59.4677 60.2085 56.6317 50.4172 0.0471008 0.00858608
threshold=0.10500000044703485 66.305000305175795 -4.2450001239776602 4.9449999332427987 15.194999694824221 3.7250000238418584 15.234999656677248 20.210000038146976 0.26897139847278601 3.5849999189376835
decision_type=2 2 2 2 2 2 2 2 2 2
left_child=2 8 -1 7 -3 -6 -5 -4 9 -2
right_child=1 4 3 6 5 -7 -8 -9 -10 -11
leaf_value=0.22820343003918367 -0.15189526293355318 -0.049543311375045196 -0.13106616881731226 -0.058139433082428471 0.033941675675716106 0.25656741632394137 0.28957052870553834 0.046242443128480561 -0.14148193874086457 -0.15694728675162142
leaf_weight=35.184015944600105 35.932580918073654 25.137966871261597 539.61318401992321 26.331099718809128 41.603675067424774 254.8491398692131 28.954773247241974 51.740784123539925 12.401027560234068 14.072089672088621
leaf_count=146 210 140 3392 137 145 839 97 238 125 74
internal_value=0.00251621 0.146177 -0.0783922 -0.0950743 0.203839 0.225325 0.123966 -0.115552 -0.150966 -0.153317
internal_weight=1065.82 383.996 681.824 646.64 321.591 296.453 55.2859 591.354 62.4057 50.0047
internal_count=5543 1533 4010 3864 1124 984 234 3630 409 284
is_linear=0
shrinkage=0.171583


Tree=11
num_leaves=8
num_cat=0
split_feature=12 22 24 12 26 27 27
split_gain=133.373 47.6777 35.9958 5.23675 2.22647 1.44618 0.0672412
threshold=0.24343483895063403 3.5949999094009404 11.014999866485597 0.44422641396522528 0.054999999701976783 -0.68500000238418568 0.58000001311302196
decision_type=2 2 2 2 2 2 2
left_child=2 4 5 -3 -2 -1 -7
right_child=1 3 -4 -5 -6 6 -8
leaf_value=-0.0058792716985837153 -0.031040243460634616 0.29571931176258864 0.36700789588806826 0.18475396043563985 -0.1630451513726181 -0.13211868864842585 -0.15277783577728651
leaf_weight=2.6891669481992713 7.1258417721837741 28.293347539380193 4.3846535943448535 22.463074922561646 7.9688966944813728 167.34267868287861 4.7818473279476157
leaf_count=60 102 123 25 80 71 5055 27
internal_value=-0.0418271 0.166991 -0.118563 0.24661 -0.10073 -0.130742 -0.132693
internal_weight=245.05 65.8512 179.198 50.7564 15.0947 174.814 172.125
internal_count=5543 376 5167 203 173 5142 5082
is_linear=0
shrinkage=0.171583


end of trees

feature_importances:
Column_17=28
Column_27=14
Column_24=12
Column_12=10
Column_22=10
Column_14=6
Column_16=6
Column_23=5
Column_18=4
Column_19=4
Column_25=4
Column_26=4
Column_15=3
Column_20=3
Column_21=3
Column_13=2
Column_2=1

parameters:
[boosting: gbdt]
[objective: multiclass]
[metric: multi_logloss]
[tree_learner: serial]
[device_type: cpu]
[data_sample_strategy: bagging]
[data: ]
[valid: ]
[num_iterations: 3]
[learning_rate: 0.171583]
[num_leaves: 17]
[num_threads: 0]
[seed: 42]
[deterministic: 0]
[force_col_wise: 0]
[force_row_wise: 0]
[histogram_pool_size: -1]
[max_depth: 4]
[min_data_in_leaf: 81]
[min_sum_hessian_in_leaf: 0.001]
[bagging_fraction: 0.502449]
[pos_bagging_fraction: 1]
[neg_bagging_fraction: 1]
[bagging_freq: 1]
[bagging_seed: 400]
[bagging_by_query: 0]
[feature_fraction: 0.969063]
[feature_fraction_bynode: 1]
[feature_fraction_seed: 30056]
[extra_trees: 0]
[extra_seed: 12879]
[early_stopping_round: 0]
[early_stopping_min_delta: 0]
[first_metric_only: 0]
[max_delta_step: 0]
[lambda_l1: 9.56549e-05]
[lambda_l2: 1.16306e-05]
[linear_lambda: 0]
[min_gain_to_split: 0]
[drop_rate: 0.1]
[max_drop: 50]
[skip_drop: 0.5]
[xgboost_dart_mode: 0]
[uniform_drop: 0]
[drop_seed: 17869]
[top_rate: 0.2]
[other_rate: 0.1]
[min_data_per_group: 100]
[max_cat_threshold: 32]
[cat_l2: 10]
[cat_smooth: 10]
[max_cat_to_onehot: 4]
[top_k: 20]
[monotone_constraints: ]
[monotone_constraints_method: basic]
[monotone_penalty: 0]
[feature_contri: ]
[forcedsplits_filename: ]
[refit_decay_rate: 0.9]
[cegb_tradeoff: 1]
[cegb_penalty_split: 0]
[cegb_penalty_feature_lazy: ]
[cegb_penalty_feature_coupled: ]
[path_smooth: 0]
[interaction_constraints: ]
[verbosity: -1]
[saved_feature_importance_type: 0]
[use_quantized_grad: 0]
[num_grad_quant_bins: 4]
[quant_train_renew_leaf: 0]
[stochastic_rounding: 1]
[linear_tree: 0]
[max_bin: 255]
[max_bin_by_feature: ]
[min_data_in_bin: 3]
[bin_construct_sample_cnt: 200000]
[data_random_seed: 175]
[is_enable_sparse: 1]
[enable_bundle: 1]
[use_missing: 1]
[zero_as_missing: 0]
[feature_pre_filter: 1]
[pre_partition: 0]
[two_round: 0]
[header: 0]
[label_column: ]
[weight_column: ]
[group_column: ]
[ignore_column: ]
[categorical_feature: ]
[forcedbins_filename: ]
[precise_float_parser: 0]
[parser_config_file: ]
[objective_seed: 16083]
[num_class: 4]
[is_unbalance: 0]
[scale_pos_weight: 1]
[sigmoid: 1]
[boost_from_average: 1]
[reg_sqrt: 0]
[alpha: 0.9]
[fair_c: 1]
[poisson_max_delta_step: 0.7]
[tweedie_variance_power: 1.5]
[lambdarank_truncation_level: 30]
[lambdarank_norm: 1]
[label_gain: ]
[lambdarank_position_bias_regularization: 0]
[eval_at: ]
[multi_error_top_k: 1]
[auc_mu_weights: ]
[num_machines: 1]
[local_listen_port: 12400]
[time_out: 120]
[machine_list_filename: ]
[machines: ]
[gpu_platform_id: -1]
[gpu_device_id: -1]
[gpu_use_dp: 0]
[num_gpu: 1]

end of parameters

pandas_categorical:null
