tree
version=v4
num_class=4
num_tree_per_iteration=4
label_index=0
max_feature_idx=27
objective=multiclass num_class:4
feature_names=Column_0 Column_1 Column_2 Column_3 Column_4 Column_5 Column_6 Column_7 Column_8 Column_9 Column_10 Column_11 Column_12 Column_13 Column_14 Column_15 Column_16 Column_17 Column_18 Column_19 Column_20 Column_21 Column_22 Column_23 Column_24 Column_25 Column_26 Column_27
feature_infos=[26.044887542724609:748.16998291015625] [1245100:256611392] [-0.096509777009487152:0.1259777843952179] [-0.20678846538066864:0.11130178719758987] [-0.17321822047233582:0.22147943079471588] [27.038429260253906:729.9990234375] [27.916280746459961:694.86627197265625] [29.154205322265625:675.65789794921875] [0.52928650379180908:24.795200347900391] [0:100] [-0.45264741778373718:1.4415537118911743] [-2.7406487464904785:4.3214631080627441] [0.052738580852746964:0.6441618800163269] [0.082419939339160919:0.43999388813972473] [3.630000114440918:4.9800000190734863] [3.380000114440918:5.190000057220459] [-1.0800000429153442:0.74000000953674316] [11.859999656677246:52.330001831054688] [117.02639770507812:130.04130554199219] [304.01400756835938:332.40701293945312] [3.5:4.5] [3.6400001049041748:5.3299999237060547] [2.5899999141693115:4.6100001335144043] [55.439998626708984:114.58000183105469] [-22.209999084472656:30.559999465942383] [-3.355600118637085:2.4186000823974609] [-0.40000000596046448:0.5] [-1.1100000143051147:1.6399999856948853]
tree_sizes=3312 1505 3299 3008 3400 3530 3406 3383 3391 3518 3406 3359 3408 3510 3401 3350 3405 3507 3408 3349 3410 3503 3402 3360 3416 3495 3406 3367 3416 3509 3408 3368 3418 3507 3399 3385 3409 3507 3404 3391 3422 3506 3409 3402 3421 3522 3406 3401 3411 3511 3403 3411 3411 3499 3402 3398 3423 3522 3406 3405 3413 3519 3408 3379 3413 3502 3416 3381 3424 3525 3411 3389 3421 3522 3416 3387 3415 3529 3400 3396 3421 3523 3409 3408 3428 3545 3435 3394 3426 3543 3420 3396 3421 3542 3433 3400

Tree=0
num_leaves=31
num_cat=0
split_feature=22 17 23 24 18 14 22 15 17 15 18 24 22 14 23 17 25 27 15 19 22 27 27 2 15 25 14 24 3 0
split_gain=3022.6 1496.48 406.497 182.46 141.675 145.749 142.954 106.344 291.958 221.188 312.125 82.1194 73.2866 70.9545 60.5247 40.6177 52.4004 63.7668 72.2358 36.7301 153.283 26.5322 21.9473 14.8024 14.6242 7.5181 16.7896 1.67659 3.02598 4.54747e-13
threshold=2.9850000143051152 17.289999961853031 101.40999984741212 -6.0950000286102286 118.36194992065431 4.5850000381469735 2.7150000333786015 4.0450000762939462 18.595000267028812 3.8249999284744267 122.38425064086915 1.7799999713897707 2.7749999761581425 4.3750000000000009 73.260002136230483 18.025000572204593 -0.059900000691413872 0.17500000447034839 3.5949999094009404 326.30950927734381 2.7050000429153447 -0.47499999403953547 0.27500000596046453 0.020235182717442516 4.2550001144409189 1.2256500124931338 4.2249999046325692 -3.7300000190734859 0.012682097498327495 585.00292968750011
decision_type=2 2 2 2 2 2 2 2 2 2 2 2 2 2 2 2 2 2 2 2 2 2 2 2 2 2 2 2 2 2
left_child=1 3 12 24 13 19 -7 8 9 11 21 22 14 -5 -3 16 -14 18 -18 23 -21 -11 -2 27 -1 -10 -27 28 -6 -29
right_child=7 2 -4 4 5 6 -8 -9 25 10 -12 -13 15 -15 -16 -17 17 -19 -20 20 -22 -23 -24 -25 -26 26 -28 29 -30 -31
leaf_value=-1.2724705934445302 -1.3602571780132269 -1.3602571780132269 -1.1700529114477172 -1.3602571780132269 -1.2176039780890946 -1.1700529114477172 -1.3602571780132269 -1.3602571780132269 -1.3602571780132269 -1.2684344286367739 -1.3602571780132269 -1.1700529114477172 -1.3602571780132269 -1.1700529114477172 -1.1700529114477172 -1.3602571780132269 -1.3602571780132269 -1.3602571780132269 -1.1700529114477172 -1.3602571780132269 -1.1700529114477172 -1.1700529114477172 -1.2686773459631666 -1.246134618073921 -1.3602571780132269 -1.3602571780132269 -1.265155044730472 -1.1700529114477172 -1.1700529114477172 -1.1700529114477172
leaf_weight=6.8347575068473843 83.594341814517975 6.8347575068473843 38.379792153835297 17.349769055843357 5.257505774497985 17.875519633293152 22.081524252891541 1011.5441110134125 382.22066980600357 7.6233833730220786 35.225288689136505 6.5718822181224814 36.276789844036102 6.8347575068473807 10.777886837720869 209.24872982501984 7.0976327955722835 14.19526559114456 16.824018478393555 13.669515013694761 47.054676681756973 67.821824491024017 7.09763279557228 6.5718822181224814 15.509642034769056 14.458140879869463 6.8347575068473807 420.07471138238907 9.2006351053714734 41.271420329809189
leaf_count=26 318 26 146 66 20 68 84 3848 1454 29 134 25 138 26 41 796 27 54 64 52 179 258 27 25 59 55 26 1598 35 157
internal_value=-1.30858 -1.23872 -1.32331 -1.19308 -1.18792 -1.183 -1.27517 -1.35031 -1.33384 -1.28571 -1.23737 -1.34072 -1.34283 -1.3065 -1.24386 -1.34898 -1.31724 -1.2763 -1.22649 -1.17622 -1.21287 -1.17999 -1.35309 -1.17161 -1.3334 -1.35865 -1.32973 -1.17058 -1.18734 -1.17005
internal_weight=2592.21 969.221 339.635 629.586 607.242 583.057 39.957 1622.99 611.448 207.934 110.67 97.2639 301.255 24.1845 17.6126 283.642 74.3937 38.1169 23.9217 543.1 60.7242 75.4452 90.692 482.376 22.3444 403.514 21.2929 475.804 14.4581 461.346
internal_count=9861 3687 1292 2395 2310 2218 152 6174 2326 791 421 370 1146 92 67 1079 283 145 91 2066 231 287 345 1835 85 1535 81 1810 55 1755
is_linear=0
shrinkage=1


Tree=1
num_leaves=13
num_cat=0
split_feature=19 16 11 0 1 0 0 1 1 8 1 1
split_gain=7348.62 8.54524 14.2231 9.09495e-13 9.09495e-13 4.54747e-13 4.54747e-13 5.68434e-14 2.84217e-14 1.42109e-14 7.10543e-15 7.10543e-15
threshold=313.81550598144537 -0.1649999991059303 -0.71915239095687855 510.09761047363287 3833600.0000000005 672.75997924804699 526.24346923828136 3490650.0000000005 69664700.000000015 3.6821682453155522 43135250.000000007 81060952.000000015
decision_type=2 2 2 2 2 2 2 2 2 2 2 2
left_child=3 2 -2 4 7 6 -3 -1 -8 -9 -5 -7
right_child=1 5 -4 10 -6 11 8 9 -10 -11 -12 -13
leaf_value=-0.86097074970186915 -1.0196040857992972 -1.0196040857992972 -0.92442408414084032 -0.86097074970186915 -0.86097074970186915 -1.0196040857992972 -1.0196040857992972 -0.86097074970186915 -1.0196040857992972 -0.86097074970186915 -0.86097074970186915 -1.0196040857992972
leaf_weight=56.419413179159164 10.40134432911873 1712.4395072758198 6.3038450479507437 6.6190373003482845 1092.7715390622616 28.367302715778351 114.41478762030602 9.1405753195285815 44.44210758805275 9.4557675719261152 9.4557675719261152 7.8798063099384299
leaf_count=179 33 5433 20 21 3467 90 363 29 141 30 30 25
internal_value=-0.958988 -1.01929 -0.983687 -0.860971 -0.860971 -1.0196 -1.0196 -0.860971 -1.0196 -0.860971 -0.860971 -1.0196
internal_weight=3108.11 1924.25 16.7052 1183.86 1167.79 1907.54 1871.3 75.0158 158.857 18.5963 16.0748 36.2471
internal_count=9861 6105 53 3756 3705 6052 5937 238 504 59 51 115
is_linear=0
shrinkage=1


Tree=2
num_leaves=31
num_cat=0
split_feature=17 23 17 24 14 15 17 18 26 14 18 19 25 24 26 18 14 17 22 17 19 19 21 24 22 17 24 18 25 2
split_gain=1779.23 1166.79 827.511 308.368 199.457 243.993 176.042 165.475 186.828 142.604 137.691 135.077 146.961 133.625 95.3028 77.6079 206.789 82.3035 76.0109 75.2867 67.3841 61.4954 64.7797 58.9233 53.9177 49.0744 46.1522 24.5297 23.9396 23.2402
threshold=17.224999427795414 78.219997406005874 23.704999923706058 -3.7300000190734859 3.7949999570846562 3.9150000810623173 18.625000000000004 118.74480056762697 1.0000000180025095e-35 4.4249999523162851 128.51039886474612 326.30950927734381 -0.66800001263618458 1.7799999713897707 -0.15500000119209287 121.55725097656251 4.3550000190734872 17.250000000000004 2.7050000429153447 16.035000801086429 322.72999572753912 320.46099853515631 3.9850001335144047 5.3449997901916513 3.2999999523162846 23.380000114440922 3.1700000762939458 123.992000579834 0.61425000429153453 0.00073005841113626968
decision_type=2 2 2 2 2 2 2 2 2 2 2 2 2 2 2 2 2 2 2 2 2 2 2 2 2 2 2 2 2 2
left_child=3 2 6 9 5 -5 13 8 -3 20 11 -6 -13 15 -8 16 17 -2 -14 -12 -1 -4 -23 -16 -17 -25 -15 -9 -20 -28
right_child=1 7 21 4 10 -7 14 27 -10 -11 19 12 18 26 23 24 -18 -19 28 -21 -22 22 -24 25 -26 -27 29 -29 -30 -31
leaf_value=-1.2624821752943196 -1.448444866820102 -1.448444866820102 -1.4419718027940884 -1.2467840260096756 -1.447347606123893 -1.448444866820102 -1.448444866820102 -1.448444866820102 -1.2637303151534089 -1.448444866820102 -1.448444866820102 -1.2467840260096756 -1.2467840260096756 -1.448444866820102 -1.248435629947517 -1.2467840260096756 -1.448444866820102 -1.2591500209650319 -1.448444866820102 -1.2467840260096756 -1.377591057886709 -1.448444866820102 -1.2467840260096756 -1.2859122488534898 -1.3793040071136702 -1.448444866820102 -1.2467840260096756 -1.3513489064298967 -1.3435812295986802 -1.3980296566174955
leaf_weight=41.406154841184616 6.4464672207832328 25.537927836179733 100.41612401604652 29.752925634384155 1275.9046276211739 30.248807728290558 6.4464672207832328 229.5934094786644 29.504984587430954 21.322930037975311 6.9423493146896389 16.612050145864487 5.9505851268768302 23.05851736664772 302.73601832985878 66.448200583457947 26.281750977039337 52.563501954078674 44.629388451576233 13.884698629379271 18.347637474536896 7.1902903616428402 8.9258776903152448 16.61205014586449 8.6779366433620435 6.4464672207832328 5.2067619860172254 6.694408267736434 6.1985261738300315 4.9588209390640259
leaf_count=167 26 103 405 120 5146 122 26 926 119 86 28 67 24 93 1221 268 106 212 180 56 74 29 36 67 35 26 21 27 25 20
internal_value=-1.39877 -1.34451 -1.30687 -1.4323 -1.43768 -1.34845 -1.28016 -1.42751 -1.34943 -1.33744 -1.44158 -1.44355 -1.37759 -1.31805 -1.25807 -1.29915 -1.33179 -1.27983 -1.41586 -1.314 -1.29783 -1.42742 -1.33676 -1.2543 -1.26209 -1.33135 -1.40932 -1.44569 -1.43566 -1.32056
internal_weight=2444.95 933.746 642.415 1511.2 1430.12 60.0017 525.883 291.331 55.0429 81.0767 1370.12 1349.3 73.3905 193.642 332.241 160.418 85.2917 59.01 56.7785 20.827 59.7538 116.532 16.1162 325.795 75.1261 23.0585 33.2241 236.288 50.8279 10.1656
internal_count=9861 3766 2591 6095 5768 242 2121 1175 222 327 5526 5442 296 781 1340 647 344 238 229 84 241 470 65 1314 303 93 134 953 205 41
is_linear=0
shrinkage=1


Tree=3
num_leaves=28
num_cat=0
split_feature=17 24 23 26 19 22 17 23 14 11 14 17 23 18 19 16 27 14 13 1 0 0 0 0 0 0 0
split_gain=4751.56 391.912 365.483 198.369 116.372 476.991 53.3994 100.75 146.456 47.799 37.4359 33.6648 30.4638 28.4419 189.618 138.719 2.0861 45.9367 0.309568 4.54747e-13 2.27374e-13 5.68434e-14 5.68434e-14 7.10543e-15 3.55271e-15 1.77636e-15 8.88178e-16
threshold=23.380000114440922 -7.2149999141693106 59.545000076293952 0.12499999627470972 328.87649536132818 2.8950001001358037 24.800000190734867 70.094997406005874 4.2149999141693124 -0.13751956075429914 4.2950000762939462 22.970000267028812 79.645000457763686 127.74084854125978 318.28250122070318 0.30500000715255743 0.30500000715255743 4.0250000953674325 0.19804908335208896 7742750.0000000009 29.104356765747074 79.018142700195327 120.10558319091798 319.78823852539068 623.93838500976574 455.69290161132818 28.430981636047367
decision_type=2 2 2 2 2 2 2 2 2 2 2 2 2 2 2 2 2 2 2 2 2 2 2 2 2 2 2
left_child=1 3 -2 12 11 24 7 8 21 18 -10 13 -1 16 15 -15 20 -18 -7 -8 26 -4 -5 -19 -6 -25 -3
right_child=2 4 6 22 5 9 19 -9 10 -11 -12 -13 -14 14 -16 -17 17 23 -20 -21 -22 -23 -24 25 -26 -27 -28
leaf_value=-2.3483339893599657 -2.3483339893599657 -2.3483339893599657 -1.930145162724445 -1.9301451627244446 -2.3483339893599657 -1.9301451627244446 -1.9301451627244446 -1.9301451627244446 -2.3483339893599657 -2.1772567420999795 -2.1231553904023777 -2.1740886449284984 -2.1476033525749156 -1.9301451627244446 -2.3483339893599657 -2.3483339893599657 -2.1476033525749156 -2.3483339893599657 -1.9510546040562209 -1.9301451627244446 -2.3483339893599657 -1.9301451627244448 -1.9301451627244448 -2.3483339893599657 -2.3483339893599657 -2.3483339893599657 -2.3483339893599657
leaf_weight=5.1412182226777094 6.336850367486476 2.7499539330601683 2.5108275040984172 5.1412182226777059 36.466780416667461 6.8151032254099828 9.0868043005466443 17.575792528688908 4.5434021502733231 2.6303907185792914 3.1086435765028 2.8695171475410453 2.9890803620219231 5.1412182226777059 50.694802939891815 3.2282067909836769 2.9890803620219222 50.575239725410938 2.3912642896175385 55.238205090165138 872.21364963799715 3.7064596489071846 3.4673332199454308 6.8151032254099828 5.8585975095629683 3.9455860778689384 4.7825285792350769
leaf_count=43 53 23 21 43 305 57 76 147 38 22 26 24 25 43 424 27 25 423 20 462 7295 31 29 57 49 33 40
internal_value=-2.30656 -2.33747 -1.98058 -2.09742 -2.34126 -2.26987 -1.95625 -2.00965 -2.1104 -1.98928 -2.25686 -2.3451 -2.27454 -2.34559 -2.31193 -2.09145 -2.3477 -2.33901 -1.93558 -1.93015 -2.34833 -1.93015 -1.93015 -2.34833 -2.34833 -2.34833 -2.34833
internal_weight=1179.01 1076.91 102.107 16.7389 1060.17 54.1621 95.7701 31.4451 13.8693 11.8368 7.65205 1006 8.1303 1003.14 59.0642 8.36943 944.071 64.325 9.20637 64.325 879.746 6.21729 8.60855 61.3359 42.3254 10.7607 7.53248
internal_count=9861 9007 854 140 8867 453 801 263 116 99 64 8414 68 8390 494 70 7896 538 77 538 7358 52 72 513 354 90 63
is_linear=0
shrinkage=1


Tree=4
num_leaves=31
num_cat=0
split_feature=22 17 23 26 18 15 17 15 18 24 24 22 14 23 17 18 27 19 22 26 27 26 4 11 24 11 11 17 24 17
split_gain=2656.28 1213.45 346.337 246.793 115.034 100.861 270.003 193.112 256.341 87.3906 71.338 66.2143 60.7869 49.6875 39.0187 39.8647 88.8726 24.8514 123.771 23.5294 20.552 18.2447 17.7517 17.0114 9.42171 24.2292 2.43384 12.5038 0.331103 1.8676
threshold=2.9850000143051152 17.289999961853031 101.40999984741212 0.21499999612569812 118.36194992065431 4.0450000762939462 18.595000267028812 3.8249999284744267 122.38425064086915 -6.0950000286102286 1.7799999713897707 2.7749999761581425 4.3750000000000009 73.260002136230483 18.025000572204593 118.53480148315431 0.16499999910593036 326.30950927734381 2.7050000429153447 -0.03499999921768903 0.27500000596046453 0.19500000029802325 -0.018794398754835125 -0.26824146509170527 -3.7300000190734859 0.61319351196289074 2.4124118089675908 21.295000076293949 5.3449997901916513 23.380000114440922
decision_type=2 2 2 2 2 2 2 2 2 2 2 2 2 2 2 2 2 2 2 2 2 2 2 2 2 2 2 2 2 2
left_child=1 3 11 4 12 6 7 10 19 23 20 13 -1 -3 15 -13 22 21 -19 -9 -2 24 -17 -6 25 -11 28 -28 -8 -30
right_child=5 2 -4 -5 9 -7 26 8 -10 17 -12 14 -14 -15 -16 16 -18 18 -20 -21 -22 -23 -24 -25 -26 -27 27 -29 29 -31
leaf_value=-0.050672180019175367 -0.050599373016973107 -0.050453983321134981 0.12101863108122107 -0.050460156305420806 0.0618035454138577 -0.050274591243861869 -0.050480194901093928 0.028128838405996649 -0.050382555373039088 0.12378561694002477 0.12101863108122107 -0.050505626587529079 0.12101863108122107 0.12101863108122107 -0.050476809042470185 0.01473527176849404 -0.050496677595840436 -0.050438531209925634 0.12122623917078945 0.12162022561641138 0.037096757406513491 0.043049215990744669 0.12023729772048292 -0.051006452874889252 0.1211016037012676 -0.00046896873618058437 0.035282922769005798 -0.050465734670341891 -0.022106516949119456 -0.0504705982055937
leaf_weight=16.924806147813801 81.326417624950409 6.6153936386108425 41.629553496837616 25.449675261974335 5.2894569635391226 972.41223919391632 320.87222898006439 7.4038864374160758 33.997044697403908 12.387941002845766 7.1283482015132895 31.611366301774979 7.4134821295738211 11.690491050481794 202.69462335109711 5.2715125083923366 20.640818297863007 13.223107099533079 50.990334302186966 73.928374022245407 7.2788031101226798 7.8426204323768607 16.364312261343002 9.0759368240833265 519.60052490234375 5.7417588531970969 5.2069952785968807 23.1639464199543 6.9617762565612784 34.879749000072479
leaf_count=66 318 26 146 100 20 3848 1260 27 134 44 25 124 26 41 796 20 81 52 179 260 27 29 58 35 1823 21 20 91 27 137
internal_value=0.000286225 0.0635559 -0.0139844 0.102274 0.108268 -0.0403165 -0.024235 0.0213406 0.0649149 0.112427 -0.0311529 -0.0330428 0.00162512 0.0590517 -0.0391382 -0.00803333 0.0237243 0.115298 0.0858763 0.113109 -0.0433953 0.118761 0.094532 -0.00946888 0.119865 0.0844336 -0.0488315 -0.0347281 -0.0499347 -0.0457513
internal_weight=2585.02 1010.46 336.518 673.94 648.49 1574.56 602.148 211.063 115.329 624.152 95.7336 294.889 24.3383 18.3059 276.583 73.888 42.2766 609.786 64.2134 81.3323 88.6052 545.573 21.6358 14.3654 537.73 18.1297 391.085 28.3709 362.714 41.8415
internal_count=9861 3687 1292 2395 2295 6174 2326 791 421 2203 370 1146 92 67 1079 283 159 2148 231 287 345 1917 78 55 1888 65 1535 111 1424 164
is_linear=0
shrinkage=0.05


Tree=5
num_leaves=31
num_cat=0
split_feature=19 16 11 22 16 22 25 22 27 20 24 24 18 18 22 27 16 27 22 26 23 18 23 24 14 25 14 27 22 16
split_gain=6471.34 8.09483 13.1097 0.00152004 0.0028562 0.00107035 0.00221072 0.00237581 0.0012113 0.00105678 0.00257425 0.00481018 0.000914705 0.00101878 0.000873366 0.000864047 0.00129689 0.000757483 0.000759314 0.00198283 0.000743416 0.00122464 0.000868758 0.000906188 0.000714371 0.00165351 0.000721819 0.000506275 0.00143848 0.00208814
threshold=313.81550598144537 -0.1649999991059303 -0.71915239095687855 4.4849998950958261 -0.15500000119209287 2.9450000524520878 -1.8475000262260435 2.7050000429153447 -0.5349999964237212 4.1499998569488534 -3.2050000429153438 -3.6400001049041744 119.07850265502931 129.45664978027347 2.8449999094009404 -0.92499998211860646 0.50499999523162853 -0.41499999165534968 3.0349999666213994 0.085000000894069686 58.370000839233406 120.69599914550783 58.835000991821296 -2.9800000190734859 3.935000061988831 -0.65649998188018788 3.9650000333786015 0.54500001668930065 3.4650000333786015 0.30500000715255743
decision_type=2 2 2 2 2 2 2 2 2 2 2 2 2 2 2 2 2 2 2 2 2 2 2 2 2 2 2 2 2 2
left_child=3 2 -2 -1 -5 6 7 -3 -8 10 11 -7 -10 -14 -15 16 -11 -12 19 -19 21 -17 23 -22 25 -24 -26 -28 29 -29
right_child=1 5 -4 4 -6 9 8 -9 12 15 17 -13 13 14 -16 20 -18 18 -20 -21 22 -23 24 -25 26 -27 27 28 -30 -31
leaf_value=0.089594225837205721 -0.05873461652241372 -0.058624947773684336 0.032848693937553533 0.090761133269760819 0.089574766344840573 -0.058793460466119309 -0.057953525362894769 -0.059817739658880743 -0.058736618431313392 -0.05865182890548342 -0.059113827043062207 -0.060253348194128954 -0.058599401168550606 -0.058637771780011907 -0.059368423499241811 -0.058647237117961742 -0.057873533171181026 -0.058652616155880334 -0.058667839605333741 -0.059610462245518997 -0.059467754225414261 -0.057925300332889673 -0.058010163744046606 -0.058714813802055267 -0.059181181288902443 -0.058656580550467186 -0.058679301954773104 -0.058667524393110064 -0.058691734194601858 -0.05959221549138688
leaf_weight=1197.03874117136 10.156325548887255 8.6051503121852893 6.3509739935398093 8.0814883708953875 13.629354000091551 16.940289646387104 6.6952922940254203 8.1083356738090497 163.11778074502945 15.371802449226381 12.67800661921501 8.4602779448032361 820.56829956173897 8.2992289960384387 8.0638661682605726 20.596888452768329 8.2118332386016828 16.294269651174549 139.91190016269684 8.0833179354667646 7.4531650543212917 8.2179611921310407 12.185861915349959 8.6153094768524152 8.0456147789955121 52.574664235115051 400.41289511322975 11.992485076189043 68.901805937290192 12.436760872602461
leaf_count=3689 33 28 20 25 42 55 22 26 530 50 41 27 2671 27 26 67 27 53 455 26 24 27 40 28 26 171 1302 39 224 40
internal_value=-0.000115301 -0.0583584 -0.0234991 0.0896017 0.0900164 -0.0586676 -0.0586333 -0.0592036 -0.0586238 -0.0587095 -0.058809 -0.0592797 -0.0586283 -0.0586072 -0.0589978 -0.0586778 -0.0583808 -0.0587414 -0.0587127 -0.0589702 -0.0586893 -0.0584413 -0.0587015 -0.0590641 -0.0586912 -0.0585349 -0.0587114 -0.0587037 -0.0588086 -0.0591383
internal_weight=3096.1 1877.35 16.5073 1218.75 21.7108 1860.84 1023.46 16.7135 1006.74 837.385 202.368 25.4006 1000.05 836.931 16.3631 635.017 23.5836 176.967 164.289 24.3776 611.433 28.8148 582.619 16.0685 566.55 64.7605 501.79 493.744 93.3311 24.4292
internal_count=9861 6105 53 3756 67 6052 3330 54 3276 2722 657 82 3254 2724 53 2065 77 575 534 79 1988 94 1894 52 1842 211 1631 1605 303 79
is_linear=0
shrinkage=0.05


Tree=6
num_leaves=31
num_cat=0
split_feature=17 23 17 14 16 27 26 17 19 25 18 26 22 17 19 16 18 19 22 17 21 27 22 26 13 16 17 26 3 18
split_gain=1571.41 968.934 663.535 192.969 208.773 174.632 130.916 126.651 126.372 140.357 120.345 74.3358 64.2524 60.0908 56.0142 55.6569 62.048 145.663 72.3239 57.8057 53.0669 51.7523 52.2692 42.4866 37.6748 89.3818 32.7422 42.4871 27.7284 43.5879
threshold=17.224999427795414 78.219997406005874 23.704999923706058 3.7949999570846562 0.034999999217689044 -0.28499999642372126 1.0000000180025095e-35 18.625000000000004 326.30950927734381 -0.66800001263618458 128.51039886474612 -0.15500000119209287 2.7050000429153447 16.035000801086429 320.46099853515631 0.024999999441206459 121.55725097656251 323.76799011230474 2.7749999761581425 17.250000000000004 3.9850001335144047 0.19500000029802325 3.4550000429153447 0.085000000894069686 0.23560468852519992 0.54500001668930065 22.970000267028812 0.024999999441206459 0.045037861913442619 124.75329971313478
decision_type=2 2 2 2 2 2 2 2 2 2 2 2 2 2 2 2 2 2 2 2 2 2 2 2 2 2 2 2 2 2
left_child=3 2 7 4 -1 6 -3 15 10 -10 21 -9 -11 -12 -4 -2 17 -17 -18 -19 -16 24 23 -23 28 -26 -13 -28 -5 -30
right_child=1 5 14 8 -6 -7 -8 11 9 12 13 26 -14 -15 20 16 18 19 -20 -21 -22 22 -24 -25 25 -27 27 -29 29 -31
leaf_value=-0.048884817516309118 -0.049323795928112223 -0.049085526891429532 -0.042520415097242872 -0.046785835793491513 0.13065804976212975 -0.046237772471273898 0.11713392116089882 -0.04913532317159016 0.13264402275044931 0.13050523260015007 -0.04900489454481205 0.1289763313986014 -0.036097859936814657 0.13050523260015007 -0.049054807093494628 -0.031037505968307257 -0.048992157180070522 -0.048992157180070522 0.11852591396125128 0.11151205405962512 0.13154438915005937 -0.0013473964889446563 -0.049335170893855695 0.13332172884000967 -0.040001487204612683 0.1380078648438309 0.13128165469356806 0.0067202427643065932 -0.040750656311958823 0.077149419496408064
leaf_weight=29.060607612133026 8.9799140989780408 18.750499188899994 97.738580957055092 1190.5244275778532 36.561332941055298 234.26200775802135 32.169535607099533 6.2643208354711524 21.896736800670624 6.5528883934020987 6.7069285660982159 329.70347753167152 49.522428661584854 15.290072917938231 6.9625386297702816 35.439119219779968 6.9425083696842185 6.2243178486824027 89.57885979115963 56.808026254177094 9.7825502157211286 12.460343867540361 19.141126841306686 11.051096320152281 27.41847237944603 9.4935373663902265 14.419537365436556 13.033936500549315 23.816840305924416 11.685615956783293
leaf_count=122 37 78 405 4980 134 978 119 26 81 24 28 1210 205 56 29 146 29 26 332 211 36 51 79 41 114 36 53 51 99 45
internal_value=-0.00011543 0.0493935 0.0817602 -0.0326594 0.0511477 -0.0279961 0.0559262 0.103915 -0.0365721 0.0252912 -0.0402055 0.121613 -0.0166288 0.0757722 -0.0280441 0.0723835 0.0779884 0.0500642 0.106477 0.0956626 0.056452 -0.0421595 0.0120094 0.0619512 -0.0439889 0.0057814 0.124608 0.0721443 -0.0454873 -0.0019439
internal_weight=2438.24 967.06 681.878 1471.18 65.6219 285.182 50.92 567.394 1405.56 77.9721 1327.59 363.421 56.0753 21.997 114.484 203.973 194.993 98.4715 96.5214 63.0323 16.7451 1305.59 42.6526 23.5114 1262.94 36.912 357.157 27.4535 1226.03 35.5025
internal_count=9861 3766 2591 6095 256 1175 197 2121 5839 310 5529 1340 229 84 470 781 744 383 361 237 65 5445 171 92 5274 150 1314 104 5124 144
is_linear=0
shrinkage=0.05


Tree=7
num_leaves=31
num_cat=0
split_feature=17 24 27 19 22 26 23 18 19 16 27 14 18 24 15 23 27 14 22 15 17 16 23 12 2 18 18 23 19 10
split_gain=3325.92 314.783 211.658 110.239 327.916 104.156 91.5414 27.828 147.415 78.0219 26.6488 24.0704 18.6067 5.65383 22.1168 17.7182 2.13288 38.9343 1.12964 0.781474 0.0841667 0.0378785 0.0140571 0.00651425 0.00126085 0.000921358 0.000595956 0.000516485 0.000155791 9.79347e-05
threshold=22.970000267028812 -7.2149999141693106 -0.085000000894069658 328.87649536132818 2.8950001001358037 0.12499999627470972 59.545000076293952 127.74084854125978 318.28250122070318 0.30500000715255743 -1.0000000180025095e-35 4.1949999332427987 127.97274780273439 0.22500000149011615 3.935000061988831 61.70000076293946 0.30500000715255743 4.0250000953674325 2.9850000143051152 4.0050001144409189 21.025000572204593 -0.085000000894069658 104.67500305175783 0.20699831098318103 0.0086945137009024637 122.31110000610353 122.58824920654298 60.409999847412116 313.81550598144537 0.65929546952247631
decision_type=2 2 2 2 2 2 2 2 2 2 2 2 2 2 2 2 2 2 2 2 2 2 2 2 2 2 2 2 2 2
left_child=1 5 27 7 -5 10 -4 16 9 24 -1 -6 13 14 15 -8 28 -18 -15 22 23 -7 25 -13 -9 -20 -17 -2 -3 -12
right_child=2 3 6 4 11 21 12 8 -10 -11 29 20 -14 18 -16 26 17 -19 19 -21 -22 -23 -24 -25 -26 -27 -28 -29 -30 -31
leaf_value=0.14084147933100818 -0.041461476335782108 -0.041417184258339089 -0.041460438147192823 -0.041456811499204958 0.11718140761765523 0.2635733333347805 0.14097277762613492 0.25820307462129921 -0.041464563285789569 -0.041459399518098655 -0.041559950228442978 0.25772104106800864 0.14051802539181871 0.28913381516652076 0.11225391890847083 0.25772104106800858 0.13136918527811134 -0.041432878852096545 0.25772104106800858 0.27994229990742225 0.26769276935274694 0.25772104106800858 0.26075764740960466 0.26072980597322154 0.25953586849997984 0.25808804234067834 0.25811526212554875 -0.042330413838413398 -0.041460228169121836 -0.041997862464649177
leaf_weight=3.281014010310173 3.3414541929960242 396.08372333645821 2.7647549808025351 40.747090578079224 3.7485139071941367 4.3931253403425217 3.5344771146774283 3.6414810568094236 48.882620044052601 3.1096896305680275 2.5773501992225665 3.9786919355392438 3.815854772925376 3.3098133206367484 3.224385827779769 17.738334879279137 3.4511224776506415 58.760867163538933 34.813554435968399 4.330389291048049 4.6571701914072037 7.4600473791360837 4.5968287438154212 3.2837488353252411 3.4611247032880783 33.613384068012238 20.861653625965118 3.5027325749397278 447.95415126532316 2.530046358704567
leaf_count=26 29 3469 24 354 26 27 25 22 424 27 22 24 27 22 23 107 25 513 210 28 29 45 28 20 21 203 126 26 3889 20
internal_value=-8.58878e-05 -0.0307754 0.229237 -0.0346434 0.0332936 0.164476 0.243231 -0.0386137 -0.00536924 0.167406 0.0296518 0.227692 0.249294 0.252587 0.238464 0.248123 -0.0407815 -0.0318469 0.260529 0.259305 0.262446 0.25989 0.258081 0.259081 0.258853 0.257901 0.257934 -0.0419062 -0.04144 -0.0417769
internal_weight=1181.45 1042 139.448 1021.76 56.4152 20.2416 132.603 965.345 59.0949 10.2123 8.38841 15.6681 129.839 126.023 45.3589 42.1345 906.25 62.212 80.664 77.3542 11.9196 11.8532 73.0238 7.26244 7.10261 68.4269 38.6 6.84419 844.038 5.1074
internal_count=9861 8983 878 8843 453 140 823 8390 494 70 68 99 799 772 281 258 7896 538 491 469 73 72 441 44 43 413 233 55 7358 42
is_linear=0
shrinkage=0.05


Tree=8
num_leaves=31
num_cat=0
split_feature=22 17 23 26 15 17 15 18 18 24 24 22 14 23 17 25 27 15 25 26 19 22 11 26 2 25 24 24 9 19
split_gain=2350.9 1005.8 300.002 203.875 95.6909 250.257 169.972 216.727 92.6289 71.9476 64.1305 60.1529 53.0677 41.6633 37.4312 45.4273 50.4406 51.8808 20.1627 18.7487 18.4963 102.648 15.3505 14.2997 8.79447 7.5499 16.6781 0.721094 2.08803 0.192608
threshold=2.9850000143051152 17.289999961853031 101.40999984741212 0.21499999612569812 4.0450000762939462 18.595000267028812 3.8249999284744267 122.38425064086915 118.36194992065431 -6.0950000286102286 1.7799999713897707 2.7749999761581425 4.3750000000000009 73.260002136230483 18.025000572204593 -0.059900000691413872 0.17500000447034839 3.5949999094009404 0.56325000524520885 -0.03499999921768903 326.30950927734381 2.7050000429153447 -0.26824146509170527 0.19500000029802325 0.020235182717442516 1.2256500124931338 5.3449997901916513 -3.7300000190734859 47.797662734985359 323.76799011230474
decision_type=2 2 2 2 2 2 2 2 2 2 2 2 2 2 2 2 2 2 2 2 2 2 2 2 2 2 2 2 2 2
left_child=1 3 11 8 5 6 10 19 12 22 18 13 -1 -3 15 -13 17 -17 -2 -8 23 -22 -10 24 27 -7 -27 28 -11 -19
right_child=4 2 -4 -5 -6 25 7 -9 9 20 -12 14 -14 -15 -16 16 -18 29 -20 -21 21 -23 -24 -25 -26 26 -28 -29 -30 -31
leaf_value=-0.049956102820470652 -0.049970679955060243 -0.04954799331040402 0.10772997146509483 -0.049597762019321277 -0.049266472429595587 -0.04962995266104573 0.026019231158194652 -0.049555963723891018 0.055605944749407069 0.073121788264324514 0.10989239318913729 -0.049785616608293073 0.10798882481591388 0.10768084886496879 -0.049637683781198982 -0.049710984628688504 -0.049696300474909361 0.10872713472946212 0.03655004765645084 0.10863047090588669 -0.049542656529007044 0.10813810899740239 -0.050504619163825218 0.039600132613737765 0.05275692678325547 -0.049934424919979577 0.046409264144017012 0.1077755093615876 0.11046335419020724 0.11930316271634632
leaf_weight=16.453992664813999 79.032090425491333 6.3797751069068935 44.174562126398087 24.589269548654556 932.66154547035694 357.94563412666321 7.5278922021388999 32.886474773287773 5.5180686712265006 5.8298631906509426 7.4926272630691519 34.191403016448021 7.8578909039497367 12.407821625471113 196.0062081515789 6.6708280295133617 13.331469580531119 12.350529640913011 7.3607556670904151 78.352072149515152 12.756661057472227 54.062975704669952 8.9147107899188978 8.0393212437629682 7.4426261186599723 13.700348347425463 6.6833036690950385 546.62751463055611 10.461339980363844 6.6084157526493064
leaf_count=66 317 26 146 100 3848 1454 27 134 20 20 25 138 26 41 796 27 54 41 28 260 52 179 35 29 26 55 26 1807 35 23
internal_value=0.000273482 0.058201 -0.013596 0.0918544 -0.039292 -0.0235508 0.0198479 0.0595924 0.0969398 0.100472 -0.0304293 -0.0322089 0.00109358 0.0542901 -0.0382467 -0.00772543 0.0291855 0.0702164 -0.042599 0.101389 0.102942 0.078035 -0.00993548 0.105819 0.106753 -0.0479444 -0.0183457 0.107467 0.0971005 0.112414
internal_weight=2564.32 1040.68 332.121 708.554 1523.64 590.981 212.652 118.766 683.965 659.653 93.8855 287.946 24.3119 18.7876 269.159 73.1526 38.9612 25.6298 86.3928 85.88 645.22 66.8196 14.4328 578.401 570.361 378.329 20.3837 562.919 16.2912 18.9589
internal_count=9861 3687 1292 2395 6174 2326 791 421 2295 2203 370 1146 92 67 1079 283 145 91 345 287 2148 231 55 1917 1888 1535 81 1862 55 64
is_linear=0
shrinkage=0.05


Tree=9
num_leaves=31
num_cat=0
split_feature=19 16 27 24 15 18 17 16 16 16 12 16 22 17 27 26 16 22 18 16 19 22 17 16 15 20 17 17 27 26
split_gain=5742.77 7.48406 8.49789 0.00600844 0.00576874 0.00525632 0.0042547 0.00269557 0.00646708 0.00377575 0.00640297 0.00234877 0.0040575 0.00221448 0.00778998 0.00193632 0.00518527 0.0026316 0.00316022 0.00197042 0.00170037 0.00894301 0.00139501 0.00148756 0.00137411 0.00132807 0.00156277 0.00127386 0.00272175 0.00147836
threshold=313.81550598144537 -0.1649999991059303 0.19500000029802325 -2.8499999046325679 4.3949999809265146 118.36194992065431 23.529999732971195 0.57499998807907116 0.54500001668930065 0.55500000715255748 0.25892916321754461 0.7150000035762788 2.8249999284744267 24.695000648498539 0.54500001668930065 0.18500000238418582 0.085000000894069686 3.2999999523162846 122.53404998779298 0.054999999701976783 315.18150329589849 3.1250000000000004 20.659999847412113 -0.15500000119209287 3.8249999284744267 4.4500000476837167 17.494999885559086 18.595000267028812 -0.4849999994039535 -0.14500000327825543
decision_type=2 2 2 2 2 2 2 2 2 2 2 2 2 2 2 2 2 2 2 2 2 2 2 2 2 2 2 2 2 2
left_child=22 2 -2 5 6 -3 11 8 15 10 -10 20 -13 14 24 17 -17 19 -19 -7 21 -5 -1 -24 -8 27 -27 28 -22 -29
right_child=1 3 -4 4 -6 7 13 -9 9 -11 -12 12 -14 -15 -16 16 -18 18 -20 -21 25 -23 23 -25 -26 26 -28 29 -30 -31
leaf_value=0.082927625394858276 0.014510827471793728 -0.058273745961426121 -0.057623477477873254 -0.058471807104107709 -0.058095208207077399 -0.057603613721051654 -0.056802171518813629 -0.05634045595989056 -0.058560996958305848 -0.057047095127615091 -0.056873969708625016 -0.058067274943182291 -0.056799232639637168 -0.056857223984963991 -0.058645813463338928 -0.058388085495047509 -0.056933825975303422 -0.055406792688618804 -0.05673288458313757 -0.056827919134779518 -0.055965730435445407 -0.056760365175639919 0.083814425351131719 0.082917174922418346 -0.057412007806574551 -0.057567517460269203 -0.056812504469986203 -0.05746165060217058 -0.05665173169914979 -0.056739728214731534
leaf_weight=1222.0618849992752 7.8920539915561685 7.9516543149948111 8.4591732919216156 8.2569127976894361 7.919570565223693 8.7800130546092969 32.003653764724731 16.020275056362152 15.961081534624102 20.41667315363884 8.6847935616970044 8.5296857059001905 24.226756870746613 135.32069307565689 8.2939446568489057 7.3517657518386832 36.869482576847076 6.9987107217311886 12.547267019748686 121.1834152340889 14.72152206301689 101.02833703160286 9.2294097542762774 9.2482415437698346 12.984839290380476 8.1721410453319532 42.481774926185608 7.2499522864818564 810.89839828014374 324.48175573348999
leaf_count=3700 25 26 28 27 26 29 107 54 52 68 29 28 81 452 27 24 123 24 42 405 50 338 28 28 43 27 142 24 2718 1086
internal_value=-7.70093e-05 -0.0564824 -0.0228073 -0.0567868 -0.0567492 -0.0570078 -0.0567423 -0.0569683 -0.0570104 -0.05755 -0.0579665 -0.0567112 -0.0571294 -0.0569647 -0.0572378 -0.0568849 -0.0571756 -0.056799 -0.0562581 -0.0568803 -0.0567008 -0.0568897 0.0829341 0.0833653 -0.0569782 -0.0566837 -0.0569343 -0.0566728 -0.0566395 -0.0567555
internal_weight=3066.23 1825.69 16.3512 1809.34 1546.57 262.765 1538.65 254.813 238.793 45.0625 24.6459 1350.05 32.7564 188.603 53.2824 193.731 44.2212 149.509 19.546 129.963 1317.29 109.285 1240.54 18.4777 44.9885 1208.01 50.6539 1157.35 825.62 331.732
internal_count=9861 6105 53 6052 5176 876 5150 850 796 149 81 4521 109 629 177 647 147 500 66 434 4412 365 3756 56 150 4047 169 3878 2768 1110
is_linear=0
shrinkage=0.05


Tree=10
num_leaves=31
num_cat=0
split_feature=19 19 18 22 27 23 22 16 24 24 19 18 26 27 18 24 22 19 22 20 23 27 18 24 18 19 18 25 14 11
split_gain=1277.26 575.171 322.072 382.268 363.89 291.647 280.228 166.992 110.442 89.4862 81.0369 74.9294 72.3385 70.9072 63.9805 58.4266 71.7273 51.8269 107.878 48.113 82.2198 77.178 53.2175 45.1889 72.0799 44.3046 133.771 28.4052 14.3388 14.0072
threshold=314.39700317382818 316.07951354980474 118.4733009338379 2.9850000143051152 0.095000002533197417 80.86999893188478 3.7250000238418584 0.51499998569488536 5.0750000476837167 -6.0950000286102286 318.28250122070318 126.46889877319337 0.22500000149011615 0.15500000119209292 128.72934722900393 -5.0350000858306876 3.4550000429153447 326.30950927734381 2.7350000143051152 4.1499998569488534 65.354999542236342 1.0000000180025095e-35 120.61754989624025 0.74500000476837169 119.06105041503908 317.06600952148443 126.31529998779298 -1.7088999748229978 4.1150000095367441 -0.26824146509170527
decision_type=2 2 2 2 2 2 2 2 2 2 2 2 2 2 2 2 2 2 2 2 2 2 2 2 2 2 2 2 2 2
left_child=15 -2 7 4 9 6 8 -3 19 29 14 13 17 -12 -6 16 -1 25 -19 20 -5 -22 -21 -20 -25 26 -11 -24 -10 -4
right_child=1 2 3 5 10 -7 -8 -9 28 12 11 -13 -14 -15 -16 -17 -18 18 23 22 21 -23 27 24 -26 -27 -28 -29 -30 -31
leaf_value=0.12245596257078722 0.11638777123875255 -0.048457945364876874 0.025389990993579904 -0.048496260328195019 -0.048847086326237521 -0.048385844658631265 -0.038767418370482122 0.11713919525461412 0.036441932275460165 0.11990335832570249 -0.049479212031466047 0.11720344223891377 0.11488515414762278 0.092292134037528242 0.11581677966959913 -0.04807911304264495 -0.048859480134711218 0.094318101207623406 -0.048545581802072475 0.0011968677804085612 0.10898071070934123 -0.048350436381077305 -0.048512359295799903 0.11726131068669964 -0.048452619823526381 -0.048292943353457303 -0.048317574088853267 0.10530558819099911 -0.04973788960681827 0.12701182556887758
leaf_weight=11.324362695217134 165.92028433084488 17.724181488156319 5.2115894258022317 16.127093255519867 23.44855505228043 70.905448392033577 59.011013269424438 107.92581105232239 6.7708093374967602 16.319412261247635 16.446116015315056 63.796629458665848 8.2083879709243757 19.019334644079208 7.8821668624877921 906.95103572309017 13.268823072314261 22.136652499437332 71.50079819560051 13.515829086303709 43.121802747249603 9.5146708190441114 3.041508123278617 12.181536734104158 14.224516868591307 397.47415295243263 42.844419345259666 227.60215567052364 16.808795586228371 9.7064228951930964
leaf_count=40 570 76 20 69 99 305 249 372 26 57 68 220 28 66 27 3964 56 78 306 54 152 41 13 42 61 1718 185 795 69 35
internal_value=-0.000101083 0.0286366 0.0176271 0.00963203 -0.0129492 0.0449936 0.0617342 0.0937801 0.0793587 -0.0294167 0.0626855 0.0848136 -0.032501 0.0265496 -0.00742104 -0.0460171 0.0300257 -0.0345989 -0.00536433 0.0872218 0.0502781 0.0805412 0.0976264 -0.0279024 0.0279939 -0.0422842 -0.00191648 0.103277 -0.0249916 0.0915104
internal_weight=2419.93 1488.39 1322.47 1196.82 730.401 466.419 395.514 125.65 336.503 599.808 130.593 99.2621 584.89 35.4655 31.3307 931.544 24.5932 576.681 120.044 312.923 68.7636 52.6365 244.159 97.9069 26.4061 456.638 59.1638 230.644 23.5796 14.918
internal_count=9861 5801 5231 4783 3010 1773 1468 448 1219 2530 480 354 2475 134 126 4060 96 2447 487 1124 262 193 862 409 103 1960 242 808 95 55
is_linear=0
shrinkage=0.05


Tree=11
num_leaves=31
num_cat=0
split_feature=27 16 15 19 22 18 24 20 15 25 24 16 24 21 24 25 16 18 22 15 23 15 15 18 18 11 11 25 16 10
split_gain=1232.13 447.114 394.233 271.652 346.363 192.677 159.623 123.465 104.521 102.333 86.8749 61.4785 58.0397 52.8028 43.8297 39.7102 23.03 33.7382 11.6537 20.1547 6.5083 1.02438 0.408776 0.168835 0.156596 0.0465854 0.0419617 0.0292015 0.0121257 0.0180991
threshold=0.16499999910593036 -0.11999999731779097 3.5049999952316289 328.87649536132818 2.8950001001358037 125.22889709472658 5.0750000476837167 4.3500001430511483 4.2850000858306894 -0.56819999217987049 6.2350001335144052 0.30500000715255743 5.6899998188018808 4.7349998950958261 -7.2149999141693106 -0.77889999747276295 0.2950000017881394 129.67614746093753 3.1650000810623173 3.6350001096725468 61.70000076293946 4.0350000858306894 3.7749999761581425 123.992000579834 126.85754776000978 0.38613237440586096 -0.19871298968791959 1.0753499865531924 -0.10000000149011611 0.35173888504505163
decision_type=2 2 2 2 2 2 2 2 2 2 2 2 2 2 2 2 2 2 2 2 2 2 2 2 2 2 2 2 2 2
left_child=3 -2 -3 12 15 7 8 18 9 11 -9 -7 14 -14 -1 -5 25 -18 19 -4 -20 23 -6 27 -8 -10 -24 28 29 -22
right_child=1 2 5 4 22 6 24 10 16 -11 -12 -13 13 -15 -16 -17 17 -19 20 -21 21 -23 26 -25 -26 -27 -28 -29 -30 -31
leaf_value=0.10913144176867134 -0.041219139327273419 -0.041475031832404537 0.19889642452587636 0.1400332321237617 0.21596396667457407 -0.041273819541692132 0.19934094042629505 -0.041303338393879646 0.20065540745764687 -0.041377253853793226 0.19881615909758718 0.22363977653364994 0.1978420981793711 -0.041307451748297024 -0.041238890201515291 -0.041263802430041012 0.19880263542590948 -0.041461374642673271 0.14938638337867632 0.074938092091686864 0.19880468325328615 0.22370482056395594 0.19910071741316737 0.20935156589812087 0.20943302630889976 0.20796974861499573 0.2047593555970301 0.20313117676841508 0.19921399841273535 0.20342484416816894
leaf_weight=4.8760914504528037 56.621424227952957 34.967160597443581 8.1596202701330167 3.2827451527118674 4.9717794507741955 3.2121792882680875 14.051234781742098 10.364346608519556 4.8627069443464261 34.965054996311665 5.9175579547882071 6.8825804889202118 4.9156844615936262 4.3511773571372032 785.56897447258234 37.789870329201221 2.8569011986255637 2.9906224608421326 6.4361886829137793 5.4824785217642775 4.0812528133392316 4.8327331542968741 18.344644024968154 4.7044779956340781 5.2912044972181311 3.9413397312164307 3.9885007888078645 5.6191148161888114 77.421465620398521 4.4104858189821243
leaf_count=29 518 306 40 24 26 29 69 93 24 310 29 37 24 39 7149 342 14 26 37 39 20 26 90 24 27 20 20 28 380 22
internal_value=-0.000187514 0.085718 0.114302 -0.0306741 0.0649801 0.139463 0.0772688 0.175239 0.0368314 -0.00089033 0.0459666 0.139344 -0.0388528 0.0855514 -0.0403113 -0.0267736 0.152842 0.0759234 0.192613 0.14908 0.198137 0.201242 0.202998 0.200114 0.202102 0.20393 0.200111 0.199639 0.199411 0.201204
internal_weight=1176.16 308.072 251.451 868.089 68.3775 216.484 79.0538 137.43 59.7114 45.0598 16.2819 10.0948 799.712 9.26686 790.445 41.0726 14.6516 5.84752 121.148 13.6421 107.506 101.07 27.3049 96.2368 19.3424 8.80405 22.3331 91.5323 85.9132 8.49174
internal_count=9861 2118 1600 7743 502 1294 556 738 460 376 122 66 7241 63 7178 366 84 40 616 79 537 500 136 474 96 44 110 450 422 42
is_linear=0
shrinkage=0.05


Tree=12
num_leaves=31
num_cat=0
split_feature=22 17 23 26 18 15 17 15 18 24 24 22 14 25 17 25 25 25 11 19 22 26 27 25 25 17 2 24 10 27
split_gain=2094.01 849.083 234.943 212.269 121.546 90.8423 233.405 149.409 186.066 81.7716 58.5664 36.9074 31.4879 24.4474 19.876 31.2562 46.4732 19.3003 16.655 16.5711 84.6664 15.4316 12.9565 11.5785 7.41529 15.4283 7.1694 0.613097 1.73944 0.153851
threshold=2.9850000143051152 17.445000648498539 101.40999984741212 0.21499999612569812 117.9613494873047 4.0450000762939462 18.595000267028812 3.8249999284744267 122.38425064086915 -6.0950000286102286 1.7799999713897707 2.7749999761581425 4.5250000953674325 -2.0273000001907344 18.025000572204593 -0.059900000691413872 0.34090000391006475 0.56325000524520885 -0.71915239095687855 326.30950927734381 2.7050000429153447 -0.03499999921768903 0.12499999627470972 0.8055500090122224 1.2256500124931338 23.529999732971195 0.020235182717442516 -3.7300000190734859 0.53144389390945446 -0.39499999582767481
decision_type=2 2 2 2 2 2 2 2 2 2 2 2 2 2 2 2 2 2 2 2 2 2 2 2 2 2 2 2 2 2
left_child=1 3 11 4 -1 6 7 10 21 18 17 12 -3 -11 15 -13 -17 -2 -6 22 -21 -9 26 -22 -8 -26 27 28 -15 -23
right_child=5 2 -4 -5 9 -7 24 8 -10 13 -12 14 -14 19 -16 16 -18 -19 -20 20 23 29 -24 -25 25 -27 -28 -29 -30 -31
leaf_value=-0.048903159785115898 -0.049146747916743339 -0.048799248541350329 0.097378211779724611 -0.048817451841051268 0.055061304278411598 -0.048346485305060666 -0.048844025861695756 0.024140584985054999 -0.0487780317391453 -0.048678384735975452 0.10203634356528091 -0.048960321515424648 0.09734595675465714 0.06633041203313951 -0.048808720668187859 0.10023495534943633 -0.048910662487585417 0.035214394847860368 -0.04976955028987895 -0.048811820950543025 0.097903808767483558 0.10523262710521974 0.030914581694763313 0.032113160449940996 0.042842851020723931 -0.049394847482202631 0.048480321028993183 0.097499931842284296 0.099751418039413203 0.097782567494514416
leaf_weight=16.206889182329178 76.281607612967491 6.1682740449905387 37.571816146373749 30.152503460645676 5.5194302797317532 892.74732634425163 345.5997519493103 7.6330618858337393 31.753898143768311 3.0663385242223731 7.7482668161392203 26.28572578728199 9.1572903394699079 6.0427818596363094 188.8460486382246 11.545711129903795 9.5376321971416456 7.4411883354187003 12.083987236022947 12.343995586037634 72.78363510966301 7.6449788510799399 7.5997827649116507 7.3641366958618155 6.9209926724433926 13.142616823315619 7.639927238225936 579.39278641343117 10.944588184356688 74.077482640743256
leaf_count=68 317 26 119 127 20 3848 1454 27 134 13 25 110 29 20 796 37 40 28 49 52 231 25 27 26 27 54 26 1836 35 235
internal_value=0.000262855 0.0538293 -0.0192465 0.0812265 0.0865183 -0.0383465 -0.0229075 0.0187553 0.0551845 0.0895465 -0.0294776 -0.0366664 0.038525 0.0921962 -0.0415448 -0.0125855 0.0327648 -0.0416488 -0.0169006 0.0928097 0.0730849 0.0921292 0.0957926 0.0918588 -0.0471284 -0.0175772 0.0966089 0.0972254 0.0878628 0.0984795
internal_weight=2531.24 1060.25 289.112 771.141 740.988 1470.99 578.244 212.58 121.109 724.781 91.4711 251.541 15.3256 707.178 236.215 47.3691 21.0833 83.7228 17.6034 704.112 92.4918 89.3555 611.62 80.1478 365.663 20.0636 604.02 596.38 16.9874 81.7225
internal_count=9861 3687 1157 2530 2403 6174 2326 791 421 2335 370 1038 55 2266 983 187 77 345 69 2253 309 287 1944 257 1535 81 1917 1891 55 260
is_linear=0
shrinkage=0.05


Tree=13
num_leaves=31
num_cat=0
split_feature=19 16 17 17 14 14 17 25 16 14 23 17 14 22 22 23 23 15 19 17 18 17 26 26 23 17 17 17 17 16
split_gain=5121.21 7.12858 8.2891 0.00653736 0.00518244 0.00450957 0.00592298 0.0081029 0.00595887 0.0046733 0.00742988 0.00762124 0.00333964 0.0065755 0.00990194 0.00295772 0.00281559 0.00271513 0.00202848 0.00187997 0.00715176 0.00179741 0.00149748 0.00144493 0.00122882 0.00109196 0.0027003 0.00109161 0.00663199 0.00107362
threshold=313.81550598144537 -0.1649999991059303 15.864999771118166 23.604999542236332 4.7750000953674325 4.3150000572204599 16.285000801086429 -1.8475000262260435 -0.085000000894069658 4.2850000858306894 66.65000152587892 18.625000000000004 4.0050001144409189 3.0349999666213994 2.995000004768372 58.370000839233406 59.784999847412116 4.2550001144409189 324.65399169921881 24.695000648498539 125.9832000732422 17.615000724792484 0.20499999821186068 0.21499999612569812 74.500000000000014 18.595000267028812 18.469999313354496 17.82499980926514 17.394999504089359 0.56499999761581432
decision_type=2 2 2 2 2 2 2 2 2 2 2 2 2 2 2 2 2 2 2 2 2 2 2 2 2 2 2 2 2 2
left_child=-1 2 -2 4 5 6 17 -8 -9 12 11 -11 13 14 -10 21 -5 22 27 20 -18 -14 -3 25 -20 26 29 28 -17 -7
right_child=1 3 -4 16 -6 23 7 8 9 10 -12 -13 15 -15 -16 18 19 -19 24 -21 -22 -23 -24 -25 -26 -27 -28 -29 -30 -31
leaf_value=0.077379249890960677 -0.057302823669975016 -0.054901441335549618 0.014430818024951209 -0.056103233790121235 -0.056357415825709703 -0.054909417341544288 -0.056811625922145295 -0.056327716255693806 -0.055222608486807094 -0.057120569947584965 -0.055258460597550033 -0.055147911847842152 -0.054920649889959886 -0.055130779753005565 -0.05712953408999704 -0.054975615024910079 -0.055324272815504109 -0.055829640759538002 -0.055163463985680311 -0.055224264161152496 -0.05693682394547811 -0.05403895470174095 -0.055401361913945991 -0.055187750942551031 -0.055588958771899247 -0.055068747275234878 -0.053884184901167226 -0.055068296042719671 -0.053397123583916073 -0.054471716164103179
leaf_weight=1250.8143663108349 8.1113133132457751 310.2905005812645 7.9982169866561881 11.819887101650236 7.7023543417453757 363.72669595479965 7.7741588354110709 11.265879094600676 16.270849227905277 12.3239983022213 72.97974818944931 8.1237323284149152 12.128645777702333 80.621264666318893 11.704733312129973 81.522279888391495 46.000823348760605 8.5219218134880048 157.58158287405968 159.80892339348793 8.0842088460922223 11.043324977159498 15.73935145139694 52.548594236373901 19.015917062759399 89.498414844274521 6.7576921284198752 148.88272640109062 7.2456890046596518 14.571184277534483
leaf_count=3756 27 1075 26 40 26 1260 26 38 56 41 251 28 42 278 39 282 158 29 543 550 27 39 54 181 65 309 24 514 26 51
internal_value=-6.11363e-05 -0.0547967 -0.0216878 -0.0551008 -0.0550637 -0.0550572 -0.0551199 -0.055207 -0.0551878 -0.0551677 -0.0554945 -0.0563368 -0.0551118 -0.05536 -0.0560204 -0.0550502 -0.055352 -0.0549486 -0.0550809 -0.0553105 -0.0555653 -0.0545005 -0.0549256 -0.054939 -0.0552093 -0.0549114 -0.0548749 -0.0549856 -0.0548468 -0.0548926
internal_weight=3020.48 1769.66 16.1095 1753.56 1527.84 1520.14 993.036 658.485 650.71 639.444 93.4275 20.4477 546.017 108.597 27.9756 437.42 225.714 334.552 414.248 213.894 54.085 23.172 326.03 527.103 176.597 474.554 385.056 237.651 88.768 378.298
internal_count=9861 6105 53 6052 5277 5251 3426 2268 2242 2204 320 69 1884 373 95 1511 775 1158 1430 735 185 81 1129 1825 608 1644 1335 822 308 1311
is_linear=0
shrinkage=0.05


Tree=14
num_leaves=31
num_cat=0
split_feature=17 23 17 24 14 15 22 23 19 14 25 16 17 24 26 19 21 19 14 19 17 26 16 24 25 14 16 24 23 23
split_gain=1244.9 699.363 463.087 241.743 156.364 139.726 113.597 145.291 105.273 92.928 86.3316 83.9325 61.6697 59.4327 52.2216 48.7913 41.4936 37.7302 36.4376 130.907 47.9511 32.9968 118.538 28.8661 22.3473 17.3505 45.4092 14.0984 45.1974 13.8558
threshold=17.224999427795414 78.219997406005874 23.704999923706058 -3.7300000190734859 3.7949999570846562 3.9150000810623173 2.8950001001358037 99.444999694824233 326.30950927734381 4.4249999523162851 -0.35584999620914454 -0.044999999925494187 18.625000000000004 1.7799999713897707 -0.15500000119209287 320.46099853515631 3.9850001335144047 322.72999572753912 4.3550000190734872 321.02749633789068 17.250000000000004 0.22500000149011615 0.31499999761581426 3.1700000762939458 -0.77235001325607289 4.2349998950958261 0.64499998092651378 5.3449997901916513 68.540000915527358 78.424999237060561
decision_type=2 2 2 2 2 2 2 2 2 2 2 2 2 2 2 2 2 2 2 2 2 2 2 2 2 2 2 2 2 2
left_child=3 2 11 9 5 -5 7 24 21 17 -10 -2 13 18 -14 -4 -17 29 20 -20 -13 -6 -23 -15 -3 -12 -27 -16 -29 -1
right_child=1 6 15 4 8 -7 -8 -9 10 -11 25 12 14 23 27 16 -18 -19 19 -21 -22 22 -24 -25 -26 26 -28 28 -30 -31
leaf_value=0.11110858621492892 -0.048253736302303285 0.021724769720504647 -0.041253749138648182 0.10285801241216747 -0.046144558800063844 -0.047254579085209275 -0.047509409649232059 -0.04780735842809148 0.087570785619640448 -0.047615419060024242 -0.04788732854288185 -0.047496903646648783 -0.048263456186483533 -0.04832823326452871 0.10260471099763979 -0.048152107032138368 0.11073442284674156 0.017101352472230519 0.095184550087869441 -0.047935828608338643 0.10066177769722461 -0.047275302139890125 0.10291490548946845 0.055417257616454524 0.10699639935502402 -0.047623018003177177 0.11379448812150093 -0.050979312065350682 0.10588123833892449 0.03598621045872559
leaf_weight=41.980575770139694 11.748510256409643 10.066905677318571 93.11467382311821 37.065838277339935 1085.4054757505655 26.645721390843391 190.57712018489838 37.921425953507423 27.547068849205971 19.162411257624626 28.944916635751724 5.7607398033142081 6.0056256949901572 15.690477311611177 375.39568638801575 6.654013097286227 10.74380514025688 18.961712047457695 47.662435859441757 24.033731415867805 105.01051998138428 54.668286353349686 17.293309688568115 11.70786130428314 32.452102154493332 11.381941676139833 7.0591730475425711 6.3679212927818325 16.468768894672394 7.1892163008451453
leaf_count=141 51 39 405 120 4924 122 860 169 93 86 128 26 26 68 1221 29 36 74 157 106 346 250 56 41 107 51 24 25 54 26
internal_value=-8.81928e-05 0.0421921 0.0674663 -0.0308785 -0.0363032 0.0400773 -0.0264786 0.0233469 -0.0402522 0.0496594 0.0171817 0.0841282 0.0866608 0.0646704 0.0980774 -0.0268931 0.0499663 0.0770185 0.0749809 0.0472083 0.0929567 -0.0439707 -0.0111826 -0.0039957 0.0868073 -0.0237378 0.0141669 0.100284 0.0621413 0.100125
internal_weight=2390.69 1007.38 736.365 1383.31 1296.01 63.7116 271.018 80.4404 1232.3 87.2939 74.9331 625.852 614.104 209.866 404.238 110.512 17.3978 68.1315 182.467 71.6962 110.771 1157.37 71.9616 27.3983 42.519 47.386 18.4411 398.232 22.8367 49.1698
internal_count=9861 3766 2591 6095 5768 242 1175 315 5526 327 296 2121 2070 744 1326 470 65 241 635 263 372 5230 306 109 146 203 75 1300 79 167
is_linear=0
shrinkage=0.05


Tree=15
num_leaves=31
num_cat=0
split_feature=17 24 19 22 27 18 19 23 14 22 2 15 18 18 17 17 11 27 14 18 4 11 4 23 27 17 17 17 25 14
split_gain=2081.46 227.919 97.3217 197.963 97.2747 26.7452 104.802 20.6124 34.1003 36.7005 18.408 16.6079 10.8729 6.21423 2.22468 18.9528 18.4574 2.19584 56.8401 1.89375 0.740478 0.500328 0.435662 0.279664 0.30378 0.0979299 0.0228684 0.0227866 0.0255688 0.0181708
threshold=22.970000267028812 -7.2149999141693106 328.87649536132818 2.8950001001358037 -0.085000000894069658 127.74084854125978 318.28250122070318 79.805000305175795 4.5750000476837167 3.4550000429153447 0.0023363878717646007 3.5449999570846562 118.89119720458986 127.97274780273439 24.695000648498539 24.385000228881839 -1.0000000180025095e-35 0.30500000715255743 4.0150001049041757 125.80674743652345 -0.034768192097544663 -0.51423090696334828 -0.0049741992261260739 61.95000076293946 0.90000000596046459 24.07499980926514 23.704999923706058 24.900000572204593 1.3167999982833865 4.2449998855590829
decision_type=2 2 2 2 2 2 2 2 2 2 2 2 2 2 2 2 2 2 2 2 2 2 2 2 2 2 2 2 2 2
left_child=1 7 5 -4 -2 17 10 8 9 -1 -7 -6 -5 14 15 19 -17 -3 -19 25 -12 -14 -9 24 -16 26 -13 -25 -29 -28
right_child=4 2 3 12 11 6 -8 22 -10 -11 20 13 21 -15 23 16 -18 18 -20 -21 -22 -23 -24 27 -26 -27 29 28 -30 -31
leaf_value=-0.041739106228027019 -0.041534209586164793 -0.041035185264003786 -0.041100037874723522 0.08840442453221857 0.074076432087388316 0.018286790477789108 -0.041087193851650196 0.16728766942434992 0.1686776073772624 0.16882512410173509 0.1395009800202324 0.16436799867356977 0.1641814940194567 0.10292762139189304 0.17725081579123064 0.0066514519048810269 0.14504460038227787 0.21016227672275123 -0.041098372385106871 0.1976476651020056 0.16768811933406902 0.18407744734250367 0.18922433919417697 0.16621228576695946 0.1648157435520867 0.16868345641467944 0.1592770761787963 0.16306192252838736 0.16641300355506938 0.16303990109348943
leaf_weight=6.6962909996509605 6.3901199102401725 772.06685344874859 37.674580872058868 5.5582842826843288 5.8643237203359595 3.2594962567090979 45.031144522130489 4.8668847978115082 6.9149836152791968 2.9949324280023575 4.0129633173346511 8.9221597611904198 11.748327627778057 4.7131976038217536 8.2273998260498065 3.936225637793541 6.2104918211698514 2.3455202579498282 55.76347191631794 4.9188546240329734 5.5556237846612921 4.3224031776189777 4.2309002876281721 6.9883283972740164 12.185589522123335 8.7582529932260496 6.7202059626579267 95.862275898456573 6.0515305697917929 6.1395612955093384
leaf_count=56 55 7358 354 29 38 26 424 21 30 13 20 38 50 27 37 25 28 12 526 24 24 20 20 30 52 38 28 406 26 26
internal_value=-0.00023164 -0.0299115 -0.0338976 0.0281174 0.150271 -0.038039 -0.00517071 0.116997 0.0838557 0.0233327 0.120909 0.156879 0.148684 0.159582 0.161108 0.151613 0.0913576 -0.0403297 -0.0309564 0.168856 0.155867 0.169533 0.177489 0.164457 0.169828 0.164218 0.162423 0.16345 0.163261 0.161074
internal_weight=1164.93 973.043 947.339 59.3036 191.889 888.035 57.8592 25.704 16.6062 9.69122 12.8281 185.498 21.629 179.634 174.921 45.6058 10.1467 830.176 58.109 35.459 9.56859 16.0707 9.09779 129.315 20.413 30.5402 21.7819 108.902 101.914 12.8598
internal_count=9861 8983 8843 453 878 8390 494 140 99 69 70 823 99 785 758 207 53 7896 538 154 44 70 41 551 89 130 92 462 432 54
is_linear=0
shrinkage=0.05


Tree=16
num_leaves=31
num_cat=0
split_feature=22 17 27 18 26 14 15 17 15 18 19 25 23 23 27 19 18 22 27 19 22 25 14 26 2 14 14 26 27 23
split_gain=1875.49 729.249 238.3 157.354 110.722 106.218 85.9953 216.494 133.496 161.145 60.3023 25.6315 35.6381 18.5913 17.9395 17.1212 92.5464 15.2039 13.3412 8.17766 80.4781 7.1824 14.8727 0.423296 0.158565 0.138298 0.290676 0.0591212 0.0208841 0.0134476
threshold=2.9850000143051152 18.625000000000004 0.12499999627470972 118.4733009338379 0.22500000149011615 4.3550000190734872 4.0450000762939462 18.595000267028812 3.8249999284744267 122.38425064086915 316.07951354980474 0.36579999327659612 61.70000076293946 62.364999771118171 -0.44499999284744257 317.06600952148443 126.31529998779298 2.995000004768372 -0.47499999403953547 326.30950927734381 2.7050000429153447 1.2256500124931338 4.2249999046325692 -0.024999999441206452 0.019444085657596592 4.0350000858306894 4.0150001049041757 0.18500000238418582 -0.35500000417232508 98.81000137329103
decision_type=2 2 2 2 2 2 2 2 2 2 2 2 2 2 2 2 2 2 2 2 2 2 2 2 2 2 2 2 2 2
left_child=1 2 3 5 10 -1 7 8 11 18 -5 17 -13 -4 -3 16 -12 -2 -10 24 -21 -9 -23 -20 25 26 -17 -27 -22 -7
right_child=6 14 13 4 -6 29 -8 21 9 -11 15 12 -14 -15 -16 19 -18 -19 23 20 28 22 -24 -25 -26 27 -28 -29 -30 -31
leaf_value=-0.048421074406530831 0.028738266164200634 0.032751323481219605 0.039530789772273651 -0.04798563922848223 -0.048216057629684311 0.091862147827016835 -0.0475028166194367 -0.048084033851160127 0.024940552063451728 -0.047995487545549331 -0.050726607075778231 -0.050047068894006355 0.10292541894260017 -0.048359869127992033 -0.048024921840072676 0.089192688220818647 0.089504508379237013 -0.048379450830021785 0.10236327868471409 -0.04807478704214535 0.092414831349781151 -0.048662669575920983 0.042321350800887468 0.089614117326225595 0.097472954460894864 0.089280494512684605 0.10142774248443887 0.093303994799308246 0.089590875684374377 0.089248970745070696
leaf_weight=41.371095851063728 7.0656227469444266 7.1756470650434485 6.9604731649160376 8.6521870195865613 16.350447252392769 8.052549213171007 852.76615452766418 332.66798794269562 8.498506158590315 30.517740875482559 14.633083879947661 7.2635607719421378 8.0016914308071119 44.378686755895615 163.28605049848557 13.970407247543337 60.038718789815903 66.963852763175964 7.1184686422348014 11.896063670516012 7.0674194097518912 12.950334876775743 6.8766400068998328 76.243116527795792 6.3068561851978293 542.08364933729172 7.4394753277301779 9.2864979207515699 88.905629754066467 12.66863366961479
leaf_count=178 26 26 26 38 71 25 3848 1454 29 134 58 29 26 192 716 43 185 289 23 52 22 55 26 235 20 1669 24 29 274 39
internal_value=0.0002536 0.0502025 0.0681617 0.0744893 0.080538 -0.00213949 -0.0374839 -0.0223398 0.0176301 0.0515483 0.083271 -0.0288546 0.0301376 -0.0364438 -0.0446246 0.0847621 0.0620241 -0.0410191 0.0846188 0.0872337 0.0745938 -0.0463416 -0.0171065 0.0907028 0.0895882 0.0895014 0.0934441 0.0893483 0.0897988 0.0902645
internal_weight=2487.46 1070.52 900.062 848.723 786.63 62.0923 1416.93 564.168 211.673 122.378 770.28 89.2947 15.2653 51.3392 170.462 761.628 74.6718 74.0295 91.8601 686.956 107.869 352.495 19.827 83.3616 579.087 572.78 21.4099 551.37 95.973 20.7212
internal_count=9861 3687 2945 2727 2485 242 6174 2326 791 421 2414 370 55 218 742 2376 243 315 287 2133 348 1535 81 258 1785 1765 67 1698 296 64
is_linear=0
shrinkage=0.05


Tree=17
num_leaves=31
num_cat=0
split_feature=19 16 11 17 24 18 22 16 18 16 18 17 18 14 22 26 26 16 17 27 27 18 14 27 17 18 26 23 23 2
split_gain=4590.33 6.84003 11.043 0.011256 0.0111856 0.00853332 0.0108947 0.0119503 0.00844831 0.00815317 0.00625325 0.00348901 0.0125904 0.00344205 0.0181549 0.00317574 0.002962 0.0034408 0.00228129 0.00318972 0.00387464 0.00265371 0.0033204 0.00198228 0.00180648 0.0018192 0.00172972 0.00169799 0.00182683 0.0016462
threshold=313.81550598144537 -0.1649999991059303 -0.71915239095687855 23.529999732971195 -2.8499999046325679 121.60900115966798 2.995000004768372 0.55500000715255748 118.36194992065431 0.51499998569488536 129.45664978027347 24.695000648498539 125.9832000732422 3.8649998903274541 3.054999947547913 0.014999999664723875 0.18500000238418582 0.085000000894069686 18.595000267028812 0.2650000005960465 0.20499999821186068 118.36194992065431 4.3550000190734872 -0.4849999994039535 22.970000267028812 125.80674743652345 -1.0000000180025095e-35 71.880001068115249 79.645000457763686 0.020235182717442516
decision_type=2 2 2 2 2 2 2 2 2 2 2 2 2 2 2 2 2 2 2 2 2 2 2 2 2 2 2 2 2 2
left_child=-1 2 -2 4 5 6 8 -8 -3 16 13 12 -5 14 -6 -16 27 -18 19 20 21 22 -15 -23 -20 -26 -10 -7 -29 -25
right_child=1 3 -4 11 10 9 7 -9 26 -11 -12 -13 -14 18 15 -17 17 -19 24 -21 -22 23 -24 29 25 -27 -28 28 -30 -31
leaf_value=0.072737179647054145 -0.054808425634131443 -0.055521707194688963 0.030302339467216905 -0.053976973835690195 -0.056208390842545419 -0.053760293468491739 -0.056320612533311054 -0.053808387657437812 -0.054050147983967525 -0.051930772936458272 -0.054671971050931148 -0.053803696568043506 -0.056100081123741041 -0.053916986381708526 -0.054555291925901889 -0.053498728710268874 -0.055162308488965278 -0.053835039115703136 -0.05359509967263533 -0.05423531998126372 -0.052498919870582722 -0.052792632035789266 -0.053047265194102459 -0.053390300128982521 -0.053462167059036426 -0.052385883852198917 -0.053474380692557513 -0.053001029440393178 -0.053790263295498977 -0.053998591271184129
leaf_weight=1250.7861170768738 9.4839097559452039 7.5997890233993521 6.3716410994529715 56.822672814130783 7.0532740652561179 56.807801872491837 11.853959143161775 7.8807572424411765 24.072312414646149 6.6704206466674796 11.18142509460449 161.898053586483 7.9612835943698874 49.680007696151733 7.7202620208263388 90.273728907108307 6.9639812707901028 16.34018287062645 321.03665727376938 11.656133741140364 11.69870015978813 13.695134848356245 14.085577756166456 703.97237572073936 10.608881980180742 6.2328214943408957 28.47369796037674 19.302022099494938 11.823214650154112 11.300956726074217
leaf_count=3756 33 26 20 201 24 202 40 28 85 25 39 575 27 176 27 323 24 58 1146 41 43 50 51 2526 38 23 102 70 42 40
internal_value=-6.14371e-05 -0.053294 -0.0206062 -0.0535999 -0.0535492 -0.053899 -0.054298 -0.0553174 -0.0539635 -0.0536287 -0.0534948 -0.0539278 -0.0542379 -0.0534843 -0.0537583 -0.053582 -0.0537305 -0.0542317 -0.0534594 -0.0534141 -0.0534022 -0.0534156 -0.0537249 -0.0533885 -0.0535686 -0.0530639 -0.0537382 -0.0535977 -0.0533008 -0.0533999
internal_weight=2961.31 1710.52 15.8556 1694.67 1467.98 197.788 79.8805 19.7347 60.1458 117.908 1270.2 226.682 64.784 1259.01 105.047 97.994 111.237 23.3042 1153.97 816.089 804.433 792.734 63.7656 728.968 337.878 16.8417 52.546 87.933 31.1252 715.273
internal_count=9861 6105 53 6052 5249 702 281 68 213 421 4547 803 228 4508 374 350 396 82 4134 2927 2886 2843 227 2616 1207 61 187 314 112 2566
is_linear=0
shrinkage=0.05


Tree=18
num_leaves=31
num_cat=0
split_feature=17 23 17 24 27 15 19 18 18 26 15 19 17 24 19 26 15 18 15 21 17 19 24 18 17 22 19 11 25 2
split_gain=1114.67 605.048 394.858 220.914 132.673 115.466 231.438 168.371 103.04 82.4905 80.3383 72.2978 49.2805 50.3095 44.7127 44.6351 39.8984 37.8348 132.094 35.7522 35.3122 31.482 25.8846 20.7054 18.3808 14.7163 13.0175 31.4953 12.7399 12.6247
threshold=17.224999427795414 78.219997406005874 23.704999923706058 -3.7300000190734859 -0.28499999642372126 3.745000004768372 322.72999572753912 119.46775054931642 128.51039886474612 1.0000000180025095e-35 4.2950000762939462 314.39700317382818 18.625000000000004 1.7799999713897707 320.46099853515631 -0.15500000119209287 3.5249999761581425 121.79994964599611 3.8649998903274541 3.9850001335144047 16.035000801086429 322.72999572753912 3.1700000762939458 123.992000579834 17.289999961853031 2.6950000524520878 324.65399169921881 -1.2411277890205381 0.45095001161098486 0.00073005841113626968
decision_type=2 2 2 2 2 2 2 2 2 2 2 2 2 2 2 2 2 2 2 2 2 2 2 2 2 2 2 2 2 2
left_child=3 2 11 10 9 6 -5 16 -7 -3 21 -2 13 17 -4 -14 -8 18 24 -16 -10 -1 -15 -6 -13 -9 -23 -28 -26 -24
right_child=1 4 14 5 23 8 7 25 20 -11 -12 12 15 22 19 -17 -18 -19 -20 -21 -22 26 29 -25 28 -27 27 -29 -30 -31
leaf_value=0.090924831497686653 -0.047718869321543254 -0.047299043619464291 -0.040479887974039758 0.091256824055949579 -0.046823008468665918 -0.046628604642459159 -0.046852660454462486 0.029452234748343378 -0.046855411381096709 0.085594394241372301 -0.046929592873984072 0.016883745465777724 -0.047785945428297158 -0.04756452168602792 -0.047513674845739033 0.091256561337274028 0.097160760238075655 0.096196845315109344 -0.047920647155411833 0.10037839652827896 0.093586639129758759 -0.048429496956608017 0.096946095266907145 0.040890177366544836 0.096491995573107989 -0.046979467584839812 -0.041620765174426283 0.1114052376199739 0.031135254977535245 -0.0061561183018579331
leaf_weight=51.198583737015724 11.398770228028296 17.020516902208328 90.283654525876045 48.815385669469833 202.0439610928297 927.38070687651634 5.7517551183700553 6.496599704027175 5.9647048860788372 37.195909917354584 18.381342142820358 9.9653737097978574 5.8537826091051093 15.055403113365175 6.4262023419141796 412.78943479061127 29.353941202163696 76.095596760511398 26.111827254295349 11.224071860313414 17.930386185646057 5.5886528342962292 6.641282916069029 6.9598759412765494 66.512112200260162 205.82842336595058 6.1358216702938089 7.4390628337860081 8.397791922092436 5.3697691559791565
leaf_count=167 51 78 405 160 951 4419 27 25 28 119 86 40 26 68 29 1300 93 240 117 36 56 24 21 27 210 960 25 25 28 20
internal_value=-6.92223e-05 0.0394219 0.0622554 -0.0300761 -0.0258225 -0.0354984 -0.00824 -0.0278696 -0.0439871 0.0438743 0.0461477 0.0770846 0.0793328 0.0598235 -0.0262508 0.0893124 0.0735654 0.0690415 0.0504231 0.0465331 0.0585294 0.0704632 -0.00389092 -0.0439021 0.0806785 -0.0446409 0.0157965 0.0422378 0.0891652 0.0508523
internal_weight=2351.61 1015.35 752.125 1336.27 263.22 1247.52 296.246 247.431 951.276 54.2164 88.7435 644.191 632.792 214.149 107.934 418.643 35.1057 187.083 110.987 17.6503 23.8951 70.3621 27.0665 209.004 84.8753 212.325 19.1635 13.5749 74.9099 12.0111
internal_count=9861 3766 2591 6095 1175 5768 1265 1105 4503 197 327 2121 2070 744 470 1326 120 635 395 65 84 241 109 978 278 985 74 50 238 41
is_linear=0
shrinkage=0.05


Tree=19
num_leaves=31
num_cat=0
split_feature=17 24 19 22 27 26 9 27 22 21 14 16 15 17 17 17 11 11 8 14 14 16 23 23 27 17 17 11 11 16
split_gain=1736.06 200.424 91.8295 162.826 73.0792 33.6297 19.3695 16.9916 61.2839 73.3272 18.0453 29.8308 11.7639 8.7196 3.0723 11.4191 14.5243 3.27878 2.13955 0.928084 0.483922 0.336182 0.176683 0.158235 0.162674 0.0792504 0.0754877 0.0734886 0.0467616 0.0146546
threshold=22.970000267028812 -7.2149999141693106 328.87649536132818 2.8950001001358037 -0.085000000894069658 0.12499999627470972 65.73389053344728 0.16499999910593036 2.8649998903274541 4.4049999713897714 3.9650000333786015 -0.11999999731779097 3.5449999570846562 21.409999847412113 24.695000648498539 24.385000228881839 0.48701860010623937 1.845270097255707 2.1486998796463017 4.3150000572204599 4.3350000381469735 0.45499999821186071 99.444999694824233 61.95000076293946 0.90000000596046459 24.07499980926514 18.07499980926514 0.17243104428052905 -0.83033087849616993 0.5249999761581422
decision_type=2 2 2 2 2 2 2 2 2 2 2 2 2 2 2 2 2 2 2 2 2 2 2 2 2 2 2 2 2 2
left_child=1 5 7 -4 -2 6 18 -3 9 -9 11 -10 -6 22 15 17 -17 19 -1 21 -21 -14 28 24 -16 -23 -7 -11 -5 -25
right_child=4 2 3 13 12 26 -8 8 10 27 -12 -13 14 -15 23 16 -18 -19 -20 20 -22 25 -24 29 -26 -27 -28 -29 -30 -31
leaf_value=0.016759066994179797 -0.041324519824397325 -0.040838871721717455 -0.040911810922383884 0.14569523022948161 0.066276168804176736 0.14371785872799464 0.14814117465818757 -0.040971539314822183 -0.040811482346811381 0.14283364405722185 -0.040903423052530419 0.17041801028347509 0.12605867843466817 0.075422455747510081 0.14886150303569087 0.024889815503726789 0.14043387107015343 0.10455065762904199 -0.041580861899044141 0.16559025080640488 0.14404920933984069 0.13879399040176044 0.1390496299544591 0.13877238558263258 0.14027633326400898 0.14535278039462765 0.13726407785134973 0.15104705102381483 0.15243843025352533 0.13989012160407238
leaf_weight=2.5210933685302752 6.1210490614175788 713.5480434820056 36.036080926656723 5.0964260697364843 6.2207279428839675 11.055178582668306 2.3163175731897354 9.9139297977089882 4.2713642418384552 5.4201144576072693 107.74500770866871 2.7460225224494925 4.7934459447860744 6.0577228516340247 9.2942841053009051 5.6793753057718259 5.2193260192871094 6.5288482755422583 4.1726229786872864 5.6035348176956159 4.8759651780128479 16.56344294548035 7.6155938506126395 71.519075810909271 13.579435557126997 6.3796231448650351 7.6775698959827414 5.4738036096096039 5.1882695257663745 49.705271065235138
leaf_count=20 55 7133 354 20 38 43 12 96 43 21 1063 12 19 29 37 33 20 31 36 24 19 63 29 272 52 25 29 22 21 190
internal_value=-0.000249016 -0.0294919 -0.0335319 0.0262517 0.128928 0.102894 0.0235173 -0.0377559 -0.0215291 0.05742 -0.0358435 0.0418462 0.133988 0.127275 0.136097 0.126118 0.0802232 0.137297 -0.019608 0.142891 0.155568 0.138102 0.144822 0.13995 0.143765 0.140618 0.141073 0.146961 0.149097 0.139231
internal_weight=1148.94 936.855 909.112 59.9941 212.083 27.7428 9.01003 849.118 135.57 20.8078 114.762 7.01739 205.962 23.958 199.742 55.6436 10.8987 44.7449 6.69372 38.216 10.4795 27.7365 17.9003 144.098 22.8737 22.9431 18.7327 10.8939 10.2847 121.224
internal_count=9861 8983 8843 453 878 140 68 8390 1257 139 1118 55 823 99 785 234 53 181 56 150 43 107 70 551 89 88 72 43 41 462
is_linear=0
shrinkage=0.05


Tree=20
num_leaves=31
num_cat=0
split_feature=19 17 27 24 18 14 26 14 15 19 18 24 18 17 16 27 23 15 23 4 23 18 24 16 25 23 27 15 2 3
split_gain=1171.17 1243.98 266.47 158.222 99.4425 78.7087 70.6947 62.5716 57.7295 128.436 76.0641 26.5186 54.7076 20.1823 25.0717 17.8279 13.4014 84.3578 10.3795 11.5583 9.23635 8.75733 4.36265 12.7515 3.8226 15.2245 0.234298 0.17558 0.0816462 0.0662586
threshold=316.07951354980474 18.625000000000004 0.12499999627470972 -3.7300000190734859 118.36194992065431 4.3550000190734872 0.22500000149011615 4.2349998950958261 3.995000004768372 314.39700317382818 122.42805099487306 0.74500000476837169 121.79994964599611 15.194999694824221 0.085000000894069686 -0.59000000357627858 61.010000228881843 3.5749999284744267 109.37500000000001 -0.0073852546047419301 59.344999313354499 121.04050064086915 -2.8499999046325679 0.5249999761581422 1.2256500124931338 70.094997406005874 -0.43500000238418574 3.9850000143051152 0.020235182717442516 0.023105852305889133
decision_type=2 2 2 2 2 2 2 2 2 2 2 2 2 2 2 2 2 2 2 2 2 2 2 2 2 2 2 2 2 2
left_child=8 2 3 7 5 -5 15 29 9 10 27 -4 -13 14 -9 -6 17 21 24 -20 -19 -17 23 -18 -3 -26 -24 -1 -28 -2
right_child=1 18 11 4 6 -7 -8 13 -10 -11 -12 12 -14 -15 -16 16 22 20 19 -21 -22 -23 26 -25 25 -27 28 -29 -30 -31
leaf_value=0.08241233044683563 0.087075869467781175 -0.047341110963168981 -0.047655880095291925 -0.047598055528001032 0.012819336272327401 0.083590957631360305 -0.047386972214485006 -0.048838325134992505 -0.046746944605771508 -0.04735534271139033 -0.047213814846968821 0.09614738477811835 -0.048398116840478858 -0.048157079060288557 0.086206661121165346 0.082915453692202934 0.085190757751014243 0.023028898084709669 -0.04156603980604226 0.053647583891023726 -0.047499384366526884 0.025720504422581086 0.090949421930276469 0.015409544615497088 0.03753860385283015 -0.048376360915339964 0.082624291821292425 0.09043880334777149 0.087474409558627744 0.094157227195138166
leaf_weight=31.079856365919113 6.8586871027946454 366.81447249650955 55.101260647177696 30.016301408410072 10.421065390110014 18.467427879571915 11.436942741274832 6.5746777206659299 834.85649619996548 99.628872826695442 15.23101758956909 11.378121405839922 15.413974717259405 41.177588880062103 7.2014603912830353 132.75986680388451 21.00390458106995 6.7094558179378536 7.3997711837291718 5.599238380789755 15.065547376871107 7.0479195415973654 8.7224150002002698 9.5113461315631849 6.7108459770679501 22.261028915643692 591.89007177948952 8.7264663577079755 8.806134492158888 6.3724158108234406
leaf_count=94 21 1672 247 135 37 56 52 28 3947 454 70 36 67 181 22 402 64 25 33 19 68 26 27 35 26 96 1791 27 27 20
internal_value=0.000274192 0.0292 0.0586873 0.0662231 0.0719597 0.00237177 0.0760573 -0.00712827 -0.0415488 -0.0134903 0.0478123 -0.0278158 0.0129878 -0.0306308 0.0217563 0.0777962 0.078641 0.0657745 -0.0445162 -0.000553394 -0.0257678 0.0800322 0.0818897 0.0634405 -0.0459601 -0.0284756 0.0828135 0.0841719 0.0826954 0.0904864
internal_weight=2420.24 1430.72 1021.94 940.043 871.858 48.4837 823.375 68.1848 989.523 154.666 55.0373 81.8934 26.7921 54.9537 13.7761 811.938 801.517 161.583 408.785 12.999 21.775 139.808 639.934 30.5153 395.786 28.9719 609.419 39.8063 600.696 13.2311
internal_count=9805 5213 3367 3017 2745 191 2554 272 4592 645 191 350 103 231 50 2502 2465 521 1846 52 93 428 1944 99 1794 122 1845 121 1818 41
is_linear=0
shrinkage=0.05


Tree=21
num_leaves=31
num_cat=0
split_feature=19 19 25 17 24 25 19 14 15 15 22 22 22 17 25 18 14 25 17 17 23 24 17 18 15 26 14 17 18 26
split_gain=4097.55 1.55758 16.5489 0.0154649 0.0132685 0.0127854 0.0102917 0.00703407 0.00612237 0.00593526 0.0148663 0.00447814 0.00841261 0.0175932 0.0155457 0.00521204 0.00763038 0.00563167 0.0039692 0.00363812 0.00313186 0.00266732 0.00258465 0.00292981 0.00218336 0.00204488 0.00195905 0.0017205 0.00168668 0.00168469
threshold=313.81550598144537 314.39700317382818 0.33175000548362737 23.529999732971195 -6.4200000762939444 -1.1639000177383421 324.65399169921881 4.7750000953674325 3.9850000143051152 3.935000061988831 3.3950001001358037 3.0049999952316289 3.0449999570846562 17.494999885559086 -0.40035000443458552 119.13080215454103 4.3450000286102304 0.84745001792907726 22.970000267028812 20.659999847412113 101.40999984741212 -2.9800000190734859 20.659999847412113 123.78964996337892 4.055000066757203 0.20499999821186068 4.5750000476837167 18.07499980926514 119.46775054931642 -0.13499999791383741
decision_type=2 2 2 2 2 2 2 2 2 2 2 2 2 2 2 2 2 2 2 2 2 2 2 2 2 2 2 2 2 2
left_child=22 2 5 4 6 -2 -3 11 27 28 -11 15 13 14 -13 16 17 21 25 24 -18 -6 -1 -24 -10 -17 -27 -7 -5 -14
right_child=1 3 -4 9 7 8 -8 -9 19 10 -12 12 29 -15 -16 18 20 -19 -20 -21 -22 -23 23 -25 -26 26 -28 -29 -30 -31
leaf_value=0.068786587389522438 -0.054657464558088259 -0.052570140346146405 0.021350401474013823 -0.053134730909283626 -0.052999700827626173 -0.051799187090531079 -0.054335963673051602 -0.053641575282286948 -0.054131182465394778 -0.052629662585205628 -0.055168904446883917 -0.052742723022785737 -0.051446570138200837 -0.052021861170869613 -0.05541763894409002 -0.052018386705517776 -0.051187721590503936 -0.053818089957936466 -0.051066268426502082 -0.052452400988002496 -0.052049707248996546 -0.052344801865269144 0.068763073800329491 0.070031765151369135 -0.0529381681656418 -0.052967963879310312 -0.052182411370325157 -0.052545414647178317 -0.052489509229047396 -0.052212283297600248
leaf_weight=1211.6981281936169 7.4265332221984854 29.973474085330963 8.3950373530387861 10.79550841450691 18.199125856161118 25.034759044647217 11.385932445526121 7.8226585984230033 7.6623025238513964 22.111380279064182 7.7966230809688559 12.04509148001671 7.3646486997604361 25.739751517772675 9.8925874531269056 720.18559005856514 14.601729571819304 7.8837942183017722 10.645116150379179 15.760490179061888 37.859839648008347 106.71893352270126 9.2565503120422381 8.950918108224867 7.6779995560646057 10.461062282323836 32.888275474309921 11.170819461345671 163.98581686615944 291.83680008351803
leaf_count=3665 26 110 28 39 66 94 40 28 27 81 27 44 28 96 34 2685 56 28 41 58 141 394 28 27 28 38 122 41 603 1082
internal_value=-0.000224181 -0.0518803 -0.0452115 -0.0522356 -0.0521745 -0.0526886 -0.0530563 -0.0521467 -0.0524714 -0.0526407 -0.0532916 -0.0521378 -0.0522917 -0.0529086 -0.053949 -0.0520821 -0.0523203 -0.052522 -0.0520251 -0.0529859 -0.0518098 -0.0524402 0.0687955 0.0693868 -0.0535341 -0.0520385 -0.052372 -0.0520294 -0.0525294 -0.0521934
internal_weight=2873.23 1643.32 83.1279 1560.19 1355.5 74.7329 41.3594 1314.15 67.3064 204.689 29.908 1306.32 346.879 47.6774 21.9377 959.443 185.263 132.802 774.18 31.1008 52.4616 124.918 1229.91 18.2075 15.3403 763.535 43.3493 36.2056 174.781 299.201
internal_count=9805 6085 302 5783 5033 274 150 4883 248 750 108 4855 1284 174 78 3571 685 488 2886 113 197 460 3720 55 55 2845 160 135 642 1110
is_linear=0
shrinkage=0.05


Tree=22
num_leaves=31
num_cat=0
split_feature=17 23 17 24 14 14 18 27 19 19 26 15 25 19 17 22 18 17 26 24 26 18 14 24 23 17 19 17 25 25
split_gain=990.844 533.303 323.118 208.581 113.994 109.96 108.971 99.0242 80.5474 68.5649 66.7157 59.5758 57.7446 53.2173 47.8554 41.8822 38.2906 37.4482 41.3379 40.2108 30.634 30.5616 116.928 24.8399 22.7645 23.7984 44.0401 17.3582 26.7318 17.0048
threshold=17.224999427795414 78.219997406005874 23.704999923706058 -2.660000085830688 3.7549999952316289 4.4249999523162851 128.51039886474612 -0.28499999642372126 326.30950927734381 314.39700317382818 1.0000000180025095e-35 4.6449999809265146 -0.66800001263618458 320.46099853515631 14.605000019073488 2.7050000429153447 129.67614746093753 18.625000000000004 -0.15500000119209287 1.7799999713897707 0.034999999217689044 121.79994964599611 4.3550000190734872 3.1700000762939458 66.409999847412124 16.73499965667725 326.30950927734381 17.445000648498539 0.35040000081062322 0.61425000429153453
decision_type=2 2 2 2 2 2 2 2 2 2 2 2 2 2 2 2 2 2 2 2 2 2 2 2 2 2 2 2 2 2
left_child=3 2 9 5 11 14 8 10 -6 -2 -3 -5 -10 -4 -1 -14 -9 19 -19 21 -15 22 27 -21 25 26 -16 28 -11 -17
right_child=1 7 13 4 6 -7 -8 16 12 17 -12 -13 15 20 24 29 -18 18 -20 23 -22 -23 -24 -25 -26 -27 -28 -29 -30 -31
leaf_value=-0.04652202459000529 -0.047143121146555306 -0.046738623651151501 -0.039199886846887598 0.086156707624973627 -0.045013294169100097 -0.046150890349790252 0.086094647615337958 -0.046211751645553509 0.087056512744269496 0.068218656340755621 0.072903339198405984 -0.04581162765602164 0.088862365751106856 -0.046894811452799084 -0.04785235103082245 -0.04647130814781239 0.10485612109260754 -0.047284326229606551 0.083586584969017622 -0.046975715952341873 0.09218235040964938 0.088207734537156274 -0.04734735203060185 0.050408031882097165 0.083038092826159232 0.10836026888466044 0.091187564137221483 0.088901122259983548 -0.050765400468970268 0.03747370937098371
leaf_weight=10.590344488620756 12.086139962077139 17.257461979985237 88.044358387589455 28.185969293117523 1006.5899125337601 36.894937366247177 17.045485019683838 191.8735326230526 17.981240570545197 20.373835086822513 35.872998148202896 12.277118742465971 8.1299102604389173 5.5491143763065365 14.573163285851482 40.435561671853065 4.2883232831954947 6.1219872385263434 419.60807371139526 14.084213778376581 13.821085482835768 78.503350377082825 25.226324662566185 12.237845838069914 62.561471968889236 7.5392007231712332 9.3486823737621307 62.740462064743042 6.1440969854593268 7.0907340943813315
leaf_count=51 56 82 408 86 5001 182 52 942 55 68 113 62 25 26 65 195 14 28 1290 66 43 241 117 41 197 25 29 193 25 27
internal_value=7.81384e-05 0.0369977 0.0577052 -0.0291816 -0.0363019 0.0280666 -0.0393411 -0.026509 -0.0413204 0.0708471 0.0340421 0.0461155 0.00915906 -0.0226924 0.0542417 -0.0160078 -0.0429092 0.0730579 0.0817047 0.0562725 0.05234 0.0641795 0.047703 -0.00169935 0.0655913 0.0308977 0.00648459 0.0745663 0.0406505 -0.033947
internal_weight=2293.08 1013.83 764.541 1279.24 1137.74 141.508 1097.27 249.292 1080.23 657.126 53.1305 40.4631 73.6374 107.415 104.613 55.6562 196.162 645.04 425.73 219.31 19.3702 192.988 114.485 26.3221 94.0225 31.461 23.9218 89.2584 26.5179 47.5263
internal_count=9805 3753 2602 6052 5503 549 5355 1151 5303 2125 195 148 302 477 367 247 956 2069 1318 751 69 644 403 107 316 119 94 286 93 222
is_linear=0
shrinkage=0.05


Tree=23
num_leaves=31
num_cat=0
split_feature=17 19 22 23 27 19 16 25 27 11 16 18 21 11 18 18 18 11 23 9 18 18 11 3 18 18 27 12 3 27
split_gain=1480.46 90.3405 111.104 58.394 54.098 60.6143 183.589 47.061 13.6945 12.386 11.7754 10.038 33.8013 8.32096 6.77942 4.54826 1.74047 10.3032 2.19661 9.01128 0.926414 0.338841 0.240646 0.233466 0.217782 0.0525303 0.0414792 0.0368112 0.023889 0.0145468
threshold=22.970000267028812 328.87649536132818 2.8950001001358037 59.545000076293952 0.16499999910593036 318.28250122070318 -0.11999999731779097 -1.0127499699592588 -0.074999999254941926 -0.68402752280235279 0.2950000017881394 128.44110107421878 4.4049999713897714 -0.53946876525878895 118.89119720458986 127.97274780273439 125.9832000732422 0.54754194617271434 61.420000076293952 57.754667282104499 125.80674743652345 123.01085281372072 -0.52390980720520008 0.00070081235026009392 119.46775054931642 123.992000579834 0.10500000044703485 0.26897139847278601 0.019154273904860023 0.33500000834465032
decision_type=2 2 2 2 2 2 2 2 2 2 2 2 2 2 2 2 2 2 2 2 2 2 2 2 2 2 2 2 2 2
left_child=1 4 7 -2 11 6 -6 -3 9 -5 21 -1 -13 -12 -4 16 18 -18 19 27 24 -8 28 -23 -20 26 -26 -10 -16 -28
right_child=3 2 14 8 5 -7 10 -9 15 -11 13 12 -14 -15 22 -17 17 -19 20 -21 -22 23 -24 -25 25 -27 29 -29 -30 -31
leaf_value=-0.040652594073625453 -0.041235516069805349 0.16364597830266439 0.064532573070113106 0.098579010446949888 -0.040612074267989573 -0.040812746469249428 0.13725251728787843 -0.040721573367847971 0.12363957185637248 -0.041396217290373086 0.094605993302662783 -0.0407008831150628 0.12830297449970354 -0.021501289400929768 0.12578088450931704 0.074998286197516806 0.035948207166668834 0.12108505733438338 0.1298025959018346 0.039602870879052406 0.13842484402951347 0.13154183732421332 0.13587771087185949 0.12022248587124824 0.12587040757177761 0.12656083006766036 0.12147910273650658 0.12920356903753913 0.12148217467089353 0.12253318004715825
leaf_weight=663.90272361785173 5.9873264059424391 3.0612089633941642 5.6932258605957058 4.2968097329139709 46.932070903480053 69.006776794791222 7.1463585495948818 35.30194653570652 6.4796858429908735 2.4998973235487929 4.433316133916378 12.655440233647825 3.8612211346626273 2.3669704347848883 5.5790956914424932 5.6759621500968924 4.1402241289615658 25.083845198154449 10.677992701530455 4.0114473998546591 10.253117203712462 7.3356341123580959 5.3208722919225666 12.018964260816572 7.2461350560188285 7.2258780896663657 68.286406636238098 5.4923975169658661 7.6821562051773071 62.862765282392502
leaf_count=6969 55 13 26 18 499 697 27 364 23 22 20 131 14 21 20 28 21 88 39 21 39 27 20 42 26 26 240 20 27 222
internal_value=-0.000176982 -0.0293437 0.0285572 0.112869 -0.0337152 -0.0064533 0.0230984 -0.024414 0.116984 0.0470947 0.112887 -0.0396947 -0.00119161 0.0541926 0.112269 0.119168 0.120352 0.109024 0.122166 0.104461 0.123865 0.127948 0.126895 0.124513 0.12291 0.122405 0.122188 0.126192 0.123291 0.121984
internal_weight=1122.52 892.298 62.6385 230.22 829.659 149.24 80.2333 38.3632 224.233 6.79671 33.3012 680.419 16.5167 6.80029 24.2754 217.436 211.76 29.2241 182.536 15.9835 166.552 26.501 18.5821 19.3546 156.299 145.621 138.395 11.9721 13.2613 131.149
internal_count=9805 8917 470 888 8447 1333 636 377 833 40 137 7114 145 41 93 793 765 109 656 64 592 96 67 69 553 514 488 43 47 462
is_linear=0
shrinkage=0.05


Tree=24
num_leaves=31
num_cat=0
split_feature=22 27 19 18 14 15 19 18 14 20 23 23 24 18 16 22 26 22 27 11 19 18 23 12 19 25 25 25 23 23
split_gain=1538.75 361.803 225.766 141.284 196.928 72.4691 85.379 93.2408 54.5667 77.5494 66.919 40.3761 29.929 28.5696 26.2537 24.2556 14.9509 14.6399 38.5733 13.2787 8.77345 59.6426 8.0214 14.3141 7.46058 59.7343 5.81404 22.4118 6.84486 34.4579
threshold=2.9850000143051152 0.095000002533197417 316.07951354980474 119.07850265502931 4.3450000286102304 4.0450000762939462 314.39700317382818 122.42805099487306 4.3550000190734872 4.1499998569488534 72.485000610351577 62.364999771118171 -6.0950000286102286 120.9284019470215 0.66500002145767223 3.0849999189376835 0.20499999821186068 2.9450000524520878 0.17500000447034839 -0.30708703398704523 317.06600952148443 126.31529998779298 61.604999542236335 0.26897139847278601 326.30950927734381 -0.09695000201463698 0.36579999327659612 0.37894999980926519 68.450000762939467 61.70000076293946
decision_type=2 2 2 2 2 2 2 2 2 2 2 2 2 2 2 2 2 2 2 2 2 2 2 2 2 2 2 2 2 2
left_child=1 2 -1 4 -4 6 7 -2 14 10 -10 13 19 -3 26 -11 20 -13 -19 -5 21 -14 23 -17 -22 -26 -8 -28 29 -29
right_child=5 11 3 12 -6 -7 8 -9 9 15 -12 17 16 -15 -16 22 -18 18 -20 -21 24 -23 -24 -25 25 -27 27 28 -30 -31
leaf_value=-0.046571030837667615 0.078566439502172972 -0.047149351986844293 -0.047023978804516781 0.051416309431241737 0.078294371741191374 -0.046018671878034871 -0.046872633966155736 -0.046592502752516564 0.077912735288955814 0.077617132473106656 -0.046606754669629942 -0.046798695399590889 -0.048167865168346105 0.08299734499143982 0.082414464608521865 0.059046984146724248 0.01083411569362119 0.077297960901660856 -0.046439520417926157 -0.047309040748722567 0.077225752806848263 0.077189185856681733 -0.046976080890599459 -0.04693660360275187 -0.046875905137609891 0.07769152121476891 0.078753653533912796 -0.047030280443247321 -0.04678153788937385 0.059696382116616722
leaf_weight=49.96630647778511 40.200149029493332 6.2842359393835094 64.678296893835068 6.2888594269752502 60.833824872970581 767.0734850615263 212.4601978212595 23.626264736056328 39.259100675582886 4.6613608598709098 14.879184424877165 99.677278563380241 11.385749742388724 12.816977798938749 4.2982602119445792 5.3296032547950727 9.6979123502969724 9.3234634101390856 19.411249041557312 7.4297741651535016 560.45866194367409 56.943632394075394 65.27256940305233 7.9204261898994446 11.087844640016554 72.89594778418541 4.3234888613224021 31.101140111684799 70.054733648896217 9.9927220046520215
leaf_count=239 121 29 301 21 183 3815 999 113 118 14 71 471 51 39 13 18 39 28 94 34 1683 171 306 37 52 219 13 145 331 37
internal_value=0.000262879 0.0450026 0.0567575 0.0627491 0.0137159 -0.0361763 -0.0220217 0.0322371 -0.0293971 -0.00288515 0.0436902 -0.0276453 0.0711087 0.0401795 -0.0403553 -0.0331976 0.0724979 -0.0377343 -0.0062908 -0.00205163 0.0733369 0.0563009 -0.0397759 -0.00430647 0.0751432 0.0612457 -0.0419645 -0.0329339 -0.0372783 -0.0210777
internal_weight=2359.63 1059.18 911.667 861.701 125.512 1300.45 533.379 63.8264 469.553 137.322 54.1383 147.513 736.188 19.1012 332.231 83.184 722.47 128.412 28.7347 13.7186 712.772 68.3294 78.5226 13.25 644.442 83.9838 327.932 115.472 111.149 41.0939
internal_count=9805 3654 2993 2754 484 6151 2336 234 2102 564 189 661 2270 68 1538 375 2215 593 122 55 2176 222 361 55 1954 271 1525 526 513 182
is_linear=0
shrinkage=0.05


Tree=25
num_leaves=31
num_cat=0
split_feature=16 15 15 22 15 22 24 22 18 14 20 18 9 18 25 26 24 14 18 25 23 14 15 2 24 25 16 18 23 14
split_gain=3599.41 80.0311 19.6312 31.3292 0.152755 0.014442 0.00899388 0.00600983 0.0153278 0.00769638 0.00510716 0.00479991 0.00464475 0.00447253 0.00886122 0.00483235 0.00641499 0.00419663 0.00398706 0.0144542 0.00369355 0.00333181 0.00300289 0.00299087 0.00214781 0.00213161 0.00469787 0.00268211 0.00202054 0.00186889
threshold=-0.13499999791383741 4.1349999904632577 4.3650000095367441 3.0949999094009404 4.1949999332427987 2.995000004768372 -4.2450001239776602 3.0449999570846562 121.24160003662111 4.1250000000000009 4.2500000000000009 118.89119720458986 45.568372726440437 119.13080215454103 0.84745001792907726 0.20499999821186068 1.1299999952316286 4.3450000286102304 125.9832000732422 -0.022150000557303425 101.40999984741212 3.8850001096725468 4.3949999809265146 0.0028551518917083745 -2.9800000190734859 -0.54499998688697804 -0.10000000149011611 120.49729919433595 74.409999847412124 4.3750000000000009
decision_type=2 2 2 2 2 2 2 2 2 2 2 2 2 2 2 2 2 2 2 2 2 2 2 2 2 2 2 2 2 2
left_child=1 21 5 22 -3 6 11 8 10 -10 23 -2 18 14 17 -15 -17 24 28 -20 29 -1 -4 -7 -8 -14 -27 -28 -9 -19
right_child=2 4 3 -5 -6 7 13 12 9 -11 -12 -13 25 15 -16 16 -18 20 19 -21 -22 -23 -24 -25 -26 26 27 -29 -30 -31
leaf_value=-0.053194814001474411 -0.05276182386332795 0.07212383632309291 -0.050833480831051117 0.065386028033090446 0.06542651727583812 -0.052807654650140902 -0.052023379631796166 -0.051106667945205887 -0.053749374802791031 -0.051844764235158436 -0.050750555442099082 -0.0513567444769953 -0.050824260847674101 -0.050779626047069398 -0.052757491229465985 -0.050967329664793504 -0.052380041667964852 -0.049331846357254842 -0.053502623527364394 -0.051140325513634823 -0.050904454867512772 -0.051682262376921452 -0.052273484161703798 -0.051153585516846158 -0.051132219741528789 -0.052414579068779991 -0.051684094342695823 -0.05103122742585129 -0.051442345527205238 -0.050492277134141242
leaf_weight=7.1678846776485425 7.1221593618392935 8.5748043656349164 6.9657692313194293 9.4576827585697156 1200.0677187740803 5.742668151855467 7.2377010285854331 102.33440765738487 10.301319777965546 10.934050470590591 28.533936440944672 41.464798361063004 84.0125812292099 692.97319130599499 7.668899029493331 31.098983585834503 10.835672378540037 6.5419855713844282 9.3899964392185229 20.861502587795258 36.458720117807388 7.399107962846756 7.5382979512214661 5.2145341038703918 102.70007616281509 6.7790787220001212 16.978405237197876 214.18931095302105 79.776930406689644 7.3879804909229279
leaf_count=26 26 26 27 29 3679 21 27 393 37 41 111 158 326 2692 28 120 40 27 34 80 141 28 28 20 394 25 64 825 303 29
internal_value=-0.000237853 0.06407 -0.050325 -0.00541476 0.065474 -0.0510209 -0.0509 -0.0512141 -0.0516854 -0.0527687 -0.0511029 -0.0515627 -0.0511605 -0.0508644 -0.0510971 -0.0508112 -0.0513324 -0.0510177 -0.051342 -0.0518736 -0.0506398 -0.0524265 -0.0515819 -0.0520205 -0.0511909 -0.0510408 -0.0511172 -0.0510792 -0.0512537 -0.0499473
internal_weight=2793.71 1223.21 1570.5 23.9617 1208.64 1546.54 951.49 595.049 60.7265 21.2354 39.4911 48.587 534.322 902.903 167.995 734.908 41.9347 160.326 212.363 30.2515 50.3887 14.567 14.5041 10.9572 109.938 321.959 237.947 231.168 182.111 13.93
internal_count=9805 3759 6046 84 3705 5962 3682 2280 230 78 152 184 2050 3498 646 2852 160 618 810 114 197 54 55 41 421 1240 914 889 696 56
is_linear=0
shrinkage=0.05


Tree=26
num_leaves=31
num_cat=0
split_feature=17 23 17 24 14 14 27 19 19 26 14 14 15 19 17 17 26 24 14 15 24 27 19 14 17 23 17 19 11 25
split_gain=892.704 468.948 281.21 192.874 105.044 97.793 91.1835 70.0237 60.0685 59.2644 52.2755 65.9011 51.9463 48.703 41.7308 30.96 35.9255 34.783 29.3388 61.6047 22.3652 21.5765 44.8033 42.9765 30.4611 19.0332 20.2288 39.1726 17.1845 16.1895
threshold=17.224999427795414 78.219997406005874 23.704999923706058 -2.660000085830688 3.7549999952316289 4.4249999523162851 -0.28499999642372126 326.30950927734381 314.39700317382818 1.0000000180025095e-35 4.2349998950958261 4.3750000000000009 4.6449999809265146 320.46099853515631 14.605000019073488 18.625000000000004 -0.15500000119209287 1.7799999713897707 4.5950000286102304 4.2850000858306894 3.1700000762939458 0.054999999701976783 321.02749633789068 4.3550000190734872 17.250000000000004 66.409999847412124 16.73499965667725 326.30950927734381 1.3646845221519472 -1.5425999760627744
decision_type=2 2 2 2 2 2 2 2 2 2 2 2 2 2 2 2 2 2 2 2 2 2 2 2 2 2 2 2 2 2
left_child=3 2 8 5 12 14 9 18 -2 -3 -9 -12 -5 -4 -1 17 -17 21 -6 -20 -19 22 -10 24 -24 26 27 -16 -15 -18
right_child=1 6 13 4 7 -7 -8 10 15 -11 11 -13 -14 28 25 16 29 20 19 -21 -22 -23 23 -25 -26 -27 -28 -29 -30 -31
leaf_value=-0.045865799938880264 -0.046569083010305413 -0.046205458894400087 -0.038436794351710615 0.080012906926973298 -0.044315322751223934 -0.045530623577844563 -0.042269702682710159 -0.045970972397134754 0.073653487387428149 0.067691148092833428 0.08341558724545356 -0.045901896508153364 -0.045187546817539302 0.07957547083125599 -0.047171355643712012 -0.04669317386109887 0.0065532680352418469 -0.04629399209309603 0.063899938461430647 -0.045322044715637139 0.046753618984330073 0.077480196755062319 -0.04664109472150918 -0.045946637299875338 0.08444393466312955 0.076705229109525278 0.098682275453569016 0.084180474892505741 -0.023692228954334586 0.078899932117090357
leaf_weight=10.101772829890249 11.628966659307478 16.640935853123665 85.170939430594444 28.554143697023392 920.05814002454281 35.177421718835831 187.76912827789783 27.167989313602448 56.659521758556366 36.411860108375549 30.620221495628357 14.525286197662352 11.671107679605482 13.733245298266413 14.023409292101864 5.8979353159666053 7.878637731075286 13.456663936376573 19.799052506685257 37.105052903294563 12.417307913303373 92.897793859243393 5.8695989400148418 20.760974153876305 18.092118680477142 63.778651297092438 7.8474066853523246 9.5357904136180878 5.700821340084075 417.74295288324356
leaf_count=51 56 82 408 86 4793 182 956 136 174 113 93 73 62 43 65 28 25 66 65 195 41 283 28 104 55 197 25 29 26 1265
internal_value=9.63142e-05 0.034961 0.0540524 -0.0284972 -0.0356065 0.0266459 -0.0259158 -0.0386463 0.0660682 0.0319655 0.00882998 0.0418085 0.0436868 -0.0221398 0.0507608 0.0680782 0.0758624 0.0528204 -0.0421605 -0.00731966 -0.00163905 0.0600732 0.0441229 0.00671042 0.0523337 0.0610155 0.0291539 0.00599444 0.0492828 0.0775607
internal_weight=2238.69 1008.73 767.907 1229.97 1089.5 140.464 240.822 1049.28 663.302 53.0528 72.3135 45.1455 40.2253 104.605 105.287 651.674 431.52 220.154 976.962 56.9041 25.874 194.28 101.382 44.7227 23.9617 95.1853 31.4066 23.5592 19.4341 425.622
internal_count=9805 3753 2602 6052 5503 549 1151 5355 2125 195 302 166 148 477 367 2069 1318 751 5053 260 107 644 361 187 83 316 119 94 69 1290
is_linear=0
shrinkage=0.05


Tree=27
num_leaves=31
num_cat=0
split_feature=17 24 19 22 23 18 19 27 11 23 2 2 17 18 24 27 27 3 24 24 23 4 17 22 9 23 17 24 2 15
split_gain=1281.56 160.989 73.3123 115.454 47.3212 23.1653 68.0182 10.4578 10.5293 8.019 17.1756 7.92151 5.84856 3.66965 3.28126 2.60601 20.6357 1.88805 1.73332 6.837 3.25021 1.05253 1.03633 0.554534 0.234124 0.126233 0.0573284 0.126141 0.0515536 0.0469203
threshold=22.970000267028812 -7.2149999141693106 328.87649536132818 2.8950001001358037 59.545000076293952 127.74084854125978 318.28250122070318 -0.074999999254941926 -0.68402752280235279 79.805000305175795 0.0058347433805465707 -0.00026676758716348553 21.409999847412113 127.97274780273439 -10.329999923706053 0.30500000715255743 0.32500000298023229 -0.0051968861371278754 0.22500000149011615 -0.42499999701976771 61.815000534057624 -0.038591982796788209 23.704999923706058 3.1650000810623173 51.990505218505866 99.444999694824233 24.900000572204593 3.8799999952316289 0.0055771167390048513 3.7999999523162846
decision_type=2 2 2 2 2 2 2 2 2 2 2 2 2 2 2 2 2 2 2 2 2 2 2 2 2 2 2 2 2 2
left_child=1 9 5 -4 -2 15 11 8 -6 10 14 -7 25 18 -1 -3 17 -17 19 20 -9 -13 23 -20 -11 28 27 -24 -5 -22
right_child=4 2 3 12 7 6 -8 13 -10 24 -12 21 -14 -15 -16 16 -18 -19 22 -21 29 -23 26 -25 -26 -27 -28 -29 -30 -31
leaf_value=0.11323469162545692 -0.041032229741148174 -0.040468319679011502 -0.04055022965086956 0.11965807332854106 0.088695249988162181 0.0093862352476545927 -0.040548837815393105 0.077822194188453375 -0.041173530783023292 0.1095242040491779 -0.020948497761884285 0.083699720953312767 0.056790512249521023 0.067638122155616251 0.064027080521024446 0.030535052298879345 -0.040534247764426386 0.085755628903411069 0.13287095333237825 0.049541559265308593 0.10876920016550749 0.11441383781808825 0.11666613036084633 0.11360364638866792 0.12355367645939648 0.10823805471444799 0.10862225653907101 0.1088715206191696 0.11308255428654634 0.11172454059300252
leaf_weight=7.6733427643775967 5.7188489884138098 661.40451615303755 33.692836739122868 6.0219755172729545 4.5240446329116821 2.7682549208402643 38.342015840113163 9.1777442395687086 2.3827485963702193 5.9973114877939206 4.5096884816884986 4.3945757523179045 5.9965036958456031 5.9690377712249747 6.0658747330307987 3.2682857289910316 45.11541759967804 2.9407081902027121 7.283049136400221 5.9019899666309348 41.263778835535049 7.636071324348447 7.5611759424209621 7.6644710600376129 5.8984819799661636 7.8492837548255912 109.40324792265892 16.554716408252716 5.9025967121124268 19.910739243030548
leaf_count=26 55 7307 364 21 18 22 414 38 22 20 39 20 26 28 31 26 492 16 27 26 137 26 26 26 21 26 363 55 20 67
internal_value=-0.00015601 -0.028954 -0.0330993 0.0203814 0.101096 -0.0372516 -0.00540532 0.104516 0.0438923 0.0845398 0.0637188 0.0856469 0.100045 0.106332 0.0915095 -0.0396261 -0.0287727 0.0566887 0.107359 0.101232 0.105568 0.103195 0.110506 0.122991 0.116481 0.113162 0.109109 0.111315 0.116403 0.109731
internal_weight=1098.79 855.478 825.333 59.4632 243.316 765.87 53.1409 237.597 6.90679 30.1447 18.2489 14.7989 25.7704 230.69 13.7392 712.729 51.3244 6.20899 224.721 76.2543 70.3523 12.0306 148.467 14.9475 11.8958 19.7739 133.519 24.1159 11.9246 61.1745
internal_count=9805 8917 8780 457 888 8323 482 833 40 137 96 68 93 793 57 7841 534 42 765 268 242 46 497 53 41 67 444 81 41 204
is_linear=0
shrinkage=0.05


Tree=28
num_leaves=31
num_cat=0
split_feature=19 17 27 24 18 14 20 18 14 20 18 27 27 24 18 17 23 23 17 19 25 24 24 25 23 24 27 18 2 3
split_gain=968.185 999.357 204.88 120.251 74.2848 63.5299 58.5331 145.302 50.2397 47.2294 23.8426 33.0374 29.8123 23.4222 44.097 17.18 20.2148 9.22476 17.4364 5.13274 49.3224 5.51168 4.85643 3.86527 14.5089 2.98592 0.161188 0.0685357 0.0667635 0.049146
threshold=316.07951354980474 18.625000000000004 0.12499999627470972 -3.7300000190734859 118.36194992065431 4.3550000190734872 4.1499998569488534 122.38425064086915 4.2349998950958261 4.4500000476837167 128.51039886474612 -0.024999999441206452 -0.61500000953674305 0.74500000476837169 121.79994964599611 15.194999694824221 70.640003204345717 109.37500000000001 23.830000877380375 326.30950927734381 -0.35584999620914454 1.3650000095367434 -1.9449999928474424 1.2256500124931338 70.094997406005874 -3.3249999284744258 -0.40500000119209284 122.31110000610353 0.019444085657596592 0.023105852305889133
decision_type=2 2 2 2 2 2 2 2 2 2 2 2 2 2 2 2 2 2 2 2 2 2 2 2 2 2 2 2 2 2
left_child=6 2 3 8 5 -5 -1 22 29 10 12 -12 -6 -4 -15 16 -10 23 -19 25 -21 26 -8 -3 -25 -14 -22 -24 -27 -2
right_child=1 17 13 4 9 -7 7 -9 15 -11 11 -13 19 14 -16 -17 -18 18 -20 20 21 -23 27 24 -26 28 -28 -29 -30 -31
leaf_value=-0.045442278017865628 0.075647032939120673 -0.046063090120281494 -0.046284150460170752 -0.046299767042687595 -0.049286860247062983 0.07314822905068151 0.028155415095351233 -0.045652628366910697 0.075086837487262068 -0.046397310929644053 0.072377722314770965 -0.046328229266035463 0.046482985150574717 0.083565848300728982 -0.047071880678155653 -0.046778319317931527 -0.047778165829334161 0.075615921637797678 -0.04641487965254186 -0.046289570019695983 0.079332110354125115 0.027381766980713835 0.072268469916564285 0.037600574485952262 -0.047151920020050996 0.072606956775846818 0.072644543972673323 0.077252899112239634 0.077522062557555338 0.081665022737816173
leaf_weight=767.80303834378719 6.9891731739044172 336.81733094155788 50.513212919235229 27.608947679400444 5.229412153363227 18.651961326599121 7.043771266937255 89.895548939704895 7.3226294517517072 9.0863473862409574 12.980400711297991 10.687315031886099 11.078591182827948 11.803081244230272 14.268879637122152 37.947626069188118 6.1673309803009033 4.6656681299209577 7.8562450706958771 9.8358126133680326 9.9411807954311353 6.973254367709159 26.628565937280655 6.6715465784072903 20.773077055811882 647.84961086511612 96.219839364290237 9.306789815425871 6.983447700738906 6.5925686955451965
leaf_count=3997 21 1672 247 135 22 56 26 461 22 44 39 52 37 36 67 181 28 14 38 48 30 26 80 26 96 1946 289 28 21 20
internal_value=0.000251077 0.0263946 0.0522147 0.0586339 0.0635189 0.00186054 -0.0401398 -0.00949967 -0.00696507 0.0669685 0.0682281 0.0187753 0.069702 -0.0264188 0.0120693 -0.0295495 0.0189155 -0.0431423 -0.000946171 0.0704908 0.0611055 0.0704423 0.0661182 -0.0445929 -0.0265493 0.0722239 0.0732708 0.0735594 0.0726594 0.0785682
internal_weight=2292.19 1391.51 1014.73 938.145 873.126 46.2609 900.678 132.875 65.0193 826.865 817.779 23.6677 794.111 76.5852 26.072 51.4376 13.49 376.784 12.5219 788.882 122.97 113.134 42.9791 364.262 27.4446 665.912 106.161 35.9354 654.833 13.5817
internal_count=9805 5213 3367 3017 2745 191 4592 595 272 2554 2510 91 2419 350 103 231 50 1846 52 2397 393 345 134 1794 122 2004 319 108 1967 41
is_linear=0
shrinkage=0.05


Tree=29
num_leaves=31
num_cat=0
split_feature=19 16 11 17 14 18 17 14 22 22 15 18 14 27 17 25 23 25 27 23 22 18 25 16 23 27 16 14 2 17
split_gain=3351.33 8.25156 11.8765 0.0181696 0.0100614 0.00801573 0.0330529 0.00729042 0.0100846 0.0233049 0.0055534 0.00485062 0.00752744 0.00546562 0.00461888 0.00421606 0.00392406 0.00366626 0.00402183 0.00318421 0.00293101 0.00465005 0.00516354 0.00276462 0.00212342 0.00359702 0.00207282 0.00185554 0.00182285 0.00157556
threshold=313.81550598144537 -0.1649999991059303 -0.6504499316215514 23.529999732971195 4.7750000953674325 125.9832000732422 24.800000190734867 4.0050001144409189 3.0349999666213994 2.995000004768372 3.9850000143051152 119.13080215454103 4.3450000286102304 0.085000000894069686 15.375000000000002 -1.7989500164985655 79.645000457763686 0.84745001792907726 -0.37499999999999994 101.40999984741212 3.0149999856948857 120.49729919433595 -0.40035000443458552 -0.10000000149011611 70.305000305175795 0.11499999836087228 0.32500000298023229 4.3750000000000009 0.0027403525309637193 20.659999847412113
decision_type=2 2 2 2 2 2 2 2 2 2 2 2 2 2 2 2 2 2 2 2 2 2 2 2 2 2 2 2 2 2
left_child=29 2 -2 4 7 -5 -7 8 9 -3 14 12 13 17 -10 -13 -12 18 -9 27 24 22 -22 -16 -17 -26 -27 -14 -24 -1
right_child=1 3 -4 5 -6 6 -8 11 10 -11 16 15 19 -15 23 20 -18 -19 -20 -21 21 -23 28 -25 25 26 -28 -29 -30 -31
