tree
version=v4
num_class=4
num_tree_per_iteration=4
label_index=0
max_feature_idx=27
objective=multiclass num_class:4
feature_names=Column_0 Column_1 Column_2 Column_3 Column_4 Column_5 Column_6 Column_7 Column_8 Column_9 Column_10 Column_11 Column_12 Column_13 Column_14 Column_15 Column_16 Column_17 Column_18 Column_19 Column_20 Column_21 Column_22 Column_23 Column_24 Column_25 Column_26 Column_27
feature_infos=[26.044887542724609:748.16998291015625] [1245100:256611392] [-0.096509777009487152:0.1259777843952179] [-0.20678846538066864:0.11130178719758987] [-0.17321822047233582:0.22147943079471588] [27.038429260253906:729.9990234375] [27.916280746459961:694.86627197265625] [29.154205322265625:675.65789794921875] [0.52928650379180908:24.795200347900391] [0:100] [-0.45264741778373718:1.4415537118911743] [-2.7406487464904785:4.3214631080627441] [0.052738580852746964:0.6441618800163269] [0.082419939339160919:0.43999388813972473] [3.630000114440918:4.9800000190734863] [3.380000114440918:5.190000057220459] [-1.0800000429153442:0.74000000953674316] [11.859999656677246:52.330001831054688] [117.02639770507812:130.04130554199219] [304.01400756835938:332.40701293945312] [3.5:4.5] [3.6400001049041748:5.3299999237060547] [2.5899999141693115:4.6100001335144043] [55.439998626708984:114.58000183105469] [-22.209999084472656:30.559999465942383] [-3.355600118637085:2.4186000823974609] [-0.40000000596046448:0.5] [-1.1100000143051147:1.6399999856948853]
tree_sizes=2452 2705 1917 763 3480 3391 3497 3551 3470 3380 3494 3526 3465 3374 3485 3479 3451 3390 3472 3508 3454 3375 3473 3491 3424 3384 3480 3497 3443 3398 3476 3528 3440 3407 3467 3540 3439 3397 3481 3525 3454 3406 3476 3536 3445 3400 3478 3526 3428 3419 3496 3522 3435 3416 3476 3513 3460 3406 3480 3536 3451 3427 3493 3537 3457 3426 3500 3537 3437 3430 3490 3537 3432 3428 3491 3544 3464 3430 3494 3533 3468 3407 3509 3545 3455 3416 3504 3535 3449 3426 3506 3543 3464 3398 3504 3533 3463 3408 3503 3487 3434 3413 3504 3551 3472 3437 3501 3534 3473 3403 3506 3540 3484 3393 3507 3546 3468 3447 3497 3546 3472 3393 3506 3540 3460 3442 3510 3547 3456 3429 3497 3543 3471 3451 3517 3537 3479 3436 3502 3549 3444 3441 3508 3518 3481 3451 3494 3542 3475 3453 3519 3543 3470 3467 3507 3534 3444 3442 3515 3549 3472 3449 3526 3553 3491 3450 3519 3550 3480 3442 3521 3546 3491 3451 3530 3547 3491 3448 3506 3554 3487 3440 3474 3525 3498 3459 3523 3563 3502 3454 3531 3567 3508 3474 3527 3559 3505 3470 3532 3563 3508 3442 3515 3564 3512 3446 3546 3576 3512 3466 3533 3566 3510 3455 3540 3567 3511 3465 3546 3571 3515 3475 3540 3580 3516 3481 3541 3578 3487 3475 3538 3581 3507 3475 3543 3576 3519 3487 3548 3556 3506 3482 3544 3583 3517 3469 3530 3598 3496 3487 3541 3595 3494 3477 3548 3592 3518 3479 3542 3592 3516 3477 3546 3593 3524 3495 3549 3587 3515 3489 3553 3562 3523 3467 3534 3595 3529 3508 3557 3602 3488 3501 3553 3599 3535 3504 3557 3605 3527 3504 3552 3588 3525 3496 3544 3598 3530 3506 3559 3595 3536 3495 3569 3612 3538 3516 3572 3613

Tree=0
num_leaves=22
num_cat=0
split_feature=22 16 17 17 16 24 20 17 18 15 17 24 16 22 0 0 0 0 0 2 4
split_gain=4885.03 744.952 1083.94 255.902 72.7888 44.9065 43.6943 30.3856 48.632 22.0416 17.839 60.0679 17.7322 16.0906 4.54747e-13 4.54747e-13 4.54747e-13 1.13687e-13 1.42109e-14 1.42109e-14 1.42109e-14
threshold=3.0449999570846562 0.12499999627470972 20.840000152587894 22.659999847412113 0.014999999664723875 -7.8550000190734854 4.1499998569488534 21.680000305175785 121.70790100097658 4.0450000762939462 21.139999389648441 1.5199999809265139 0.19500000029802325 3.2999999523162846 526.24346923828136 682.79028320312511 440.98677062988287 592.18362426757824 215.10234832763675 0.0045188541989773521 -0.014106137212365864
decision_type=2 2 2 2 2 2 2 2 2 2 2 2 2 2 2 2 2 2 2 2 2
left_child=3 14 9 4 -1 6 -6 8 -4 13 15 -12 -5 17 -2 16 -7 -3 -13 -17 -14
right_child=1 2 7 12 5 10 -8 -9 -10 -11 11 18 20 -15 -16 19 -18 -19 -20 -21 -22
leaf_value=-0.84091082397949246 -0.84091082397949246 -0.69006152198905724 -0.69006152198905735 -0.75968427675387351 -0.84091082397949246 -0.69006152198905724 -0.69006152198905724 -0.84091082397949246 -0.84091082397949246 -0.77087364805536185 -0.84091082397949246 -0.69006152198905724 -0.84091082397949246 -0.7654861729842749 -0.84091082397949246 -0.69006152198905724 -0.69006152198905724 -0.69006152198905724 -0.69006152198905724 -0.69006152198905724 -0.84091082397949246
leaf_weight=8.2864157855510694 1371.2360841929913 225.05905273556709 8.9493290483951586 8.6178724169731122 9.9436989426612872 1015.2516620457172 9.2807856798171979 276.43483060598373 13.258265256881712 9.2807856798171979 8.6178724169731122 21.544681042432789 17.898658096790314 7.2920458912849417 17.898658096790314 13.921178519725801 187.60445338487625 8.2864157855510694 6.629132628440856 10.606612205505369 12.59535199403763
leaf_count=25 4137 679 27 26 30 3063 28 834 40 28 26 65 54 22 54 42 566 25 20 32 38
internal_value=-0.770771 -0.821429 -0.772094 -0.697012 -0.693197 -0.692243 -0.768087 -0.83639 -0.780121 -0.695263 -0.69109 -0.725396 -0.823013 -0.692347 -0.840911 -0.690062 -0.690062 -0.690062 -0.690062 -0.690062 -0.840911
internal_weight=3268.49 1937.7 548.561 1330.8 1291.69 1283.4 19.2245 298.642 22.2076 249.918 1264.18 36.7917 39.1119 240.638 1389.13 1227.38 1202.86 233.345 28.1738 24.5278 30.494
internal_count=9861 5846 1655 4015 3897 3872 58 901 67 754 3814 111 118 726 4191 3703 3629 704 85 74 92
is_linear=0
shrinkage=1


Tree=1
num_leaves=25
num_cat=0
split_feature=17 14 15 17 22 14 21 22 22 25 27 14 14 26 17 18 17 3 11 0 9 1 0 0
split_gain=4811.04 599.924 190.236 143.994 234.994 193.303 108.752 69.3276 68.4884 101.319 36.7003 254.02 125.233 34.6742 33.2285 29.1473 92.401 32.9283 12.4741 9.09495e-13 2.27374e-13 5.68434e-14 7.10543e-15 1.77636e-15
threshold=21.625000000000004 3.7050000429153447 4.1549999713897714 19.845000267028812 3.1750000715255742 4.8350000381469735 4.5599999427795419 3.245000004768372 2.9850000143051152 0.59199997782707225 0.11499999836087228 3.9650000333786015 3.8249999284744267 -0.13499999791383741 21.680000305175785 128.31544494628909 16.125000000000004 0.011247167829424145 -0.29844944179058069 38.296939849853523 72.118488311767592 5778550.0000000009 566.01263427734386 93.144870758056655
decision_type=2 2 2 2 2 2 2 2 2 2 2 2 2 2 2 2 2 2 2 2 2 2 2 2
left_child=1 21 8 10 13 7 -4 18 9 -2 20 12 -12 -5 -10 -13 17 -17 -6 -16 -3 -1 -15 -7
right_child=2 3 6 4 5 23 -8 -9 14 -11 11 15 -14 22 19 16 -18 -19 -20 -21 -22 -23 -24 -25
leaf_value=-1.688451917434834 -1.6884519174348336 -1.9964551196942413 -1.6884519174348338 -1.8424535185645377 -1.8116531983385968 -1.9964551196942413 -1.9964551196942413 -1.6884519174348338 -1.8306072415545604 -1.9964551196942413 -1.9964551196942413 -1.9964551196942413 -1.6884519174348338 -1.9964551196942413 -1.6884519174348338 -1.9040541590164191 -1.9964551196942413 -1.6884519174348338 -1.9502546393553302 -1.6884519174348338 -1.9964551196942413 -1.6884519174348338 -1.9964551196942413 -1.9964551196942413
leaf_weight=4.0583994239568737 6.1687671244144422 869.95850051939487 4.220735400915145 3.8960634469985953 3.2467195391654968 6.6557750552892667 8.9284787327051145 16.720605626702309 4.220735400915145 4.7077433317899704 4.7077433317899695 175.32285511493683 11.038846433162687 53.895544350147247 6.1687671244144431 3.2467195391654995 19.642653211951256 3.8960634469985962 3.2467195391654995 151.6218024790287 212.82246579229832 12.824542179703711 5.194751262664794 4.3830713778734207
leaf_count=25 38 5359 26 24 20 41 55 103 26 29 29 1080 68 332 38 20 121 24 20 934 1311 79 32 27
internal_value=-1.95329 -1.98472 -1.71425 -1.9883 -1.92961 -1.82421 -1.89759 -1.7423 -1.70031 -1.82177 -1.99269 -1.97396 -1.78054 -1.98693 -1.69216 -1.98903 -1.94045 -1.78645 -1.88095 -1.68845 -1.99646 -1.68845 -1.99646 -1.99646
internal_weight=1600.8 1414.76 186.037 1397.88 97.2393 34.2529 13.1492 23.214 172.888 10.8765 1300.64 217.855 15.7466 62.9864 162.011 202.108 26.7854 7.14278 6.49344 157.791 1082.78 16.8829 59.0903 11.0388
internal_count=9861 8715 1146 8611 599 211 81 143 1065 67 8012 1342 97 388 998 1245 165 44 40 972 6670 104 364 68
is_linear=0
shrinkage=1


Tree=2
num_leaves=17
num_cat=0
split_feature=16 26 19 22 24 18 14 11 1 0 1 0 0 0 0 1
split_gain=6309.75 541.172 132.464 176.888 92.7293 69.011 19.215 12.0346 9.09495e-13 4.54747e-13 2.84217e-14 1.42109e-14 1.42109e-14 1.42109e-14 7.10543e-15 3.55271e-15
threshold=-0.11999999731779097 -0.21499999612569806 314.39700317382818 3.4550000429153447 -5.0350000858306876 121.02470016479494 3.7549999952316289 -0.6115722358226775 64446350.000000007 39.61786079406739 84920600.000000015 353.64953613281256 125.52315902709962 39.141117095947273 376.63426208496099 20718500.000000004
decision_type=2 2 2 2 2 2 2 2 2 2 2 2 2 2 2 2
left_child=1 5 3 12 7 11 -6 -3 -8 13 -10 -1 -2 -4 -5 -15
right_child=2 4 9 14 6 -7 8 -9 10 -11 -12 -13 -14 15 -16 -17
leaf_value=-1.0474293379942876 -0.88698709421109345 -1.0422537817432167 -1.0474293379942876 -1.0474293379942876 -0.96147813596757647 -0.88698709421109345 -0.88698709421109345 -0.9567445915081344 -0.88698709421109345 -1.0474293379942876 -0.88698709421109345 -1.0474293379942876 -0.88698709421109345 -1.0474293379942876 -1.0474293379942876 -1.0474293379942876
leaf_weight=56.09495222568512 18.69831740856171 9.6607973277568835 58.899699836969376 31.475500971078873 8.7258814573287946 7.4793269634246817 1039.9380865395069 7.1676883399486533 40.201382428407669 1735.5154941380024 17.763401538133621 8.4142428338527662 11.842267692089079 7.1676883399486524 7.7909655869007102 6.2327724695205688
leaf_count=180 60 31 189 101 28 24 3337 23 129 5569 57 27 38 23 25 20
internal_value=-0.987652 -0.897862 -1.04482 -0.977236 -0.889346 -1.03076 -0.887574 -1.00583 -0.886987 -1.04743 -0.886987 -1.04743 -0.886987 -1.04743 -1.04743 -1.04743
internal_weight=3073.07 1195.45 1877.62 69.8071 1123.46 71.9885 1106.63 16.8285 1097.9 1807.82 57.9648 64.5092 30.5406 72.3002 39.2665 13.4005
internal_count=9861 3836 6025 224 3605 231 3551 54 3523 5801 186 207 98 232 126 43
is_linear=0
shrinkage=1


Tree=3
num_leaves=6
num_cat=0
split_feature=26 18 26 24 0
split_gain=5979.04 711.995 88.2273 154.449 9.09495e-13
threshold=-0.21499999612569806 121.02470016479494 -0.18500000238418576 0.32500000298023229 122.44447708129884
decision_type=2 2 2 2 2
left_child=1 4 3 -2 -1
right_child=2 -3 -4 -5 -6
leaf_value=-2.1470206115786539 -2.8667171810433962 -3.8023227213475619 -3.8023227213475619 -3.8023227213475619 -2.1470206115786543
leaf_weight=4.1684234328567973 0.69473723880946536 0.72494320571422566 288.98048537783325 1.2082386761903761 2.0842117164283991
leaf_count=138 23 24 9567 40 69
internal_value=-3.76539 -2.319 -3.80009 -3.46075 -2.14702
internal_weight=297.861 6.97758 290.883 1.90298 6.25264
internal_count=9861 231 9630 63 207
is_linear=0
shrinkage=1


Tree=4
num_leaves=31
num_cat=0
split_feature=22 16 17 17 16 24 14 17 19 24 16 17 24 22 26 16 27 18 22 16 24 15 16 27 4 24 26 11 14 4
split_gain=4275.26 655.378 959.491 224.253 63.1325 39.3936 38.8957 27.3473 43.8766 19.8455 15.9306 15.6715 53.4897 14.0905 0.0640021 0.00880229 0.00857902 0.00459609 0.00358416 0.00240708 0.00184736 0.00183612 0.00179468 0.00155539 0.00084022 0.000191471 0.00014896 0.000933304 4.93278e-05 5.53085e-06
threshold=3.0449999570846562 0.12499999627470972 20.840000152587894 22.659999847412113 0.014999999664723875 -7.8550000190734854 4.5750000476837167 21.680000305175785 321.02749633789068 -6.4200000762939444 0.19500000029802325 21.139999389648441 1.5199999809265139 3.2999999523162846 -0.20499999821186063 -0.11999999731779097 -0.97499999403953541 121.02470016479494 3.2050000429153447 -0.96500000357627858 -5.0350000858306876 3.4550000429153447 -0.17500000447034833 0.50499999523162853 -0.0073852546047419301 3.9700000286102299 0.23499999940395358 -0.62636375427246083 3.7849999666213994 -0.010574937798082827
decision_type=2 2 2 2 2 2 2 2 2 2 2 2 2 2 2 2 2 2 2 2 2 2 2 2 2 2 2 2 2 2
left_child=3 14 9 4 -1 6 -6 8 24 -3 -5 26 -13 16 17 19 -11 -2 -17 -16 22 -18 -21 25 -4 -23 -7 -28 -22 -29
right_child=1 2 7 10 5 11 -8 -9 -10 13 -12 12 -14 -15 15 18 21 -19 -20 20 28 23 -24 -25 -26 -27 27 29 -30 -31
leaf_value=-0.065874672817643323 -0.064301621386720631 0.00039613449136408963 -0.067354878326754658 0.01056078441391506 0.075555385871826725 0.075555385871826752 -0.066888685506324513 -0.066488330508872054 0.076369139353595628 0.077288583535182032 -0.066488330508872054 -0.067154211711857162 0.075555385871826752 0.005118539799317038 -0.06668018733764404 -0.065874672817643323 0.076335378139519988 -0.065400564594374586 -0.066488330508872054 -0.066891079483591923 -0.065755981923050461 0.075555385871826752 -0.065883895888004695 0.076236817266998838 -0.066555198483843253 0.075795452950161893 0.076194274842096607 0.075555385871826752 -0.065874672817643323 0.075604520857782118
leaf_weight=8.1734225153923017 67.089968293905258 9.6415998935699445 6.5798439085483551 8.6274870634078962 9.3328287601470965 1180.2695228457451 9.8507512807846052 273.44398713111877 8.9959232211112958 7.9899336695671073 30.164084911346436 8.5468138456344587 28.33180159330368 7.2956932783126822 9.5140441656112653 32.03981626033783 8.6630324125289899 11.086553275585173 92.459477663040161 8.8659833371639269 8.8220791816711408 199.98918771743774 8.8257953524589521 8.9964516758918744 6.5591354668140429 8.6656286120414716 6.6647898554801932 40.664468169212341 1131.2016761302948 6.6661896109580985
leaf_count=25 207 29 20 26 28 3541 30 834 27 24 92 26 85 22 29 98 26 34 282 27 27 600 27 27 20 26 20 122 3460 20
internal_value=0.000496506 -0.0473747 -0.0010984 0.0691098 0.0726487 0.0735262 0.00241048 -0.0621612 -0.00870653 0.0707404 -0.0493521 0.0745995 0.0424817 0.0735476 -0.0658467 -0.0659308 0.0756784 -0.0644575 -0.0663304 -0.0658881 -0.0658816 0.0756215 -0.0663886 0.0755931 -0.0669557 0.0755654 0.0755591 0.0756403 -0.0658738 0.0755623
internal_weight=3254.02 1916.73 546.82 1337.29 1298.5 1290.33 19.1836 295.579 22.1349 251.242 38.7916 1271.14 36.8786 241.6 1369.91 1291.73 234.304 78.1765 124.499 1167.23 1157.72 226.314 17.6918 217.651 13.139 208.655 1234.26 53.9954 1140.02 47.3307
internal_count=9861 5846 1655 4015 3897 3872 58 901 67 754 118 3814 111 725 4191 3950 703 241 380 3570 3541 679 54 653 40 626 3703 162 3487 142
is_linear=0
shrinkage=0.05


Tree=5
num_leaves=31
num_cat=0
split_feature=27 15 20 14 24 12 24 25 23 22 26 23 25 24 20 27 22 19 22 25 18 15 16 24 14 16 27 16 12 15
split_gain=1545.21 640.532 518.827 440.266 303.425 238.203 154.073 140.79 127.628 93.967 123.63 195.04 84.7586 82.0365 60.4656 52.8644 114.784 43.6708 215.017 38.1202 30.0486 23.1665 17.5146 8.72518 19.8724 7.24966 2.12142 27.9376 1.18612 0.468323
threshold=0.18500000238418582 4.2349998950958261 4.3500001430511483 3.7050000429153447 4.7500000000000009 0.30167949199676519 6.2350001335144052 0.85385000705719005 112.74000167846681 3.2749999761581425 1.0000000180025095e-35 68.36999893188478 -0.066450003534555421 -7.2149999141693106 4.1499998569488534 -0.73000001907348622 3.245000004768372 328.87649536132818 2.9650000333786015 1.6604499816894533 121.85940170288087 3.9850000143051152 0.56499999761581432 -5.6800000667572013 4.2950000762939462 0.47499999403953558 -0.40500000119209284 0.51499998569488536 0.23765674978494647 4.0150001049041757
decision_type=2 2 2 2 2 2 2 2 2 2 2 2 2 2 2 2 2 2 2 2 2 2 2 2 2 2 2 2 2 2
left_child=3 2 9 -1 5 8 20 -6 13 10 21 12 29 14 -5 16 -15 23 -19 -3 -4 -2 -20 24 -17 -7 27 28 -25 -12
right_child=1 19 6 4 7 25 -8 -9 -10 -11 11 -13 -14 15 -16 17 -18 18 22 -21 -22 -23 -24 26 -26 -27 -28 -29 -30 -31
leaf_value=0.20074093953964553 0.20074093953964553 -0.043376989910486587 -0.043413850523316609 0.20774301328911254 0.20159928486910564 0.11806883960431497 0.20074093953964553 -0.043337883276108449 0.20074093953964553 0.20145595259220431 0.20074093953964545 -0.043336723557052689 -0.043776540211316162 -0.043362524122592644 -0.043322661626785372 0.089764507389363493 0.20074093953964553 -0.043322661626785386 0.20678120803726349 0.10354645327662447 0.094891776114590681 0.0802728435892959 0.090429644844611828 -0.043330871067559701 -0.043391670287431378 0.20074093953964553 -0.043350970026977138 0.095140833394008986 -0.011990494483069601 0.21784011691558042
leaf_weight=21.064954519271851 42.940099596977234 70.121071726083755 46.208605214953423 5.9157658517360669 20.38999226689339 3.6756804287433615 8.3044532239437086 8.2368105053901655 5.6713339090347281 108.87254209816456 16.203811168670661 19.889803513884544 4.0727492719888678 14.183468088507654 4.0330587923526764 4.0862816125154486 7.2917150259017935 63.908470094203949 9.8961884379386884 4.7114558815956107 4.2919834256172171 4.3996710777282706 4.804766356945037 65.978632941842079 8.9152473360300046 9.5197390615940076 998.87173642218113 3.9306227266788474 3.1637465804815283 5.3187889605760565
leaf_count=104 212 449 295 30 101 20 41 53 28 539 80 128 25 91 26 23 36 412 50 26 24 25 27 425 57 47 6417 22 20 28
internal_value=-0.000608275 0.0948056 0.131843 -0.0259305 -0.0297735 -0.033568 0.00116018 0.131123 -0.03589 0.169944 0.132983 0.0741157 0.165386 -0.0370131 0.105966 -0.0382134 0.0395207 -0.0396482 -0.00366172 -0.0341267 -0.0316594 0.189545 0.168754 -0.0422555 -0.0015417 0.177712 -0.0427494 -0.0345255 -0.0418968 0.204967
internal_weight=1598.87 335.335 260.503 1263.54 1242.47 1213.85 58.805 28.6268 1200.65 201.697 92.8249 45.4852 25.5953 1194.98 9.94882 1185.03 21.4752 1163.56 78.6094 74.8325 50.5006 47.3398 14.701 1084.95 13.0015 13.1954 1071.94 73.073 69.1424 21.5226
internal_count=9861 1872 1397 7989 7885 7731 360 154 7664 1037 498 261 133 7636 56 7580 127 7453 489 475 319 237 77 6964 80 67 6884 467 445 108
is_linear=0
shrinkage=0.05


Tree=6
num_leaves=31
num_cat=0
split_feature=16 26 19 22 18 19 17 14 17 25 9 22 17 22 14 14 14 27 26 16 17 17 18 10 26 26 2 17 10 16
split_gain=5509.97 439.554 120.531 154.701 60.2499 44.2897 64.2623 16.1127 0.0370578 0.0102939 0.0117323 0.00587202 0.00345035 0.00273294 0.00211302 0.00214373 0.000974347 0.000841563 0.000534795 0.000465272 0.00045861 0.000621084 0.000391812 0.000387122 0.000384169 0.00148588 0.000274913 0.000774087 0.000190017 0.000141177
threshold=-0.11999999731779097 -0.21499999612569806 314.39700317382818 3.4550000429153447 121.02470016479494 313.81550598144537 15.864999771118166 3.7549999952316289 21.139999389648441 -1.8475000262260435 62.104373931884773 3.245000004768372 11.964999675750734 2.8750000000000004 4.055000066757203 4.0250000953674325 4.4549999237060556 -0.97499999403953541 -0.1649999991059303 0.66500002145767223 21.625000000000004 21.739999771118168 122.98740005493165 0.8077983856201173 0.21499999612569812 0.22500000149011615 -0.0045760443899780503 16.035000801086429 0.44461104273796087 0.24499999731779101
decision_type=2 2 2 2 2 2 2 2 2 2 2 2 2 2 2 2 2 2 2 2 2 2 2 2 2 2 2 2 2 2
left_child=1 4 3 -2 -1 7 23 -3 11 10 -9 17 -11 -10 15 -15 22 -4 -16 20 -20 -22 -13 -7 -19 -26 27 -27 -17 -23
right_child=2 5 8 -5 -6 6 -8 9 13 12 -12 16 -14 14 18 28 -18 24 19 -21 21 29 -24 -25 25 26 -28 -29 -30 -31
leaf_value=-0.056735551755980301 0.091165285411247354 0.023484200520714697 -0.057876653098236634 -0.058107115264398351 0.091165285411247354 -0.058963927958911491 0.091165285411247354 0.094118176519457808 -0.057309087475962278 0.092032603374086752 0.09116528541124734 -0.058154658595270685 0.091165285411247354 -0.058107115264398337 -0.058519611608286594 -0.05707162370726207 -0.057565494321759982 -0.05744126269657223 -0.057753312443734862 -0.057725943516545933 -0.058569649749269675 -0.058313338992370914 -0.057777014376564441 -0.058402816355494873 -0.058202803253311189 -0.058094059011666879 -0.057419791261910463 -0.057443676631989377 -0.05742227383241847 -0.058107115264398351
leaf_weight=61.849241673946381 31.639567613601685 8.8562424778938276 11.55385449528694 38.450244605541229 7.7484655380249015 6.1691695451736468 17.111194729804993 6.390021473169325 12.062216162681578 11.587735414505003 7.1027600765228271 35.7269446849823 1099.6364009380341 15.563194245100023 7.9778559803962699 6.3083162009716061 11.502664327621458 1259.2049770653248 8.5000501275062543 7.8897287845611563 7.676355153322219 8.5687295794486982 8.5030133724212629 6.1265671253204346 7.9440389871597281 6.4043911993503597 51.655875593423843 16.016463607549667 9.9690760076045972 263.65882015228271
leaf_count=207 98 28 38 126 24 20 53 20 40 36 22 117 3406 51 26 21 38 4167 28 26 25 28 28 20 26 21 171 53 33 864
internal_value=9.68374e-05 0.0817861 -0.0550212 0.00927663 -0.0402694 0.0890904 0.0285096 0.090662 -0.0575867 0.091191 0.0925637 -0.0574725 0.0911743 -0.0580485 -0.0580751 -0.0576875 -0.0579754 -0.0574518 -0.0581156 -0.0581048 -0.0581151 -0.0581261 -0.0580821 -0.0586843 -0.0574481 -0.0575529 -0.0574833 -0.0576295 -0.0572864 -0.0581136
internal_weight=3059.35 1232.58 1826.78 70.0898 69.5977 1162.98 29.4069 1133.57 1756.69 1124.72 13.4928 1408.51 1111.22 348.174 336.112 31.8406 55.7326 1352.78 304.272 296.294 288.404 279.904 44.23 12.2957 1341.23 82.0208 74.0767 22.4209 16.2774 272.228
internal_count=9861 3836 6025 224 231 3605 93 3512 5801 3484 42 4659 3442 1142 1102 105 183 4476 997 971 945 917 145 40 4438 271 245 74 54 892
is_linear=0
shrinkage=0.05


Tree=7
num_leaves=31
num_cat=0
split_feature=26 22 15 16 17 19 22 14 24 18 24 15 17 22 15 15 14 27 14 22 19 2 15 16 14 17 27 2 17 16
split_gain=1369.76 137.089 12.1116 0.000350714 2.03123e-06 1.60807e-06 2.11687e-07 1.28606e-07 1.26889e-07 1.1486e-07 1.02776e-07 9.14301e-08 1.3876e-07 8.31636e-08 9.73927e-08 8.20466e-08 1.20739e-07 6.69215e-08 5.23867e-08 4.23813e-08 3.69334e-08 2.84407e-08 2.68495e-08 2.11713e-08 4.97483e-08 4.57225e-08 1.70062e-08 1.33765e-08 1.22863e-08 1.12564e-08
threshold=-0.18500000238418576 3.8449999094009404 4.7049999237060556 -0.44499999284744257 21.625000000000004 315.18150329589849 2.8750000000000004 3.7250000238418584 -7.2149999141693106 125.22889709472658 -5.0350000858306876 3.5449999570846562 23.380000114440922 3.245000004768372 3.935000061988831 3.745000004768372 3.7549999952316289 -0.97499999403953541 4.2750000953674325 3.4550000429153447 314.39700317382818 -0.0045760443899780503 3.4150000810623173 0.054999999701976783 4.0250000953674325 21.739999771118168 0.50499999523162853 -0.00012275144035811533 18.07499980926514 0.19500000029802325
decision_type=2 2 2 2 2 2 2 2 2 2 2 2 2 2 2 2 2 2 2 2 2 2 2 2 2 2 2 2 2 2
left_child=1 3 -3 -1 5 7 -6 -2 9 -7 19 12 -8 17 -15 -12 -17 -10 -5 -9 -18 -16 -19 24 -13 -25 -24 -11 -21 -27
right_child=4 2 -4 18 6 8 11 10 13 27 15 23 -14 14 21 16 20 22 -20 28 -22 -23 26 25 -26 29 -28 -29 -30 -31
leaf_value=-0.039678897378585494 -0.038365555198259849 0.44174512207478928 0.33214552243802331 -0.038371991214800984 -0.038343127551621475 -0.038346951486904444 -0.038337964152733668 -0.038357283088211243 -0.038359137762035443 -0.038374111788280221 -0.038346951486904451 -0.038365555198259772 -0.038365555198259821 -0.038371941378650576 -0.038358109536362248 -0.038374485294782441 -0.038354923054067964 -0.038336225452177436 -0.038354886889903593 -0.038374178119519584 -0.038365555198259849 -0.038343990480938422 -0.038346898414935514 -0.038378284828587059 -0.038350789891935015 -0.038371690318160151 -0.038339448407297971 -0.038364015788647537 -0.0383655551982598 -0.038365555198259849
leaf_weight=0.69197021424770389 3.0578400492668143 2.7939777225255993 25.773318648338318 0.73999255709350364 1.1469066515564907 1.151932775974273 0.76955464482307334 1.1651476658880704 1.1089870277792204 0.59344030916690826 3.1390168145298949 2.1169661879539521 1.1172877103090284 0.71058372035622541 0.58312734961509716 0.80161823518574138 104.08299892768264 0.59736800193786521 1.1331867445260284 0.80131281539797761 0.82326462864875694 0.91843720525503125 121.75192047469318 0.74525883048773067 0.78090538643300522 0.7696016207337405 0.77085974812507529 0.73372420482337453 0.852666936814785 26.197456575930119
leaf_count=10 104 27 193 25 40 40 27 40 38 20 109 72 38 24 20 27 3582 21 39 27 28 32 4228 25 27 26 27 25 29 891
internal_value=-0.00304569 0.311424 0.342865 -0.038717 -0.0383527 -0.0383511 -0.0383642 -0.0383554 -0.0383473 -0.0383585 -0.0383552 -0.038365 -0.0383543 -0.0383471 -0.0383567 -0.0383549 -0.0383552 -0.0383469 -0.0383616 -0.0383646 -0.038355 -0.0383495 -0.0383468 -0.0383656 -0.0383616 -0.0383661 -0.0383469 -0.0383685 -0.0383697 -0.0383657
internal_weight=308.421 31.1324 28.5673 2.56515 277.288 243.644 33.6439 114.724 128.92 2.4791 111.666 32.497 1.88684 126.441 2.21215 108.847 105.708 124.229 1.87318 2.81913 104.906 1.50156 123.12 30.6102 2.89787 27.7123 122.523 1.32716 1.65398 26.9671
internal_count=9861 294 220 74 9567 8421 1146 3946 4475 85 3842 1106 65 4390 76 3746 3637 4314 64 96 3610 52 4276 1041 99 942 4255 45 56 917
is_linear=0
shrinkage=0.05


Tree=8
num_leaves=31
num_cat=0
split_feature=22 16 17 17 16 24 14 17 18 15 16 17 24 22 15 26 22 16 27 15 24 26 16 27 26 10 18 17 17 25
split_gain=3775.46 581.533 855.204 198.852 55.2191 34.661 34.6158 24.7015 39.1219 18.3433 14.4559 13.6328 47.6839 12.5278 0.0312926 0.0198062 0.00848599 0.0075085 0.00583075 0.00340359 0.00230321 0.00214397 0.00154229 0.00112346 0.00104924 0.000930013 0.000875984 0.00102408 0.00106414 0.000873501
threshold=3.0449999570846562 0.12499999627470972 20.840000152587894 22.659999847412113 0.014999999664723875 -7.8550000190734854 4.5750000476837167 21.680000305175785 121.70790100097658 4.0450000762939462 0.19500000029802325 21.139999389648441 1.5199999809265139 3.2999999523162846 4.0750000476837167 -0.20499999821186063 3.2050000429153447 -0.96500000357627858 -0.97499999403953541 3.4750000238418584 -5.0350000858306876 0.034999999217689044 -0.41499999165534968 0.50499999523162853 1.0000000180025095e-35 0.53144389390945446 119.39215087890626 23.470000267028812 22.429999351501468 -0.29029999673366541
decision_type=2 2 2 2 2 2 2 2 2 2 2 2 2 2 2 2 2 2 2 2 2 2 2 2 2 2 2 2 2 2
left_child=3 14 9 4 -1 6 -6 8 -4 13 -5 -7 -13 18 16 22 -2 -17 -3 -20 -19 -18 -16 -21 -14 -10 -9 28 29 -28
right_child=1 2 7 10 5 11 -8 26 25 -11 -12 12 24 -15 15 17 21 20 19 23 -22 -23 -24 -25 -26 -27 27 -29 -30 -31
leaf_value=-0.062623891919381669 -0.06258114404145397 0.072399524803855475 0.071665741836386146 0.0097178492626773805 0.070970434048972353 0.070982425916790326 -0.064016944755304298 -0.064223451200918713 -0.064571348096401623 -0.0024969546193796097 -0.063806485914201266 -0.064339348883179465 0.071618980698851586 0.0045906594523583404 -0.06171068172192723 -0.064046095018753343 -0.062973174615705826 -0.063435614056815345 0.07184877856284215 0.070980247082770606 -0.062618799690711269 -0.063644987241598339 -0.062331641085735356 0.071551748202017249 0.070970748066300479 -0.063723869966992183 -0.06424697551539453 -0.063659165113337038 -0.064302723554947025 -0.063633261759895948
leaf_weight=8.0078668892383558 27.216967850923538 8.3193306028842908 8.9791272580623644 8.6254846453666669 9.303244888782503 1230.3752347528934 9.7022918760776502 8.421402305364607 6.4913570880889875 9.2940798401832563 29.721037149429321 8.4265370368957502 9.3116185665130633 7.3013367950916281 64.844793200492859 9.3751363456249219 13.487294673919676 8.6980741620063764 12.640885114669798 204.01006752252579 1107.9218327701092 99.393852949142456 11.822664260864256 8.9777415096759778 18.938758611679077 6.4576093554496765 7.4505643248558036 214.3088353574276 12.962276935577391 26.138425290584564
leaf_count=25 85 25 27 26 28 3703 30 26 20 28 92 26 28 22 204 29 42 27 38 614 3459 308 37 27 57 20 23 664 40 81
internal_value=0.000522437 -0.045024 -0.00129631 0.0649416 0.0682666 0.0690817 0.00205962 -0.059566 -0.00853534 0.0664313 -0.0472683 0.070087 0.0400478 0.0690867 -0.0626664 -0.062584 -0.0633736 -0.062637 0.0710996 0.0710516 -0.0626252 -0.0635647 -0.0618064 0.0710043 0.0711844 -0.0641487 -0.0637215 -0.0637053 -0.0639179 -0.0637694
internal_weight=3216.93 1884.51 541.753 1332.41 1294.07 1286.06 19.0055 291.21 21.9281 250.543 38.3465 1267.05 36.6769 241.249 1342.76 1202.66 140.098 1126 233.948 225.629 1116.62 112.881 76.6675 212.988 28.2504 12.949 269.282 260.86 46.5513 33.589
internal_count=9861 5846 1655 4015 3897 3872 58 901 67 754 118 3814 111 726 4191 3756 435 3515 704 679 3486 350 241 641 85 40 834 808 144 104
is_linear=0
shrinkage=0.05


Tree=9
num_leaves=31
num_cat=0
split_feature=17 24 26 24 25 15 17 24 22 20 18 17 22 15 16 26 24 17 17 4 24 18 15 15 4 15 27 2 17 21
split_gain=2948.83 290.917 84.3733 76.9082 72.0356 64.4187 65.2391 44.8003 83.087 40.7077 36.9688 30.2387 78.5978 250.18 91.2387 28.2857 27.0892 9.12625 6.20051 5.79833 0.491333 0.104337 0.0948445 0.0590714 0.0294902 0.0143078 0.00927576 0.0163191 0.00251741 0.000815105
threshold=21.47500038146973 -7.2149999141693106 0.034999999217689044 4.8150000572204599 0.85385000705719005 4.1549999713897714 24.07499980926514 -5.2400000095367423 3.2050000429153447 4.1499998569488534 118.67029953002931 17.050000190734867 3.2050000429153447 3.8649998903274541 0.53499999642372142 -0.15500000119209287 -2.5399999618530269 14.904999732971193 21.680000305175785 0.031274082139134414 -8.3500003814697248 119.39215087890626 4.0350000858306894 3.5449999570846562 0.10441299155354501 4.0750000476837167 -0.33500000834465021 0.0053927786648273477 21.914999961853031 5.0999999046325692
decision_type=2 2 2 2 2 2 2 2 2 2 2 2 2 2 2 2 2 2 2 2 2 2 2 2 2 2 2 2 2 2
left_child=1 2 -1 7 -5 9 -7 8 -3 19 -11 29 15 -14 16 -13 -15 -10 -12 -2 25 -20 23 -23 26 -4 27 -25 -28 -9
right_child=5 3 20 4 -6 6 -8 11 17 10 18 12 13 14 -16 -17 -18 -19 21 -21 -22 22 -24 24 -26 -27 28 -29 -30 -31
leaf_value=-0.042957456378036427 -0.011911789106087685 -0.04307183956013555 0.16292835658309923 0.16290862000934975 -0.042984305577906973 -0.043102292846008639 0.17518372648551092 -0.04295940801003012 0.17021188432559009 -0.042957709932771697 0.1191538902564227 0.079111080351526294 0.16301837391311336 0.079454133788796538 0.17417976604013596 -0.042995406868865396 -0.043069219802918002 0.081527677647747876 0.17011176446503173 0.078970938415866027 0.18028524360791964 0.16725811896488466 0.16975736765529137 0.16301807927136489 0.16683363536667362 0.16594220782339142 0.16190473529110344 0.1665631357934452 0.16293109851442772 -0.043059444310006037
leaf_weight=5.9148405492305782 3.1336001753807059 17.845899835228924 9.9225128293037503 9.45081475377083 7.7170567363500586 8.2857567369937879 5.832274228334426 345.20713567733765 6.18303634226322 2.218141257762908 8.1259474456310254 4.8253414481878272 21.254294812679291 4.7467801421880713 5.4040242731571189 277.04551292955875 90.927102297544479 5.4650141596794128 5.9565185457468024 3.9892366826534271 6.5859645605087236 8.8117449879646284 5.7358371317386618 9.6825243681669217 5.11096167564392 6.5291979610919944 6.1696367263793936 4.8837005645036689 188.76175238192081 496.50108279287815
leaf_count=40 20 119 42 40 52 55 26 2334 27 15 39 27 90 23 24 1865 606 28 26 21 30 38 25 41 22 28 26 21 799 3312
internal_value=-0.000646331 -0.0312526 0.125495 -0.0347637 0.0703586 0.151012 0.0470734 -0.0361787 0.0247278 0.156822 0.160242 -0.0376205 -0.0263799 0.00708811 -0.0257003 -0.0409051 -0.0369903 0.128603 0.162095 0.0389883 0.168744 0.163579 0.163409 0.163246 0.163081 0.164124 0.16299 0.164207 0.162899 -0.0430184
internal_weight=1588.22 1321.53 28.9525 1292.57 17.1679 266.698 14.118 1275.41 29.494 252.58 245.457 1245.91 404.203 122.332 101.078 281.871 95.6739 11.6481 243.239 7.12284 23.0377 235.113 229.156 223.42 214.609 16.4517 209.498 14.5662 194.931 841.708
internal_count=9861 8687 140 8547 92 1174 81 8455 174 1093 1052 8281 2635 743 653 1892 629 55 1037 41 100 998 972 947 909 70 887 62 825 5646
is_linear=0
shrinkage=0.05


Tree=10
num_leaves=31
num_cat=0
split_feature=16 26 19 22 24 18 14 16 22 15 24 27 22 14 23 24 24 14 19 14 27 26 26 15 26 18 25 20 16 24
split_gain=4842.55 376.959 110.001 136.72 66.6167 54.0276 13.9304 9.98825 0.0744169 0.0109968 0.00987901 0.00728503 0.00648697 0.0085406 0.00584055 0.00350761 0.00326264 0.00321169 0.00310731 0.00460084 0.00256151 0.00247925 0.00150057 0.00247311 0.00145734 0.00182796 0.00138926 0.00135941 0.00467938 0.00108867
threshold=-0.11999999731779097 -0.21499999612569806 314.39700317382818 3.4550000429153447 -5.0350000858306876 121.02470016479494 3.7549999952316289 -0.17500000447034833 3.185000061988831 3.9150000810623173 3.0149999856948857 0.54500001668930065 2.8750000000000004 4.055000066757203 112.74000167846681 2.1950000524520878 -7.8550000190734854 4.5750000476837167 318.28250122070318 4.3849999904632577 -0.87499999999999989 -0.18500000238418576 0.064999999478459372 3.8850001096725468 -0.1649999991059303 128.10435485839847 1.9295999407768252 4.1499998569488534 0.24499999731779101 5.6899998188018808
decision_type=2 2 2 2 2 2 2 2 2 2 2 2 2 2 2 2 2 2 2 2 2 2 2 2 2 2 2 2 2 2
left_child=1 5 3 -2 7 -1 -6 -3 10 27 14 15 -12 29 16 -11 17 -4 -15 22 -18 -8 -20 -24 25 -22 -23 28 -10 -14
right_child=2 4 8 -5 6 -7 21 -9 9 11 12 -13 13 18 -16 -17 20 -19 19 -21 24 26 23 -25 -26 -27 -28 -29 -30 -31
leaf_value=-0.055287687626491028 0.083732247955342176 0.020287840004459379 -0.055439509904484131 -0.056565745600517817 0.021082578866804463 0.083671192824567892 0.084370720624615758 -0.05722457597265275 -0.056568410197269083 -0.055400187794763148 -0.055384801100012704 -0.056665290592967023 -0.055292212311885393 -0.057291883058583251 -0.056570480585660422 -0.056302912069582392 -0.056212884793483291 -0.056809747093730968 -0.056634824138890039 -0.055382319771993108 -0.056547267174056261 0.083657138017608851 -0.055435243266925872 -0.056570480585660422 -0.055448496252743722 -0.055439452467805045 0.084180065679320015 -0.05662534390632934 -0.055437230160429174 -0.055968173803434343
leaf_weight=60.227378189563751 32.310978174209595 8.5072593688964862 8.171464145183565 37.53940150141716 8.9589478969573957 7.9140798151493064 12.50883489847183 8.1259120106697065 46.479464501142502 47.239648669958115 43.726199448108673 22.082136005163193 26.76846906542778 8.4416096806526166 12.216189473867415 13.934980183839796 11.248005568981169 8.971640080213545 39.669373363256454 11.95177125930786 6.841177135705947 1136.3653480112553 8.1707780063152331 11.620277792215346 1170.1521092355251 8.1714545488357526 12.844679832458494 175.65167918801308 11.381170660257338 7.6613295078277579
leaf_count=207 98 27 28 126 28 24 38 27 156 162 150 74 92 28 41 47 38 30 133 41 23 3446 28 39 4009 28 39 589 39 26
internal_value=0.000102707 0.0752163 -0.053163 0.00833248 0.0817799 -0.0391487 0.0831916 -0.0175798 -0.0556889 -0.0563802 -0.0555306 -0.0558868 -0.0559027 -0.0561009 -0.0554827 -0.0556058 -0.0554717 -0.0561566 -0.0563847 -0.0562775 -0.0554619 0.0836706 -0.0564574 -0.0561018 -0.0554548 -0.0559443 0.083663 -0.0565561 -0.0563459 -0.0554426
internal_weight=3025.85 1255.45 1770.4 69.8504 1187.31 68.1415 1170.68 16.6332 1700.55 316.769 1383.78 83.2568 158.01 114.284 1225.77 61.1746 1213.56 17.1431 79.8538 71.4122 1196.41 1161.72 59.4604 19.7911 1185.16 15.0126 1149.21 233.512 57.8606 34.4298
internal_count=9861 3836 6025 224 3605 231 3551 54 5801 1067 4734 283 537 387 4197 209 4156 58 269 241 4098 3523 200 67 4060 51 3485 784 195 118
is_linear=0
shrinkage=0.05


Tree=11
num_leaves=31
num_cat=0
split_feature=26 22 19 22 27 15 12 22 15 22 19 24 24 27 15 15 24 27 24 18 15 24 16 18 22 22 27 15 27 23
split_gain=984.246 35.6146 37.6337 7.59968 0.240042 0.000304516 0.000280564 6.36832e-06 1.42089e-06 1.72494e-06 9.87412e-07 5.76722e-07 5.68695e-07 5.46218e-07 4.40853e-07 3.28329e-07 3.11737e-07 2.98051e-07 2.88943e-07 3.33577e-07 2.86233e-07 2.62353e-07 2.67881e-07 2.0248e-07 1.74654e-07 1.4736e-07 2.6981e-07 1.41e-07 1.28416e-07 1.97741e-07
threshold=-0.18500000238418576 3.8799999952316289 310.33250427246099 4.3900001049041757 -0.28499999642372126 4.9249999523162851 0.21448615938425067 3.0449999570846562 3.9150000810623173 3.1550000905990605 328.87649536132818 3.6749999523162846 -5.0350000858306876 0.24499999731779101 3.5449999570846562 3.9850000143051152 -7.8550000190734854 0.55500000715255748 4.0950000286102304 127.27545166015626 4.2950000762939462 5.0300002098083505 -0.96500000357627858 121.43239974975587 3.2050000429153447 3.2350000143051152 0.15500000119209292 3.8249999284744267 -0.63499999046325672 67.415000915527358
decision_type=2 2 2 2 2 2 2 2 2 2 2 2 2 2 2 2 2 2 2 2 2 2 2 2 2 2 2 2 2 2
left_child=1 2 -1 4 6 -4 -3 11 9 10 -9 16 24 18 23 17 20 -14 19 -13 -2 22 -17 -11 -10 26 27 -16 -24 -30
right_child=7 3 5 -5 -6 -7 -8 8 12 14 -12 13 15 -15 25 21 -18 -19 -20 -21 -22 -23 28 -25 -26 -27 -28 -29 29 -31
leaf_value=0.23704237605488407 -0.038303692198222383 0.23690629356331169 -0.038327276099259018 0.31268292802953751 0.22446490540198025 -0.039580030775304871 0.23738227677908399 -0.03830562100951198 -0.038318405335542351 -0.038298150206096289 -0.038342061889070404 -0.038350148789715807 -0.038305415815769107 -0.038342736689008068 -0.038337949396229337 -0.038346059277365251 -0.038303870873756592 -0.038338514651385588 -0.038301375625034731 -0.038303690039861504 -0.038345678346588731 -0.038338437860520852 -0.038338326934372016 -0.038333393640604875 -0.038341258404716687 -0.038339629422519214 -0.038338571425276267 -0.038311540726411047 -0.038300898944836709 -0.038317742410017806
leaf_weight=2.4858857393264762 0.76689549908041843 24.337514773011208 1.8011869769543412 3.5124939680099478 4.452557027339938 0.66387586295604695 3.5471343696117392 9.3599976245313865 1.1144108921289433 1.0882045235484863 2.3195988535881034 0.80909233540296444 8.2055774983018601 1.8341742120683191 0.68413480743766131 0.83353078365325828 101.79774616099894 0.74162231013178903 3.0042773969471455 0.73950484022498131 0.86240880750119686 1.568679193034767 0.74146523140370746 0.65153833664953698 3.3470515217632055 19.13468611612916 4.5641306713223457 1.9350236114114521 1.7742400430142868 97.409724339842796
leaf_count=14 28 137 64 25 24 10 20 341 40 40 81 28 299 64 24 29 3716 26 110 27 30 55 26 23 117 670 160 70 65 3498
internal_value=-0.00315235 0.225473 0.0997686 0.242833 0.235245 -0.0386647 0.236967 -0.0383143 -0.0383208 -0.038329 -0.0383129 -0.0383051 -0.038318 -0.0383197 -0.0383357 -0.0383173 -0.0383042 -0.0383082 -0.0383104 -0.038328 -0.0383259 -0.0383181 -0.0383178 -0.0383113 -0.0383356 -0.0383373 -0.0383312 -0.0383184 -0.0383176 -0.0383174
internal_weight=306.088 40.8006 4.95095 35.8497 32.3372 2.46506 27.8846 265.288 155.474 39.7373 11.6796 109.814 115.736 6.38705 28.0577 111.275 103.427 8.9472 4.55287 1.5486 1.6293 102.328 100.759 1.73974 4.46146 26.318 7.18329 2.61916 99.9254 99.184
internal_count=9861 294 88 206 181 74 157 9567 5564 1409 422 4003 4155 229 987 3998 3774 325 165 55 58 3673 3618 63 157 924 254 94 3589 3563
is_linear=0
shrinkage=0.05


Tree=12
num_leaves=31
num_cat=0
split_feature=22 16 17 17 16 24 20 17 18 15 16 17 24 22 15 22 26 18 16 16 14 26 25 26 4 17 18 16 14 22
split_gain=3352.43 519.872 765.094 176.929 48.6166 30.6756 30.926 22.5432 35.7791 16.4717 13.1495 12.1481 43.0656 11.022 0.0495266 0.0163863 0.00605634 0.00600837 0.00940257 0.00509939 0.00426668 0.00306996 0.00260768 0.00229962 0.00191854 0.001325 0.0028606 0.00124835 0.00144447 0.00108741
threshold=3.0449999570846562 0.12499999627470972 20.840000152587894 22.659999847412113 0.014999999664723875 -7.8550000190734854 4.1499998569488534 21.680000305175785 121.70790100097658 4.0450000762939462 0.19500000029802325 21.139999389648441 1.5199999809265139 3.2999999523162846 4.1349999904632577 3.2849999666213994 -0.064999999478459344 117.56615066528322 -0.93500000238418568 0.46500000357627874 3.7849999666213994 -0.20499999821186063 -1.7589499950408933 1.0000000180025095e-35 -0.0073852546047419301 19.845000267028812 121.90570068359376 0.054999999701976783 3.6550000905990605 4.310000181198121
decision_type=2 2 2 2 2 2 2 2 2 2 2 2 2 2 2 2 2 2 2 2 2 2 2 2 2 2 2 2 2 2
left_child=3 14 9 4 -1 6 -6 8 -4 13 -5 -7 -13 16 15 20 19 18 -16 -3 -2 29 -23 -14 -10 -18 -27 -17 -29 -19
right_child=1 2 7 10 5 11 -8 -9 24 -11 -12 12 23 -15 17 27 25 21 -20 -21 -22 22 -24 -25 -26 26 -28 28 -30 -31
leaf_value=-0.059870930143604832 -0.061193184747602117 0.067117732475538955 0.068636638802007544 0.0090186994960541368 -0.061451099258999602 0.067128469182126727 0.067118419169111612 -0.061243423362552063 -0.062564582738858218 -0.0025894893947188821 -0.061311179438641429 -0.062271525943671052 0.068081892690887907 0.0048230650132437391 -0.062017824622127175 -0.061178637126941861 0.06711428057133717 -0.059608203806869833 -0.059864667829429376 0.068642846856396197 -0.059951203938394149 -0.060729806699740166 -0.059866177879517472 0.067117927374679864 -0.061337232489453566 0.067186751457657234 0.068288297339744244 -0.061190418206052838 -0.062125524424803007 -0.058992366523745933
leaf_weight=7.8012116253375998 8.225468695163725 9.2046074867248553 8.9171978235244769 8.6101771593093854 9.509228467941286 1217.35670748353 9.2046324014663679 263.96190360188484 6.4014593362808228 9.269062012434004 29.135925948619843 8.2975075840949994 9.2366790175437945 7.2930382192134848 8.269929379224779 73.065601199865341 177.84368816018105 66.886046141386032 13.105103969573973 13.548311233520506 43.408814817667007 8.8130575418472272 1062.7777817845345 18.737965613603592 6.3349399268627149 23.017607569694523 7.9222775697708121 8.2252520918846148 8.2941612005233747 8.0284860134124738
leaf_count=25 26 28 27 26 30 3703 28 834 20 28 92 26 28 22 26 231 541 215 42 41 139 28 3406 57 20 70 24 26 26 26
internal_value=0.000529648 -0.0430172 -0.00142524 0.0614215 0.0645673 0.0653303 0.00178733 -0.0572201 -0.00817535 0.0628068 -0.0452684 0.0662789 0.0377647 0.0653449 -0.0599741 -0.0608585 0.0672512 -0.0598671 -0.0606977 0.0680259 -0.0601491 -0.0598516 -0.0598733 0.0674362 -0.0619541 0.0671668 0.0674688 -0.0612674 -0.0616599 -0.0595422
internal_weight=3160.7 1842.81 533.714 1317.89 1280.14 1272.34 18.7139 285.616 21.6536 248.099 37.7461 1253.63 36.2722 238.83 1309.1 141.219 231.536 1167.88 21.375 22.7529 51.6343 1146.51 1071.59 27.9746 12.7364 208.784 30.9399 89.585 16.5194 74.9145
internal_count=9861 5846 1655 4015 3897 3872 58 901 67 754 118 3814 111 726 4191 448 704 3743 68 69 165 3675 3434 85 40 635 94 283 52 241
is_linear=0
shrinkage=0.05


Tree=13
num_leaves=31
num_cat=0
split_feature=17 14 17 22 14 15 21 27 14 20 25 18 17 14 22 25 15 26 2 4 10 17 17 25 18 16 27 2 15 22
split_gain=2443.04 321.71 106.818 119.738 79.8153 44.4086 52.5728 35.6205 154.619 28.2784 26.7728 25.9746 52.1185 20.9857 15.9228 31.1465 15.1043 16.6542 9.27643 4.77707 3.14253 0.536149 0.23727 0.105413 0.0630894 0.0434002 0.0163445 0.0245881 0.00332174 0.00180419
threshold=21.47500038146973 3.7050000429153447 19.845000267028812 3.1750000715255742 4.8350000381469735 4.1549999713897714 4.5599999427795419 0.11499999836087228 3.9650000333786015 4.1499998569488534 1.2457500100135805 128.31544494628909 16.125000000000004 3.8449999094009404 3.245000004768372 -0.83739998936653126 3.5449999570846562 0.034999999217689044 0.00073005841113626968 0.031274082139134414 0.81060603260993969 21.739999771118168 20.659999847412113 -0.65649998188018788 119.46775054931642 0.085000000894069686 -0.33500000834465021 0.0053927786648273477 4.0150001049041757 3.0449999570846562
decision_type=2 2 2 2 2 2 2 2 2 2 2 2 2 2 2 2 2 2 2 2 2 2 2 2 2 2 2 2 2 2
left_child=1 25 7 10 14 9 -7 29 13 19 -4 -10 18 20 15 -5 17 -11 -13 -2 -9 -18 -16 -15 -23 -1 27 -26 -28 -3
right_child=5 2 3 4 -6 6 -8 8 11 16 -12 12 -14 23 22 -17 21 -19 -20 -21 -22 24 -24 -25 26 -27 28 -29 -30 -31
leaf_value=0.13794646744919353 -0.011273574450682621 -0.042611587548077569 -0.042699633803721868 0.16357657822861527 -0.042745352198709535 0.14848957156752127 -0.04281664344958519 0.066552086900301941 -0.042702360194495088 0.14250520802740194 0.08277830044964414 0.14071594746810015 -0.042606908619590787 0.14638158376503554 0.14803535684984365 -0.043116803081620796 0.15021624746163667 0.033850800263024915 0.041937047512745566 0.070611225030071514 0.0015066048967817191 0.14289107716338503 0.13764110595546433 0.13776146845856338 0.13801840041385269 0.14263716826295109 0.1378839002268579 0.14153595294934504 0.13678941977946829 -0.042750124103989123
leaf_weight=20.850217729806904 3.0754896104335776 428.71893464028835 49.54141591489315 3.5333480536937714 9.760584890842436 6.5437418818473798 7.959345668554306 4.3629638999700573 153.98392200469971 6.7206229567527753 4.6501043736934653 5.9914514422416705 17.019757121801376 6.6042171865701684 8.8225936889648455 3.7644519656896618 9.4887746125459653 7.4208232164382935 3.9396569132804871 4.2320843786001205 3.2327418178319931 6.7088306844234458 14.536108136177061 7.6602860689163181 13.719592213630678 6.4587949514389029 214.89747473597527 7.7882183194160453 7.1635966002941123 520.14739567041397
leaf_count=79 20 3046 348 15 68 26 55 22 1080 26 25 23 121 26 35 25 38 39 21 21 20 26 55 29 52 25 814 30 27 3624
internal_value=-0.000645453 -0.0307068 -0.0344268 0.0166453 0.0817789 0.128821 0.0435 -0.0386223 -0.0196014 0.133221 -0.0319325 -0.0347768 0.0105062 0.106004 0.121426 0.0569571 0.135811 0.085488 0.10153 0.0361489 0.0388686 0.13855 0.141567 0.141752 0.138108 0.139056 0.137976 0.139292 0.137849 -0.0426875
internal_weight=1569.3 1273.58 1246.27 94.6086 40.4171 295.719 14.5031 1151.66 202.795 281.216 54.1915 180.935 26.9509 21.8602 30.6565 7.2978 273.908 14.1414 9.93111 7.30757 7.59571 259.766 23.3587 14.2645 250.278 27.309 243.569 21.5078 222.061 948.866
internal_count=9861 8687 8583 571 198 1174 81 8012 1342 1093 373 1245 165 97 130 40 1052 65 44 41 42 987 90 55 949 104 923 82 841 6670
is_linear=0
shrinkage=0.05


Tree=14
num_leaves=31
num_cat=0
split_feature=16 26 19 22 24 22 14 24 17 22 22 14 24 15 24 14 15 16 15 17 17 2 25 24 14 14 17 2 16 22
split_gain=4286.15 327.933 100.339 121.736 57.2874 48.708 12.3134 9.76438 0.177 0.0282213 0.0120424 0.00885778 0.011959 0.00626042 0.00477876 0.00441219 0.00310672 0.00217322 0.00216123 0.00192214 0.00157325 0.00123232 0.000996431 0.000802631 0.00611613 0.000810073 0.000728547 0.00112893 0.000538346 0.000458735
threshold=-0.11999999731779097 -0.21499999612569806 314.39700317382818 3.4550000429153447 -5.0350000858306876 3.8449999094009404 3.7549999952316289 -6.0950000286102286 21.139999389648441 3.245000004768372 2.8750000000000004 4.055000066757203 6.2350001335144052 3.935000061988831 -7.8550000190734854 4.5750000476837167 4.0350000858306894 0.66500002145767223 3.5449999570846562 11.964999675750734 21.625000000000004 -0.0045760443899780503 1.9295999407768252 -4.8350000381469718 4.4849998950958261 3.7350000143051152 21.82499980926514 0.00220876990351826 0.085000000894069686 4.310000181198121
decision_type=2 2 2 2 2 2 2 2 2 2 2 2 2 2 2 2 2 2 2 2 2 2 2 2 2 2 2 2 2 2
left_child=1 5 3 -2 7 -1 -6 -3 9 14 -10 12 -12 28 15 -4 17 18 -13 -8 -20 -15 -21 24 -16 -25 27 -22 -11 -7
right_child=2 4 8 -5 6 29 19 -9 10 13 11 16 -14 21 23 -17 -18 -19 20 22 26 -23 -24 25 -26 -27 -28 -29 -30 -31
leaf_value=0.077618318058205141 0.07766291768197385 0.020703359224619848 -0.053688634742634446 -0.055180596201793553 0.01901138303433722 -0.054035260103333371 0.078239699922183714 -0.056372688902102688 -0.053432698768041555 -0.055131919950343361 -0.053288490079937384 -0.055859072662702763 -0.055290264257959222 -0.054581877628284273 -0.053668729505302271 -0.055321524471328598 -0.055993642085573482 -0.054309815660392863 -0.05445827985155114 0.077598113956207221 -0.056042902650426607 -0.053643286235184565 0.078038676160866849 -0.054116431152479827 -0.055174242792652144 -0.053680860712614686 -0.05515199434604745 -0.055060295686468919 -0.055609034522837344 -0.053611285579941437
leaf_weight=7.9908964633941642 32.62776717543602 8.4454364776611346 7.8627329468727138 36.580166220664978 9.0340219736099225 51.251256912946701 11.977490365505217 8.0028386712074262 11.157523989677427 30.744629085063934 15.007920712232591 11.172566950321196 14.837606668472288 5.7293317615985861 48.554944753646851 8.730440288782118 11.501141935586928 7.4024428427219382 7.9936205446720114 1148.0443458557129 5.9011413156986219 8.9758863747119886 12.979421466588972 10.772483527660368 7.8345105648040763 1173.56347194314 239.66842943429947 5.7923227250576019 7.3199451565742484 7.2871677279472342
leaf_count=24 98 27 28 126 28 181 36 27 40 106 54 38 51 20 173 30 39 26 28 3448 20 32 39 38 27 4180 826 20 25 26
internal_value=9.99128e-05 0.0698742 -0.0515254 0.00744788 0.0758722 -0.0381758 0.0771617 -0.0167977 -0.0540132 -0.0537524 -0.0550474 -0.0551038 -0.0542837 -0.0548852 -0.0537049 -0.0545478 -0.0551884 -0.055155 -0.0551782 0.0776095 -0.0551488 -0.054009 0.077603 -0.0536936 -0.0538779 -0.0536848 -0.0551708 -0.0555562 -0.0552237 -0.0539825
internal_weight=2974.74 1265.01 1709.73 69.2079 1198.48 66.5293 1182.04 16.4483 1640.52 1310.09 330.435 319.277 29.8455 52.7698 1257.32 16.5932 289.432 277.931 270.528 1173 259.356 14.7052 1161.02 1240.73 56.3895 1184.34 251.362 11.6935 38.0646 58.5384
internal_count=9861 3836 6025 224 3605 231 3551 54 5801 4659 1142 1102 105 183 4476 58 997 958 932 3523 894 52 3487 4418 200 4218 866 40 131 207
is_linear=0
shrinkage=0.05


Tree=15
num_leaves=31
num_cat=0
split_feature=22 17 18 18 18 17 27 18 3 12 17 17 19 15 22 14 17 18 24 24 27 14 16 14 14 15 15 22 27 17
split_gain=416.224 297.37 57.0028 11.8391 20.2511 5.06707 2.09041 2.17632 1.99448 0.000179513 0.000176977 1.31964e-05 7.03389e-06 1.50613e-06 1.25037e-06 1.14365e-06 9.42468e-07 8.9216e-07 7.80953e-07 5.1435e-07 5.12669e-07 4.6661e-07 4.51083e-07 4.43282e-07 1.22441e-06 3.8049e-07 2.84651e-07 2.73709e-07 4.62826e-07 2.64984e-07
threshold=3.8449999094009404 14.315000057220461 118.72624969482423 120.81985092163087 121.05059814453126 14.175000190734865 -0.28499999642372126 119.13080215454103 -0.020023302175104615 0.20850485563278201 11.964999675750734 21.139999389648441 315.18150329589849 4.7349998950958261 2.8750000000000004 3.7250000238418584 12.84500026702881 118.67029953002931 -2.8499999046325679 -7.8550000190734854 -0.97499999403953541 4.5750000476837167 -0.96500000357627858 4.055000066757203 4.0250000953674325 3.745000004768372 4.0350000858306894 3.245000004768372 -0.43500000238418574 19.845000267028812
decision_type=2 2 2 2 2 2 2 2 2 2 2 2 2 2 2 2 2 2 2 2 2 2 2 2 2 2 2 2 2 2
left_child=10 2 22 5 -5 6 9 -8 -9 16 -1 12 15 -3 -13 -12 -4 -16 -17 21 -21 -14 -2 24 -19 -20 -25 -22 -29 -27
right_child=1 13 3 4 -6 -7 7 8 -10 -11 11 14 19 -15 17 18 -18 23 25 20 27 -23 -24 26 -26 29 -28 28 -30 -31
leaf_value=-0.038853589424088453 -0.038322522625298533 -0.038309521241330781 0.1861917254122786 0.18618162085982129 -0.038279238319004233 0.23345463543101969 0.17871566901948466 0.17536076143792551 0.097491976235418207 0.18653561919454409 -0.038312116175562891 -0.03825228124430162 -0.03826099865031761 -0.038280178761844849 -0.038254617873355178 -0.03830527805448164 0.18621256900830629 -0.038312001162529169 -0.038261009193460316 -0.038296452313229305 -0.038260723220533338 -0.038315798768533707 -0.03827942240823351 -0.038311344716049238 -0.038247393430386342 -0.038279380939324828 -0.038337304648176175 -0.038313480664620113 -0.038259784773996955 -0.038309371131879696
leaf_weight=1.3261507526040066 0.81032535992562804 5.4607305936515358 7.7203778773546246 2.5735637396574012 1.6485464014112947 5.0212277621030799 5.3049787282943743 1.3449219167232516 2.1162726934999228 4.9256582111120215 2.8769089691340914 1.0279156938195253 0.72777836024761089 21.960994858294725 0.74764141440391796 2.9353510811924926 18.227144047617912 2.5998379830271037 2.8331790752708903 1.0306587945669878 110.68731415271759 0.8331175334751606 2.4202063623815766 21.38788324221969 1.0214422456920145 68.852506143972278 1.110798468813299 0.66495905816555012 1.0121316891163576 0.74451272003352542
leaf_count=36 29 198 36 12 62 28 24 6 35 23 104 40 28 825 29 107 85 94 109 38 4260 30 91 774 40 2589 39 24 39 27
internal_value=-0.00317388 0.0949942 0.165126 0.178569 0.0985396 0.186135 0.180141 0.158592 0.12775 0.186259 -0.0382777 -0.0382743 -0.0382696 -0.038286 -0.0383064 -0.0382812 0.186206 -0.0383085 -0.03828 -0.0382617 -0.0382613 -0.0382902 -0.0382902 -0.03831 -0.0382938 -0.038279 -0.0383126 -0.038261 -0.0382811 -0.0382797
internal_weight=301.955 79.5349 52.1132 48.8827 4.22211 44.6606 39.6394 8.76617 3.46119 30.8732 222.42 221.094 193.198 27.4217 27.8955 78.2425 25.9475 26.8676 75.3655 114.956 113.395 1.5609 3.23053 26.12 3.62128 72.4302 22.4987 112.364 1.67709 69.597
internal_count=9861 1454 431 311 74 237 209 65 41 144 8407 8371 7355 1023 1016 2936 121 976 2832 4419 4361 58 120 947 134 2725 813 4323 63 2616
is_linear=0
shrinkage=0.05


Tree=16
num_leaves=31
num_cat=0
split_feature=22 16 17 17 16 17 18 15 16 14 17 16 15 26 17 2 16 22 22 16 18 26 16 25 9 23 18 4 15 23
split_gain=2991.35 466.566 686.486 158.903 43.0537 20.6928 32.4262 14.8523 12.0709 10.33 10.1221 11.8224 27.2837 7.42165 29.7709 10.6615 0.0621173 0.0450344 0.0256765 0.00802025 0.0125028 0.00433684 0.00370154 0.00314869 0.00444795 0.0017276 0.00271346 0.00162803 0.00161985 0.00526765
threshold=3.0449999570846562 0.12499999627470972 20.840000152587894 22.659999847412113 0.014999999664723875 21.680000305175785 121.70790100097658 4.0450000762939462 0.19500000029802325 4.5050001144409189 21.139999389648441 0.28499999642372137 3.5349999666213994 0.21499999612569812 16.035000801086429 0.0014066497678868475 -0.11999999731779097 3.2649999856948857 3.2050000429153447 -0.98500001430511464 119.32750320434572 -0.064999999478459344 0.46500000357627874 -1.8475000262260435 62.104373931884773 69.61999893188478 122.76934814453126 -0.0073852546047419301 4.0750000476837167 75.740001678466811
decision_type=2 2 2 2 2 2 2 2 2 2 2 2 2 2 2 2 2 2 2 2 2 2 2 2 2 2 2 2 2 2
left_child=3 16 7 4 -1 6 -4 9 -5 17 13 -12 -13 -6 15 -15 19 21 -18 20 -2 22 -3 24 -21 26 -20 -8 29 -25
right_child=1 2 5 8 10 -7 27 -9 -10 -11 11 12 -14 14 -16 -17 18 -19 25 23 -22 -23 -24 28 -26 -27 -28 -29 -30 -31
leaf_value=-0.057512940377227928 -0.059921739242073391 0.063844540980639214 0.065677432226312296 0.0083840772467869158 0.063855872230383762 -0.059050821928256947 -0.06024597639555293 -0.0025425947976942045 -0.059252187350599908 0.0078783739156225701 0.06421602444833284 0.064616088817219822 -0.06036163455585225 -0.05928350738951637 0.063844776767987846 0.028601390938480617 -0.057486021852676976 0.067030018987789861 -0.060298575845078542 -0.059231727581210425 -0.057595529954817148 0.063890041531217689 0.065154388335955563 -0.057301428799636234 -0.057578825990193365 -0.059083322868117995 -0.059003465168943309 -0.059102316656237157 -0.057509710430909133 -0.058928140718447056
leaf_weight=7.5629249215126029 9.0230284035205859 9.0483864545822161 8.810086667537691 8.5836480855941755 1148.5792763829231 257.70611554384232 6.2643562853336334 9.2314365208148939 28.496208906173706 8.4637444019317609 18.136065602302551 9.4168139696121234 8.1433360576629621 7.4326714575290662 52.674616694450378 6.4415930211544037 29.634060174226761 12.714689135551451 8.148638069629671 6.4950998723506954 16.052987366914749 191.36186826229095 13.353433609008787 12.36249163746834 10.901392847299574 71.098125964403152 8.0296528935432416 6.1832889020442945 1090.2097024917603 8.3299037218093854
leaf_count=25 29 28 27 26 3554 834 20 28 92 26 56 29 26 24 163 20 98 39 26 21 53 592 41 41 36 230 26 20 3604 27
internal_value=0.000525632 -0.0412935 -0.00155345 0.0584193 0.0614252 -0.0551397 -0.00772543 0.0596679 -0.043595 0.0621123 0.0621444 0.0359018 0.00665898 0.0629153 0.0466815 -0.01848 -0.0576595 0.0641391 -0.0587577 -0.0575481 -0.0584326 0.0639671 0.0646253 -0.0575285 -0.0581959 -0.0591894 -0.0596558 -0.0596779 -0.057518 -0.0579563
internal_weight=3088.89 1793.42 523.137 1295.47 1258.39 278.964 21.2577 244.174 37.0799 234.942 1250.82 35.6962 17.5602 1215.13 66.5489 13.8743 1270.29 226.478 116.91 1153.37 25.076 213.764 22.4018 1128.3 17.3965 87.2764 16.1783 12.4476 1110.9 20.6924
internal_count=9861 5846 1655 4015 3897 901 67 754 118 726 3872 111 55 3761 207 44 4191 700 380 3811 82 661 69 3729 57 282 52 40 3672 68
is_linear=0
shrinkage=0.05


Tree=17
num_leaves=31
num_cat=0
split_feature=17 14 24 17 22 16 26 26 15 21 24 14 18 20 11 17 25 22 23 3 18 15 17 17 27 24 22 26 17 25
split_gain=2068.83 277.607 240.734 69.5501 87.8481 71.7063 50.6712 41.3317 32.2622 43.6696 23.9584 60.3294 21.6109 21.4283 9.70622 3.42272 0.349819 0.179217 0.102963 0.0376031 0.0359073 0.0324246 0.0272634 0.0221483 0.0121043 0.0217245 0.00248844 0.00102732 0.000900588 0.000893152
threshold=21.47500038146973 3.7050000429153447 -7.2149999141693106 19.845000267028812 3.245000004768372 -0.11999999731779097 0.034999999217689044 -0.15500000119209287 4.1549999713897714 4.5599999427795419 -5.2400000095367423 3.995000004768372 118.67029953002931 4.1499998569488534 0.48701860010623937 21.680000305175785 -0.86325001716613758 3.3149999380111699 59.344999313354499 0.016142586246132854 119.39215087890626 4.0350000858306894 17.105000495910648 15.944999694824221 -0.33500000834465021 -1.1950000524520872 3.0749999284744267 -0.15500000119209287 21.914999961853031 -0.25559999048709864
decision_type=2 2 2 2 2 2 2 2 2 2 2 2 2 2 2 2 2 2 2 2 2 2 2 2 2 2 2 2 2 2
left_child=1 22 6 10 7 -6 -3 -5 12 -10 11 -4 -2 14 -14 -15 -8 -7 -17 -18 -20 24 -1 -21 25 -22 -12 -26 -29 -13
right_child=8 2 3 4 5 17 16 -9 9 -11 26 29 13 15 -16 18 19 -19 20 23 21 -23 -24 -25 27 -27 -28 28 -30 -31
leaf_value=0.1235498113147014 -0.042653899237261844 -0.042273257765996261 0.12532916057474289 0.14734450941086327 -0.042432988295652646 0.11953269014791844 0.13507419848739408 -0.042405100156448383 0.12955157424832561 -0.042542405579658965 -0.042284312768681803 -0.043056832077549581 -0.028956075474946264 0.090068691420940317 0.085609556684420371 0.12523965039859028 0.12581820714632549 0.128712410736045 0.12374065124586014 0.12342593348166775 0.12332014927016277 0.12353807092641406 0.12003515915537857 0.11945378999603505 0.11944870866932644 0.1198943907115724 -0.042439036904627463 0.11948324542123878 0.12004143616062256 -0.042306806385708974
leaf_weight=7.3274252414703396 2.1246132999658576 5.3421168327331534 7.5455399155616787 3.0357198715209952 9.3149812817573565 11.482658416032793 7.4828620105981853 52.527657642960548 7.129152834415434 7.6331766843795776 474.3414376527071 5.7907429635524812 3.3813117146491996 9.5654039531946164 4.0789864957332611 10.905785143375395 5.8532914519310024 9.9018678367137891 7.3199874758720389 5.9216046929359427 7.897856384515765 7.0450991392135611 22.340174436569214 8.6149777472019178 8.0409454703330976 11.177230179309843 574.73181253671646 7.465381294488906 225.40022701025009 12.619133219122881
leaf_count=26 15 40 27 12 68 40 28 386 26 55 3546 39 22 39 19 39 21 36 26 21 28 25 78 30 28 39 4195 26 787 94
internal_value=-0.00062138 -0.0301803 -0.0339327 -0.0377288 0.00546747 0.0733492 0.0987912 -0.0320381 0.112753 0.0405667 -0.041195 0.00625958 0.116254 0.117371 0.0336837 0.119489 0.125828 0.123783 0.120475 0.122434 0.120286 0.120191 0.120903 0.121072 0.1201 0.121313 -0.0423691 0.120004 0.120024 -0.0425427
internal_weight=1543.34 1224.17 1194.51 1161.29 86.2629 30.6995 33.2149 55.5634 319.165 14.7623 1075.03 25.9554 304.403 302.278 7.4603 294.818 27.8727 21.3845 285.253 20.3899 274.347 267.027 29.6676 14.5366 259.982 19.0751 1049.07 240.907 232.866 18.4099
internal_count=9861 8687 8583 8443 542 144 140 398 1174 81 7901 160 1093 1078 41 1037 100 76 998 72 959 933 104 51 908 67 7741 841 813 133
is_linear=0
shrinkage=0.05


Tree=18
num_leaves=31
num_cat=0
split_feature=19 26 15 18 18 24 26 24 17 24 18 25 22 3 22 18 15 24 27 15 25 15 20 15 17 2 25 15 15 24
split_gain=3817.84 271.002 147.332 120.1 44.0874 9.24807 7.11007 8.9438 0.223478 0.0449322 0.0453774 0.0765267 0.0362411 0.0190914 0.0148503 0.0112134 0.00815869 0.00695762 0.00700034 0.0063319 0.00477364 0.00401453 0.00647431 0.0110657 0.00351882 0.00160271 0.00150691 0.00321017 0.00122636 0.0011362
threshold=314.39700317382818 -0.21499999612569806 4.1349999904632577 122.38425064086915 121.02470016479494 -1.9449999928474424 -0.18500000238418576 0.32500000298023229 21.139999389648441 -3.7300000190734859 117.56615066528322 -1.7088999748229978 3.245000004768372 0.048269184306263931 2.8750000000000004 118.67029953002931 3.935000061988831 -7.8550000190734854 -0.97499999403953541 4.2950000762939462 -0.65649998188018788 4.0350000858306894 4.1499998569488534 3.935000061988831 21.625000000000004 -0.0045760443899780503 1.0225499868392947 3.554999947547913 3.5449999570846562 -3.6400001049041744
decision_type=2 2 2 2 2 2 2 2 2 2 2 2 2 2 2 2 2 2 2 2 2 2 2 2 2 2 2 2 2 2
left_child=1 4 3 5 -1 -3 7 -4 12 13 11 -11 17 -8 -10 -16 29 19 -19 -2 -5 22 23 -17 -24 -18 28 -28 -26 -14
right_child=8 2 6 20 -6 -7 9 -9 14 10 -12 -13 16 -15 15 21 25 18 -20 -21 -22 -23 24 -25 26 -27 27 -29 -30 -31
leaf_value=-0.052786474057740389 -0.052149544954325555 0.014957339233571933 -0.00083742271895432575 -0.055230263250784339 0.072644879802345907 0.072756865564992251 0.073764885876189165 0.072595273338967384 -0.051871370721729919 0.072606583101661154 0.072627395685818788 0.078597114576297353 -0.054486037881744942 0.0774672853836679 -0.051889880481604402 -0.054425339384165154 -0.053171423284672385 -0.053437054174607951 -0.052144927929279529 -0.054139382888398473 -0.053846465918449708 -0.054744326539902424 -0.054931753580184921 -0.051918875843674585 -0.054510709524965222 -0.052080702479956976 -0.052541409984359813 -0.053784340801635092 -0.053832812571373928 -0.053784340843524139
leaf_weight=56.778319090604782 7.541385471820834 8.4972851574420911 7.4679394364357021 7.5459764897823325 7.9915916919708243 37.296823650598526 7.3207918703556043 9.3230922222137433 10.677080750465391 13.984782993793489 1124.130425453186 8.6154920458793622 7.1518030762672415 6.6398603916168213 7.7491616606712332 7.1363515257835415 5.5356970429420462 10.576113462448118 1179.4979244470596 8.5087792873382551 35.797476083040237 11.21652054786682 7.2121495306491843 11.498953610658644 6.8697316646575919 8.6006704270839673 7.0549989938735989 19.702725201845169 231.33814054727554 29.835534781217575
leaf_count=207 28 27 23 26 24 112 22 28 40 42 3376 26 25 20 29 25 20 38 4380 30 127 39 25 43 24 32 26 70 821 106
internal_value=9.25988e-05 0.062446 0.0675471 0.0055685 -0.0373102 0.0620319 0.072239 0.0399355 -0.0525261 0.0727063 0.072672 0.0748902 -0.0522256 0.0755258 -0.0537048 -0.0537679 -0.0535295 -0.0521704 -0.0521564 -0.0532044 -0.0540874 -0.0538161 -0.0537803 -0.0528787 -0.0538421 -0.0525078 -0.0538124 -0.0534566 -0.0538524 -0.05392
internal_weight=2909.09 1331.39 1266.62 89.1376 64.7699 45.7941 1177.48 16.791 1577.7 1160.69 1146.73 22.6003 1257.25 13.9607 320.456 309.779 51.1237 1206.12 1190.07 16.0502 43.3435 302.03 290.813 18.6353 272.178 14.1364 264.966 26.7577 238.208 36.9873
internal_count=9861 4060 3829 292 231 139 3537 51 5801 3486 3444 68 4659 42 1142 1102 183 4476 4418 58 153 1073 1034 68 966 52 941 96 845 131
is_linear=0
shrinkage=0.05


Tree=19
num_leaves=31
num_cat=0
split_feature=26 22 19 22 26 17 17 15 12 17 19 24 22 14 16 22 24 27 14 15 14 15 19 14 16 25 14 15 22 22
split_gain=634.62 13.0771 20.3468 3.21477 0.0615582 0.0233416 0.0021332 0.000221454 7.01676e-05 2.16453e-05 1.20833e-05 2.36222e-06 1.86055e-06 1.11585e-06 1.01644e-06 9.88254e-07 8.81208e-07 8.76736e-07 7.70592e-07 7.65705e-07 5.49847e-07 5.42154e-07 5.62373e-07 4.80896e-07 3.70774e-07 3.64472e-07 1.61356e-06 3.26586e-07 1.91647e-07 1.54906e-07
threshold=-0.18500000238418576 3.8799999952316289 310.33250427246099 4.3900001049041757 -0.36499999463558191 13.775000095367433 13.585000038146974 4.9249999523162851 0.20850485563278201 21.625000000000004 315.18150329589849 -3.5349999666213985 2.8750000000000004 3.7250000238418584 -0.96500000357627858 3.2999999523162846 -7.8550000190734854 -0.97499999403953541 4.5750000476837167 4.9249999523162851 4.0850000381469735 3.745000004768372 314.39700317382818 4.2750000953674325 0.66500002145767223 1.0225499868392947 4.055000066757203 4.8350000381469735 2.935000061988831 3.245000004768372
decision_type=2 2 2 2 2 2 2 2 2 2 2 2 2 2 2 2 2 2 2 2 2 2 2 2 2 2 2 2 2 2
left_child=1 2 -1 4 -3 6 8 23 27 10 11 19 -11 -13 -15 16 18 -18 -12 20 -2 -16 -23 -4 25 28 -27 -6 -14 -19
right_child=9 3 7 -5 5 -7 -8 -9 -10 12 15 13 24 14 21 -17 17 29 -20 -21 -22 22 -24 -25 -26 26 -28 -29 -30 -31
leaf_value=0.15441421975248124 -0.038279598466797016 0.14865575406388726 -0.038295505927358323 0.19493259415382336 0.15433885542887149 0.15131566421245748 0.15552390415227593 -0.039379468961614199 0.15455800926046492 -0.038208870046521563 -0.038219208610634922 -0.038278958008539782 -0.038306667508724579 -0.038298487313110509 -0.038219246749478679 -0.038272009892844711 -0.038266238349554477 -0.03821881657794813 -0.038291158385193154 -0.038241108651690781 -0.038326763584649953 -0.038241621341089244 -0.038278218117869779 -0.038240752308192738 -0.038242132530197544 -0.038191463270154657 -0.038281416972752003 0.15435246372968334 -0.03828131907337369 -0.038238265643803497
leaf_weight=3.4323433339595786 2.8716664724051948 6.2867282927036277 0.67510063573718093 5.1586164385080329 6.1312180310487845 6.7104782611131659 4.8794758319854727 0.60599006712436665 4.9002470374107352 0.97061891853809612 0.68931807577609905 2.0732816886156789 0.76883711665869725 0.78614785335957904 2.6835522186011067 0.91987684182822604 0.99154921993613143 105.87681804411113 0.80876394733786583 1.0389033686369655 0.78735538572072972 89.065783835947514 1.062251916155218 0.98776707425713539 0.65846925042569537 0.61608563736081068 2.6125909090042114 15.694978326559065 24.734140329062939 1.0337865203618992
leaf_count=14 108 25 25 25 25 27 20 10 20 40 28 78 28 29 109 35 38 4303 30 41 28 3513 40 39 26 26 98 64 928 41
internal_value=-0.00314994 0.149346 0.0776175 0.157563 0.153242 0.153994 0.154563 -0.0385612 0.154387 -0.0382375 -0.0382318 -0.0382444 -0.038277 -0.0382427 -0.0382419 -0.0382204 -0.03822 -0.0382194 -0.0382581 -0.038279 -0.0382897 -0.0382414 -0.0382421 -0.038263 -0.0382792 -0.0382801 -0.0382643 0.154349 -0.0382821 -0.038219
internal_weight=296.513 55.4629 5.7012 49.7617 44.6031 38.3164 31.6059 2.26886 26.7264 241.05 210.689 100.369 30.3607 95.671 93.5977 110.32 109.4 107.902 1.49808 4.69793 3.65902 92.8116 90.128 1.66287 29.3901 28.7317 3.22868 21.8262 25.503 106.911
internal_count=9861 294 88 206 181 156 129 74 109 9567 8421 3946 1146 3769 3691 4475 4440 4382 58 177 136 3662 3553 64 1106 1080 124 89 956 4344
is_linear=0
shrinkage=0.05


Tree=20
num_leaves=31
num_cat=0
split_feature=16 17 14 19 27 24 14 17 14 23 18 17 25 17 27 15 27 15 2 18 27 27 24 16 18 24 26 16 15 17
split_gain=2487.59 1139.35 164.796 73.8005 44.8754 23.0392 23.624 17.3867 14.0523 24.2317 11.7223 6.22445 5.61844 1.94464 16.648 0.0760966 0.0508332 0.0319928 0.021296 0.0212855 0.0165188 0.0694007 0.0108303 0.00827452 0.0064843 0.00591895 0.00233246 0.00192084 0.00169852 0.00132985
threshold=0.014999999664723875 21.680000305175785 3.7250000238418584 317.06600952148443 0.55500000715255748 -7.8550000190734854 4.5750000476837167 20.840000152587894 4.0850000381469735 75.460002899169936 119.28549957275392 21.139999389648441 0.19595000147819522 20.210000038146976 -0.39499999582767481 4.3150000572204599 -0.97499999403953541 4.0750000476837167 0.0064237792976200589 122.38425064086915 -0.46500000357627863 -0.4849999994039535 3.5000000000000004 -0.98500001430511464 119.32750320434572 -5.0350000858306876 -0.22500000149011609 -0.13499999791383741 3.5449999570846562 19.845000267028812
decision_type=2 2 2 2 2 2 2 2 2 2 2 2 2 2 2 2 2 2 2 2 2 2 2 2 2 2 2 2 2 2
left_child=17 2 -2 12 5 6 -4 13 22 11 -5 -10 -3 16 -15 28 18 19 -7 27 21 -18 -9 24 -19 -25 -27 -1 -12 -22
right_child=1 3 4 10 -6 7 -8 8 9 -11 15 -13 -14 14 -16 -17 20 23 -20 -21 29 -23 -24 25 -26 26 -28 -29 -30 -31
leaf_value=-0.056302933210049033 -0.057149627686452133 0.0090350052896495375 0.061038581952508768 0.0040401344883491007 -0.062569033160541049 0.0658570395401855 -0.05787388917346295 0.061335449437646197 0.0014267616602681023 0.061368055799019654 -0.057691074356574404 -0.058735361989798111 0.064386001463757239 -0.013538463261884889 0.061121255235107058 -0.061750485137601063 0.061125470477231304 -0.057699198575604627 0.061959859371114423 -0.057125305999484413 0.061055226679407486 0.066225375325979885 0.063669048597713981 -0.056800090647216528 -0.055878896000430903 -0.055842597713654511 -0.05547241997337507 -0.055422450454830213 -0.057085915412638549 0.0614485272593445
leaf_weight=7.7100422680377951 31.583020567893982 7.216668218374255 8.2132449746131915 8.0184543728828412 7.6393933296203604 7.8091026842594129 8.4986369609832746 12.986928313970568 8.3023150265216881 12.672785401344298 12.129955321550367 8.9166764020919782 12.570440351963041 8.3881994783878309 67.968954622745514 9.1381790637969953 37.62151226401329 7.2582324743270901 6.3605861067771912 54.120426893234253 1221.7384914755821 8.1085946261882764 8.0562146604061109 8.6632899045944196 15.008951038122175 44.405283391475677 1020.3384991586208 31.507189065217972 262.9323011636734 21.877633631229401
leaf_count=26 105 23 26 26 24 24 28 41 27 40 40 29 39 26 215 29 119 24 20 180 3867 25 25 29 51 151 3494 108 875 69
internal_value=0.000521061 0.0376143 0.0558439 -0.0492518 0.0582963 0.0589342 0.000567001 0.059616 0.030928 0.00889293 -0.0555796 -0.0297276 0.0441986 0.0606749 0.0529195 -0.0572617 0.0611292 -0.0555939 0.0641076 -0.0564826 0.0610965 0.0620298 0.0622289 -0.0555182 -0.0564722 -0.0554984 -0.0554879 -0.0555956 -0.0571126 0.0610621
internal_weight=2987.76 1798.75 1486.74 312.006 1455.16 1447.52 16.7119 1430.81 50.9349 29.8918 292.219 17.219 19.7871 1379.87 76.3572 284.2 1303.52 1189.01 14.1697 93.3377 1289.35 45.7301 21.0431 1095.67 22.2672 1073.41 1064.74 39.2172 275.062 1243.62
internal_count=9805 5742 4710 1032 4605 4581 54 4527 162 96 970 56 62 4365 241 944 4124 4063 44 314 4080 144 66 3749 75 3674 3645 134 915 3936
is_linear=0
shrinkage=0.05


Tree=21
num_leaves=31
num_cat=0
split_feature=17 14 24 17 22 19 19 26 17 22 24 24 14 22 3 22 23 14 2 15 17 17 18 24 6 4 11 22 22 5
split_gain=1786.7 248.112 214.354 48.5138 98.0498 42.8619 40.9431 39.7851 21.5157 42.6787 48.2871 21.2219 51.5982 6.07062 12.6923 0.384433 0.243373 0.150285 0.105594 0.0816912 0.0287798 0.0256925 0.0241282 0.0215279 0.0127672 0.00770452 0.00429829 0.00359577 0.00288382 0.00100745
threshold=21.139999389648441 3.7050000429153447 -7.2149999141693106 19.845000267028812 3.245000004768372 313.81550598144537 313.81550598144537 0.034999999217689044 22.130000114440922 3.2250000238418584 1.5199999809265139 -5.2400000095367423 3.995000004768372 2.9650000333786015 -0.021003540605306622 3.3149999380111699 71.240001678466811 3.7949999570846562 -0.0041954703629016868 3.5449999570846562 21.739999771118168 18.07499980926514 119.46775054931642 -2.8499999046325679 108.99351119995119 0.10851998254656793 1.3372768163681032 3.1650000810623173 3.0749999284744267 37.921916961669929
decision_type=2 2 2 2 2 2 2 2 2 2 2 2 2 2 2 2 2 2 2 2 2 2 2 2 2 2 2 2 2 2
left_child=1 23 7 11 -5 -2 -6 -3 9 10 -7 12 -4 14 -10 -8 -9 -15 -11 26 -20 24 -21 -1 -18 29 -19 -12 -13 -24
right_child=5 2 3 4 6 8 15 16 13 18 27 28 -14 17 -16 -17 21 19 20 22 -22 -23 25 -25 -26 -27 -28 -29 -30 -31
leaf_value=0.10968343277864741 -0.042129615423707988 -0.041956379762654129 0.11220799635977474 -0.042083053210382255 -0.042129953601994868 0.1184197437159949 0.10627804985749696 0.11913511534900677 0.10607496871497368 0.1152203200906121 -0.042154469794248167 -0.041968250758295564 -0.042217586038855837 0.11440292749496693 0.010464169685551066 0.120317989277125 0.11175318457906058 0.11200537458604019 0.11011906073504206 0.10956074423834061 0.10636692587188212 0.10666233543022899 0.1072743228584425 0.10665982652563402 0.10860259695495603 0.10846047595352466 0.11010682606914657 -0.043912534490876669 -0.04213981919244171 0.10667716400822949
leaf_weight=7.7989315092563656 5.3471665233373633 4.9365194588899604 7.7076481878757503 46.341110616922379 5.4778959453105953 7.2012044489383724 12.482893645763399 7.7522450387477901 10.8504391759634 7.0208267867565182 8.7538687288761121 447.01697552204132 18.139724880456924 7.0382181406021109 5.1038102358579627 8.0004951655864698 6.5370840430259722 5.9378339946269971 9.5784563422203082 7.8015112876892081 10.956383377313612 8.5108933150768262 7.2744969427585593 24.013147324323654 6.3283833265304565 6.3327164947986594 5.9871896803379059 4.3555950522422782 541.76127383112907 242.84882020950317
leaf_count=26 41 39 26 359 42 25 41 27 39 24 67 3525 138 24 28 28 22 20 32 26 36 28 24 79 21 21 20 27 4151 799
internal_value=-0.000176475 -0.030295 -0.0342026 -0.0380733 0.00149791 0.0983533 0.0792903 0.0893012 0.100518 0.0693931 0.0144006 -0.0408931 0.00383189 0.105498 0.0754888 0.111762 0.111546 0.107188 0.109927 0.107004 0.108117 0.108794 0.106821 0.107401 0.110203 0.106738 0.111052 -0.0427386 -0.0420623 0.106695
internal_weight=1505.19 1152.81 1120.99 1086.93 72.3024 352.389 25.9613 34.0651 347.041 47.8663 20.3107 1014.63 25.8474 299.175 15.9542 20.4834 29.1286 283.221 27.5557 276.183 20.5348 21.3764 264.258 31.8121 12.8655 256.456 11.925 13.1095 988.778 250.123
internal_count=9805 8552 8447 8310 470 1253 111 137 1212 211 119 7840 164 1001 67 69 98 934 92 910 68 71 870 105 43 844 40 94 7676 823
is_linear=0
shrinkage=0.05


Tree=22
num_leaves=31
num_cat=0
split_feature=19 26 15 18 27 26 14 17 17 14 25 22 22 18 15 27 24 24 14 22 15 20 14 17 25 2 2 25 14 14
split_gain=3402.92 224.253 132.023 105.628 15.5045 13.2777 33.364 8.75445 0.246724 0.0566691 0.0563126 0.0384616 0.0176253 0.0104788 0.00940134 0.00884142 0.00754914 0.00624711 0.00552508 0.00465893 0.00452116 0.00688794 0.0125652 0.00464346 0.00391582 0.00356794 0.00232795 0.00166163 0.00372486 0.00141592
threshold=314.39700317382818 -0.22500000149011609 4.1349999904632577 122.38425064086915 -0.22500000149011609 -0.18500000238418576 4.2750000953674325 15.425000190734865 21.139999389648441 3.7849999666213994 -1.8475000262260435 3.245000004768372 2.8750000000000004 118.67029953002931 3.935000061988831 -0.97499999403953541 0.32500000298023229 -7.8550000190734854 4.5750000476837167 3.245000004768372 4.0350000858306894 4.1499998569488534 4.0250000953674325 21.625000000000004 -0.65649998188018788 0.0064237792976200589 -0.004844965646043419 1.0225499868392947 4.1250000000000009 3.7350000143051152
decision_type=2 2 2 2 2 2 2 2 2 2 2 2 2 2 2 2 2 2 2 2 2 2 2 2 2 2 2 2 2 2
left_child=1 4 3 7 -1 6 -4 -3 11 -7 -11 15 -10 -14 -13 25 -8 18 -17 -9 21 22 -15 -23 -5 -2 -16 -25 -29 -19
right_child=8 2 5 24 -6 9 16 19 12 10 -12 14 13 20 26 17 -18 29 -20 -21 -22 23 -24 27 -26 -27 -28 28 -30 -31
leaf_value=-0.051700680362031973 -0.052951800535198212 0.012228088205742517 -0.056542039304504049 -0.05380990504814076 0.0243169879030119 0.072577015012339388 0.070525229006274032 0.068560483912626466 -0.050436919132496427 0.072531397694584915 0.068476672803050684 -0.052657671553498375 -0.050565395006709979 -0.053290618564443483 -0.051969144190217212 -0.050788835786904199 0.068450259668366209 -0.05135289340452024 -0.052754530460380415 0.069897170522030039 -0.053546944182006222 -0.053772689579492577 -0.050537417851477306 -0.052602014767242189 -0.052590313518209898 -0.051201160899580871 -0.050651109311662883 -0.051140525972847774 -0.052538966741493567 -0.050783108710517756
leaf_weight=46.218434184789658 6.5821367204189283 8.4453134238719922 7.4986698031425503 8.1558712124824506 7.8463750779628745 8.6199938654899579 8.6211462020874041 26.760853558778763 10.417153999209402 8.6286763548850995 1124.0364398360252 36.07452130317688 6.6428508460521689 6.6591114103794125 5.3471409976482382 6.6972089409828168 8.9175979793071729 11.011315703392027 7.6673451662063599 8.618105620145796 11.4646078646183 8.1524735987186414 10.972839236259459 230.84402239322662 34.098322421312332 5.2175672948360443 8.9701212942600232 6.477150127291682 17.979129135608673 1111.239545404911
leaf_count=174 24 27 26 29 26 26 26 81 41 26 3403 132 26 24 20 26 27 42 28 26 41 29 43 846 125 20 35 25 66 4315
internal_value=-3.75796e-05 0.0590339 0.0633379 0.00358139 -0.0406683 0.0677481 0.0317297 0.0579676 -0.0512004 0.0685383 0.0685076 -0.0508754 -0.0524587 -0.0525291 -0.0522274 -0.0508161 0.0694702 -0.050802 -0.0518381 0.0688861 -0.0525737 -0.052534 -0.0515772 -0.052598 -0.0528257 -0.0521777 -0.0511434 -0.0525605 -0.0521686 -0.0507887
internal_weight=2814.88 1306.47 1252.4 86.0785 54.0648 1166.32 25.0374 43.8243 1508.42 1141.29 1132.67 1198.81 309.609 299.192 50.3918 1148.42 17.5387 1136.62 14.3646 35.379 292.549 281.085 17.632 263.453 42.2542 11.7997 14.3173 255.3 24.4563 1122.25
internal_count=9805 4022 3822 288 200 3534 79 134 5783 3455 3429 4642 1141 1100 187 4455 53 4411 54 107 1074 1033 67 966 154 44 55 937 91 4357
is_linear=0
shrinkage=0.05


Tree=23
num_leaves=31
num_cat=0
split_feature=22 17 18 18 18 22 27 16 17 17 23 27 12 17 19 15 15 22 18 17 27 16 16 22 27 16 15 22 15 20
split_gain=309.112 175.811 30.556 6.40767 12.4492 2.22889 0.73332 0.854812 0.0129394 0.000198289 0.000184395 9.5889e-05 9.04236e-05 2.54728e-05 1.09472e-05 5.92569e-06 3.05293e-06 2.43304e-06 1.44662e-06 1.41875e-06 1.25362e-06 1.24978e-06 6.30785e-07 5.81214e-07 1.10831e-06 5.78705e-07 5.69417e-07 7.56651e-07 5.27488e-07 9.58955e-07
threshold=3.8449999094009404 14.315000057220461 118.72624969482423 120.81985092163087 121.05059814453126 4.3900001049041757 -0.28499999642372126 -0.96500000357627858 13.585000038146974 11.964999675750734 79.590000152587905 -0.38499999046325678 0.20564334094524386 21.139999389648441 315.18150329589849 4.9149999618530282 4.7349998950958261 2.8750000000000004 118.67029953002931 17.050000190734867 -0.97499999403953541 -0.11999999731779097 0.13499999791383746 3.245000004768372 -0.43500000238418574 -0.96500000357627858 4.1349999904632577 3.3649998903274541 4.1549999713897714 4.1499998569488534
decision_type=2 2 2 2 2 2 2 2 2 2 2 2 2 2 2 2 2 2 2 2 2 2 2 2 2 2 2 2 2 2
left_child=9 2 25 5 -5 6 8 -8 11 10 -1 12 15 14 19 -4 -3 -15 -19 22 -16 -21 26 -22 -25 -2 27 -11 29 -20
right_child=1 16 3 4 -6 -7 7 -9 -10 13 -12 -13 -14 17 20 -17 -18 18 28 21 23 -23 -24 24 -26 -27 -28 -29 -30 -31
leaf_value=-0.039353582805169658 -0.03825621177170415 -0.038247433354514256 0.13242944777622154 0.13271382972627194 -0.038202372594460243 0.16322887519534904 0.13423445458696837 0.10138823829047171 0.13015174597120743 -0.038211752241684549 -0.038201754333297866 0.13267252807816929 0.13264139826867102 -0.038164520984034785 -0.038233100420700571 0.13237165927039257 -0.038203912815212154 -0.038169861736361582 -0.038210189287543266 -0.038201343113782982 -0.038178890652497348 -0.038241843881582277 -0.038178591590385232 -0.03825667296678488 -0.038173637874212914 -0.038202456188122021 -0.038202739927904655 -0.038267157586676093 -0.038290543532364975 -0.038250058862477197
leaf_weight=0.71811635792255291 0.64296828582882914 5.083835860714319 15.426829546689985 2.973242610692977 1.6603564675897358 5.3942889273166648 3.489526778459549 4.5813638214021903 7.110176444053649 3.2645316440612069 0.67320364341139793 6.4882946312427583 5.4076823294162741 0.93454971350729721 1.097583096474408 6.2265043258666983 19.433443021029234 0.59769667312503116 1.6201414912939132 3.1958108469843864 99.870560977607965 4.7151245009154072 2.537259465083479 0.69777615182101727 0.94761354848742374 2.2622173614799967 56.144123440608382 0.75959688611328591 0.72719676420092483 21.825526293367147
leaf_count=12 25 199 57 11 69 23 13 38 26 134 28 24 20 41 44 23 806 26 67 133 4289 186 109 27 41 94 2332 29 27 852
internal_value=-0.0041374 0.0750442 0.120075 0.127901 0.0714695 0.132732 0.129357 0.11559 0.132089 -0.0382014 -0.0387963 0.1325 0.132459 -0.0381973 -0.0381904 0.132413 -0.0382129 -0.0382437 -0.0382467 -0.0382055 -0.03818 -0.0382255 -0.038203 -0.0381794 -0.0382089 -0.0382144 -0.038204 -0.0382222 -0.0382486 -0.0382473
internal_weight=286.507 86.1807 61.6635 58.7583 4.6336 54.1247 48.7304 8.07089 40.6595 200.326 1.39132 33.5493 27.061 198.935 173.23 21.6533 24.5173 25.7051 24.7706 70.6164 102.614 7.91094 62.7055 101.516 1.64539 2.90519 60.1683 4.02413 24.1729 23.4457
internal_count=9805 1428 423 304 80 224 201 51 150 8377 40 124 100 8337 7324 80 1005 1013 972 2923 4401 319 2604 4357 68 119 2495 163 946 919
is_linear=0
shrinkage=0.05


Tree=24
num_leaves=31
num_cat=0
split_feature=22 16 22 19 24 27 24 16 25 25 24 14 22 26 26 19 11 23 2 27 16 19 14 16 14 2 2 24 16 22
split_gain=2380.81 379.638 224.331 194.092 67.6612 65.7831 59.3664 33.1827 28.9579 24.894 20.372 21.3165 17.8955 28.1051 12.7454 31.9923 9.54187 8.98469 7.58861 5.6951 23.1856 25.3222 0.0957441 0.0709095 0.0580277 0.0306795 0.0300175 0.0273943 0.0510495 0.0244446
threshold=3.0449999570846562 0.12499999627470972 3.245000004768372 328.87649536132818 7.3949999809265146 0.54500001668930065 4.7500000000000009 0.014999999664723875 1.0225499868392947 -2.0273000001907344 -7.8550000190734854 4.5750000476837167 3.3149999380111699 -0.03499999921768903 -0.14500000327825543 328.87649536132818 0.38613237440586096 59.060001373291023 0.0055771167390048513 0.18500000238418582 0.30500000715255743 319.73199462890631 4.5050001144409189 -0.11999999731779097 4.5050001144409189 -0.010772284585982559 0.0017100258846767249 4.0699999332427987 0.14500000327825549 3.2050000429153447
decision_type=2 2 2 2 2 2 2 2 2 2 2 2 2 2 2 2 2 2 2 2 2 2 2 2 2 2 2 2 2 2
left_child=4 23 3 5 7 6 17 -1 -8 16 11 -11 13 -4 15 -12 -9 -3 -15 27 21 -21 -14 -2 -19 -6 -7 -16 -29 -25
right_child=1 2 12 -5 25 26 8 9 -10 10 14 -13 22 18 19 -17 -18 24 -20 20 -22 -23 -24 29 -26 -27 -28 28 -30 -31
leaf_value=-0.05369947499126259 -0.053765662495095116 0.0022350262120445791 -0.05550527569894597 -0.055412370145418749 -0.060857300524925897 -0.055738033145475444 -0.055315893215858017 0.031270021541739065 0.060622168298711733 0.058611906343525061 0.058608355411290586 -0.056006749973315229 -0.05538795391633753 0.058361763542500514 0.05863876577679094 -0.056604096038551412 -0.055311541862090786 0.058729812402451204 -0.01243472171240405 0.059010954404407394 0.058704953542757433 -0.055429818564435213 -0.06099908080075455 -0.053790534624079157 0.063155939246053713 -0.056066421258091664 -0.060220758797670353 0.063498636615400214 0.058863858374845257 -0.0555304308362417
leaf_weight=7.0221617817878714 1062.1743158698082 7.2381818294525138 20.45103931427002 63.578386634588242 6.5777787268161774 9.3899787068366987 18.923048526048664 6.0645735263824445 7.5286494791507712 7.9891228079795864 19.971866995096207 8.2405204176902753 129.71663308143616 10.353024899959566 1026.0126753151417 8.6286137104034442 6.6952649354934692 202.78713834285736 5.9664874076843253 8.9558413028717041 72.596069097518921 10.501823782920837 8.0757162272930128 26.739226520061493 7.685697764158248 6.7921580374240857 6.2004652619361869 8.3409082591533679 20.65036803483963 82.385293990373611
leaf_count=25 3776 24 70 218 21 32 65 20 24 26 65 28 445 33 3338 29 23 659 20 29 236 36 26 95 24 23 20 26 67 282
internal_value=0.000505934 -0.0383437 -0.00177022 0.0228901 0.053441 0.0420557 0.048414 0.0546754 -0.0223177 0.0553071 0.0560508 0.000414855 -0.0474469 -0.0164564 0.0568188 0.0238494 -0.0141605 0.0570078 0.0324782 0.0576409 0.0457138 -0.0027558 -0.0557168 -0.0538904 0.0588914 -0.0584235 -0.0575209 0.0586816 0.0601973 -0.0551041
internal_weight=2894.23 1669.19 497.894 323.332 1225.04 259.753 244.163 1211.67 26.4517 1204.65 1191.89 16.2296 174.563 36.7706 1175.66 28.6005 12.7598 217.711 16.3195 1147.06 92.0537 19.4577 137.792 1171.3 210.473 13.3699 15.5904 1055 28.9913 109.125
internal_count=9805 5813 1660 1066 3992 848 796 3948 89 3923 3880 54 594 123 3826 94 43 707 53 3732 301 65 471 4153 683 44 52 3431 93 377
is_linear=0
shrinkage=0.05


Tree=25
num_leaves=31
num_cat=0
split_feature=15 22 24 24 22 21 15 25 24 23 26 16 23 15 14 18 26 24 12 11 26 8 22 16 9 15 14 22 25 25
split_gain=583.964 891.396 160.147 72.6863 68.7759 88.0259 87.6972 82.8145 58.2056 57.6027 40.3863 27.4425 22.6459 16.7479 22.8403 13.9723 5.31644 26.044 4.57798 3.9312 2.13172 2.68119 1.38182 4.66643 0.768432 0.34168 0.318819 0.0987199 0.101046 0.391937
threshold=4.0850000381469735 3.1550000905990605 3.0149999856948857 10.09500026702881 3.2749999761581425 3.9850001335144047 3.995000004768372 -1.0698500275611875 -7.2149999141693106 112.74000167846681 -0.15500000119209287 0.25499999523162847 68.829998016357436 3.5049999952316289 4.0250000953674325 126.46889877319337 -0.074999999254941926 1.3550000190734866 0.109448429197073 -0.35059285163879389 -1.0000000180025095e-35 2.0102691650390629 3.3149999380111699 0.51499998569488536 28.576463699340824 4.055000066757203 4.5050001144409189 3.5149999856948857 0.17724999785423282 0.14840000122785571
decision_type=2 2 2 2 2 2 2 2 2 2 2 2 2 2 2 2 2 2 2 2 2 2 2 2 2 2 2 2 2 2
left_child=1 2 9 8 5 -3 7 19 24 10 -1 12 -4 14 -13 16 17 -12 -15 -7 -20 -22 23 -6 -2 -8 27 28 29 -24
right_child=3 4 11 -5 22 6 25 -9 -10 -11 15 13 -14 18 -16 -17 -18 -19 20 -21 21 -23 26 -25 -26 -27 -28 -29 -30 -31
leaf_value=0.11269467049319815 0.098577868661105794 0.096680586218743966 0.09937963182542979 0.10414232865765072 0.09669030206182655 0.038048355117140067 0.097936224275318826 -0.041910126833355321 -0.041822821956631763 0.096441120842033906 -0.041728614791786141 0.10193081256832437 -0.041907420384247406 -0.0073249682663476534 -0.041929972275574101 0.042734524634410187 -0.041677701181730045 0.097277214900715961 0.097163015211390091 0.095046867534782323 0.034276427958998781 0.087553240856246814 0.098243886821828774 0.04784006690756927 0.068923266584631271 0.11055653535195308 0.10741252072951193 0.09636834328451778 0.096275025011254886 0.1117246923839937
leaf_weight=4.4405990839004508 3.1391562819480878 69.641497522592545 3.7580523490905753 8.905718117952345 21.840927004814152 3.8295722007751491 17.323803663253788 48.555752336978912 588.81172712892294 8.2382931113243085 18.787561357021335 4.650973439216612 11.560823693871496 1.2745530009269703 6.7825201898813248 5.1581678539514533 345.44537089020014 4.1060738861560813 24.95859241485595 14.4003659337759 3.4574660658836418 7.4500392004847527 39.642223626375198 6.2984737306833258 7.1837056130170822 7.7679571509361258 7.857438623905181 138.50266543030739 28.217844367027283 6.2404375672340384
leaf_count=15 10 220 12 29 69 19 55 391 4769 26 155 15 93 9 54 25 2874 13 79 46 19 26 126 26 31 26 26 437 89 21
internal_value=-0.00014601 0.0263656 -0.0222219 -0.0376517 0.079686 0.0542837 0.0221476 -0.00779447 -0.0397593 -0.0343536 -0.0372047 0.0511038 -0.00724664 0.0695059 0.0165904 -0.0389869 -0.0401313 -0.0167973 0.0857955 0.0830732 0.0891047 0.0706655 0.0961902 0.0857561 0.0779412 0.101843 0.097522 0.0971564 0.0986294 0.100077
internal_weight=1468.23 860.188 450.069 608.04 410.119 161.519 91.8775 66.7857 599.135 386.176 377.938 63.893 15.3189 48.5741 11.4335 373.497 368.339 22.8936 37.1407 18.2299 35.8661 10.9075 248.6 28.1394 10.3229 25.0918 220.461 212.603 74.1005 45.8827
internal_count=9805 4966 3415 4839 1551 757 537 456 4810 3108 3082 307 105 202 69 3067 3042 168 133 65 124 45 794 95 41 81 699 673 236 147
is_linear=0
shrinkage=0.05


Tree=26
num_leaves=31
num_cat=0
split_feature=19 26 15 22 17 26 14 24 17 14 25 22 22 15 14 14 27 24 17 20 25 2 26 15 17 2 14 17 15 17
split_gain=3058.42 200.588 116.934 95.1829 14.5368 11.8529 30.0753 8.22757 0.251291 0.0412348 0.0411347 0.0369867 0.0125737 0.0100064 0.00819398 0.018726 0.00666646 0.00610856 0.00571781 0.00540324 0.00315209 0.00270378 0.00265776 0.00279837 0.00199613 0.00149056 0.00143485 0.00134752 0.00130381 0.000595789
threshold=314.39700317382818 -0.22500000149011609 4.1349999904632577 3.2849999666213994 13.744999885559084 -0.18500000238418576 4.2750000953674325 -1.9449999928474424 21.139999389648441 3.7849999666213994 -1.8475000262260435 3.245000004768372 2.8750000000000004 3.935000061988831 4.055000066757203 4.0250000953674325 -0.97499999403953541 -7.8550000190734854 13.659999847412111 4.1499998569488534 -0.65649998188018788 0.0064237792976200589 -0.1649999991059303 4.0350000858306894 21.625000000000004 -0.004844965646043419 3.7350000143051152 15.574999809265138 3.6750000715255742 21.625000000000004
decision_type=2 2 2 2 2 2 2 2 2 2 2 2 2 2 2 2 2 2 2 2 2 2 2 2 2 2 2 2 2 2
left_child=1 4 3 7 -1 6 -4 -3 11 -7 -11 16 -10 -13 15 28 21 19 -8 -18 -5 -2 -16 24 -24 -15 -19 -9 -14 -17
right_child=8 2 5 20 -6 9 18 27 12 10 -12 13 14 25 22 29 17 26 -20 -21 -22 -23 23 -25 -26 -27 -28 -29 -30 -31
leaf_value=-0.050706969310623101 -0.051509361092748153 0.0093146267743664281 -0.055208069782355741 -0.052524978911784627 0.023523601998855625 0.068488442909910949 0.066759108464750111 0.065801151979621275 -0.049563093038358444 0.068455815931370914 0.064975677869591048 -0.051473960254562058 -0.052305216731184094 -0.0505538117384636 -0.052368823223336351 -0.049463859594092219 -0.051565429263067931 -0.05016676164369497 0.064941275473845594 -0.049580400191259477 -0.051411917551612112 -0.049950720730298291 -0.050572903806725793 -0.052196462849012804 -0.051408375055973503 -0.049473950503295144 -0.049580579137717927 0.065095774417265106 -0.051325507941806681 -0.048778975041989241
leaf_weight=44.684089481830597 6.3037248700857145 8.0737558305263502 7.2945969104766872 7.8854587972164145 7.7375100851058951 8.5475782752037031 8.5228771567344683 9.1486417949199659 10.059092149138449 8.5565434694290143 1107.3309337794781 34.805309772491455 6.7613431215286273 5.099008470773696 7.5744084119796744 6.8453071117401105 7.3979445993900281 10.543343320488928 8.7840827405452711 6.3885845690965652 32.893383592367172 4.9809260368347168 7.3724611252546302 11.054533183574675 236.243996322155 8.5606325268745405 1060.2440072745085 26.048265755176544 6.8226651549339294 5.9229104965925217
leaf_count=174 24 26 26 29 26 26 26 28 41 26 3403 132 25 20 28 28 28 42 27 26 125 20 29 41 898 35 4315 80 26 25
internal_value=-4.44122e-05 0.056041 0.0601134 0.00318303 -0.0397504 0.0642777 0.0299456 0.0548369 -0.0500093 0.0650289 0.0650024 -0.0496722 -0.0513008 -0.0510239 -0.0513614 -0.0505209 -0.0496124 -0.0495998 0.0658365 -0.0506456 -0.0516272 -0.0508214 -0.0514458 -0.0514184 -0.0513831 -0.0498771 -0.0495864 0.0652791 -0.0518132 -0.0491462
internal_weight=2728.49 1285.51 1233.09 84.0495 52.4216 1149.04 24.6016 43.2707 1442.98 1124.44 1115.89 1144.32 298.657 48.465 288.598 26.3522 1095.86 1084.57 17.307 13.7865 40.7788 11.2847 262.245 254.671 243.616 13.6596 1070.79 35.1969 13.584 12.7682
internal_count=9805 4022 3822 288 200 3534 79 134 5783 3455 3429 4642 1141 187 1100 104 4455 4411 53 54 154 44 996 968 927 55 4357 108 51 53
is_linear=0
shrinkage=0.05


Tree=27
num_leaves=31
num_cat=0
split_feature=22 17 18 18 18 22 27 16 15 17 23 24 17 12 19 16 15 24 22 18 27 24 17 19 15 15 15 16 22 27
split_gain=276.751 143.986 24.0606 4.59976 10.1153 1.57446 0.555342 0.642095 0.00977176 0.000169024 0.000156721 9.14257e-05 2.9742e-05 2.96578e-05 1.19905e-05 4.32617e-06 3.66094e-06 2.37461e-06 1.99652e-06 1.18036e-06 1.09807e-06 1.01627e-06 9.60972e-07 1.55665e-06 8.68753e-07 6.20832e-07 5.62411e-07 5.52139e-07 5.22422e-07 9.34877e-07
threshold=3.8449999094009404 14.315000057220461 118.72624969482423 120.81985092163087 121.05059814453126 4.3900001049041757 -0.28499999642372126 -0.96500000357627858 4.9349999427795419 11.964999675750734 79.590000152587905 -1.3450000286102293 21.139999389648441 0.201402522623539 315.18150329589849 -1.0099999904632566 4.7349998950958261 -2.8499999046325679 2.8750000000000004 118.67029953002931 -0.97499999403953541 -7.8550000190734854 17.050000190734867 314.39700317382818 4.2950000762939462 3.8249999284744267 4.8350000381469735 -0.96500000357627858 3.245000004768372 -0.43500000238418574
decision_type=2 2 2 2 2 2 2 2 2 2 2 2 2 2 2 2 2 2 2 2 2 2 2 2 2 2 2 2 2 2
left_child=9 2 27 5 -5 6 8 -8 11 10 -1 -4 14 15 17 -13 -3 -11 -14 -20 -16 24 25 -24 -22 -19 -17 -2 -23 -30
right_child=1 16 3 4 -6 -7 7 -9 -10 12 -12 13 18 -15 20 26 -18 22 19 -21 21 28 23 -25 -26 -27 -28 -29 29 -31
leaf_value=-0.039253797272016569 -0.038218147293725829 -0.038214937299209183 0.11667849572622957 0.11664673335146972 -0.038164692517479962 0.14102913123961758 0.11778859632841746 0.090278480952933171 0.11453311958159924 -0.038209878625845642 -0.03816405226571265 0.11647773927482374 -0.038137898712041735 0.11656169027434467 -0.038192028526670363 0.11641663448139319 -0.038166197496192523 -0.03813930105899422 -0.038143025598932706 -0.038215592746750703 -0.038139247321079595 -0.03813924627985206 -0.038163889735997977 -0.038214499623570534 -0.038222563480616187 -0.038165303952140718 0.11643499388845591 -0.038164285937169952 -0.038213647142791331 -0.038135196487796952
leaf_weight=0.68291540443897136 0.61155855096876655 4.8710745368152883 6.1068125367164532 3.1992672681808463 1.5743909683078525 5.9424959421157828 3.7614969611167908 4.8635907657444459 7.6337570548057547 3.2787462119013062 0.63829557225108147 5.8212843537330619 0.8983690887689616 6.4009864628314963 1.0378770604729641 6.6963217556476762 18.428261404857039 2.3952820505946866 0.57427394390106457 23.141981368884444 0.57130567356943973 93.054724372923374 3.6692352611571541 2.5931073483079672 0.69168918766081333 55.083844151347876 11.062572509050367 2.1435723267495623 0.65945132076740265 0.89535357803106197
leaf_count=12 25 199 21 11 69 23 13 38 26 135 28 20 41 22 44 23 806 109 26 946 26 4235 161 106 28 2412 38 94 27 41
internal_value=-0.00404588 0.0686429 0.106457 0.112775 0.0655887 0.11664 0.113871 0.102276 0.116158 -0.0381638 -0.0387273 0.116502 -0.0381598 0.116466 -0.0381521 0.11644 -0.0381764 -0.0381684 -0.0382111 -0.0382138 -0.0381409 -0.0381403 -0.0381662 -0.0381848 -0.0381849 -0.0381642 0.116428 -0.0381762 -0.0381397 -0.0381685
internal_weight=278.984 89.1174 65.8181 63.063 4.77366 58.2893 52.3468 8.62509 43.7217 189.866 1.32121 36.088 188.545 29.9812 163.931 23.5802 23.2993 67.0202 24.6146 23.7163 96.9104 95.8725 63.7415 6.26234 1.26299 57.4791 17.7589 2.75513 94.6095 1.5548
internal_count=9805 1428 423 304 80 224 201 51 150 8377 40 124 8337 103 7324 81 1005 2923 1013 972 4401 4357 2788 267 54 2521 61 119 4303 68
is_linear=0
shrinkage=0.05


Tree=28
num_leaves=31
num_cat=0
split_feature=19 17 14 19 18 24 18 14 17 24 24 14 17 14 15 27 25 17 17 2 15 18 14 17 19 27 25 23 15 17
split_gain=1980.98 918.011 135.356 60.2424 36.0412 29.328 30.3665 26.734 15.6859 24.9798 13.8711 22.328 4.53285 41.8984 0.0427166 0.0326442 0.0507433 0.104006 0.0310294 0.0261747 0.0231356 0.0155809 0.00790904 0.00482502 0.00423422 0.00290958 0.00433161 0.00249349 0.00213325 0.0018597
threshold=314.39700317382818 21.139999389648441 3.7250000238418584 317.06600952148443 118.67029953002931 -7.2149999141693106 125.22889709472658 4.0250000953674325 21.680000305175785 4.5999999046325692 4.8150000572204599 3.8449999094009404 20.210000038146976 4.5350000858306894 4.3150000572204599 -0.46500000357627863 0.38310000300407415 18.564999580383304 22.429999351501468 0.00063957180827856075 4.1349999904632577 122.38425064086915 3.7549999952316289 13.744999885559084 304.31150817871099 -0.31499999761581415 -1.7989500164985655 59.344999313354499 4.8350000381469735 13.84500026702881
decision_type=2 2 2 2 2 2 2 2 2 2 2 2 2 2 2 2 2 2 2 2 2 2 2 2 2 2 2 2 2 2
left_child=20 2 -2 7 -5 6 -4 -3 9 -6 12 -12 15 -14 27 16 -7 -18 -9 -8 21 -1 23 -22 -24 26 -26 -10 -28 -30
right_child=1 3 5 4 8 10 19 18 14 -11 11 -13 13 -15 -16 -17 17 -19 -20 -21 22 -23 24 -25 25 -27 28 -29 29 -31
leaf_value=-0.052329475759007975 -0.053862023121767071 -0.055218505152884845 0.056706286386025144 0.057589727440794082 -0.055238805312715369 0.05655680154450602 -0.054098825119693841 0.056804285051574067 -0.05457085008132561 0.058478704241575155 -0.053707495508668462 0.056997187624981044 0.056656685287512623 -0.058667175796085269 -0.057433240851754344 0.056526869776227985 0.056866851432188274 0.063876289574671605 0.060784948385639109 -0.058755626707745104 -0.052591567343432746 -0.053734436928860124 -0.053076821160537337 -0.05430379946476907 -0.053640747759101194 -0.052145318615663142 -0.052179515064225558 -0.053833759291322669 -0.052960196359042248 -0.0522633200629746
leaf_weight=36.270770967006683 29.605800539255142 6.9380032122135189 11.645870268344881 7.8731325864791861 11.616987586021425 34.553069561719894 5.9468843638896924 12.261016100645067 12.02650812268257 8.2649077773094159 7.585378676652911 11.399701505899428 75.18337807059288 8.7974697053432447 8.6784032583236677 1167.9636345207691 13.468797624111177 8.7173909544944745 8.1494554579257947 6.1257559955120087 10.359450459480287 43.281054496765137 13.27021464705467 6.8252727985382071 6.72743996977806 856.63327541947365 74.935588032007217 249.64472055435181 20.66954430937767 17.833351880311966
leaf_count=134 105 24 39 26 40 116 21 41 42 27 27 38 252 29 29 3923 45 27 26 20 38 154 48 24 24 3181 278 886 75 66
internal_value=0.00048955 0.0340931 0.0518962 -0.0414508 -0.0479664 0.0542131 -0.000895842 0.0295715 -0.0508299 -0.00796641 0.0551976 0.0127658 0.0558132 0.0445759 -0.0539821 0.0565838 0.057755 0.059621 0.0583937 -0.0564617 -0.052273 -0.0530939 -0.0522081 -0.0532716 -0.0521897 -0.0521776 -0.052408 -0.0538676 -0.0523349 -0.0526374
internal_weight=2793.25 1706.45 1380.99 325.453 298.105 1351.39 23.7185 27.3485 290.232 19.8819 1327.67 18.9851 1308.68 83.9808 270.35 1224.7 56.7393 22.1862 20.4105 12.0726 1086.81 79.5518 1007.25 17.1847 990.069 976.799 120.166 261.671 113.438 38.5029
internal_count=9805 5783 4642 1141 1050 4537 80 91 1024 67 4457 65 4392 281 957 4111 188 72 67 41 4022 288 3734 62 3672 3624 443 928 419 141
is_linear=0
shrinkage=0.05


Tree=29
num_leaves=31
num_cat=0
split_feature=17 14 17 22 27 14 16 14 18 17 17 22 25 18 22 16 14 22 3 2 10 14 14 25 15 23 2 11 18 27
split_gain=1373.78 197.363 69.7719 85.8922 32.0292 98.2971 29.8365 24.9553 19.4008 29.4522 13.0947 28.1539 18.7875 17.8375 8.09081 15.696 7.21674 3.96637 8.32954 3.34053 2.00632 0.161752 0.0909413 0.0779978 0.0545459 0.0491245 0.0428549 0.0257316 0.0231265 0.00809728
threshold=21.139999389648441 3.7050000429153447 19.845000267028812 3.1750000715255742 0.11499999836087228 3.9650000333786015 -0.11999999731779097 4.8500001430511483 128.31544494628909 16.125000000000004 22.130000114440922 3.2250000238418584 1.2457500100135805 126.46889877319337 3.245000004768372 0.25499999523162847 3.8449999094009404 2.9650000333786015 -0.021003540605306622 0.00063957180827856075 0.84125870466232311 4.5350000858306894 3.7949999570846562 -0.65649998188018788 3.8850001096725468 59.344999313354499 0.0013039100449532273 0.49952700734138494 119.39215087890626 0.12499999627470972
decision_type=2 2 2 2 2 2 2 2 2 2 2 2 2 2 2 2 2 2 2 2 2 2 2 2 2 2 2 2 2 2
left_child=1 29 4 -4 -3 16 -2 14 -7 19 11 12 13 -8 15 -5 20 18 -12 -10 -6 -16 -19 -18 -13 27 -26 -24 -27 -1
right_child=6 2 3 7 5 8 10 -9 9 -11 17 24 -14 -15 21 -17 23 22 -20 -21 -22 -23 25 -25 26 28 -28 -29 -30 -31
leaf_value=0.08840692264211035 -0.04155931754888692 -0.041491324982629224 -0.04149226956887913 0.10125697820227185 0.053378455414227435 -0.041499446485688214 -0.042085826520935364 -0.041559613152991039 0.090132940791489702 -0.041373295210922006 0.086655023140850551 0.087982317517768721 0.1011391375569437 0.090352563276338907 0.088693105499839664 -0.041762214758695855 0.094586305481246996 0.094058558878064857 0.0096424886418566037 0.032892061565426123 0.0015372243527991972 0.096865232209120439 0.089208494068460709 0.08788961574914958 0.094987080584261641 0.090980067452253163 0.089960837912710534 0.093571495381913491 0.088316234543718203 0.090193350347287704
leaf_weight=25.726553440093994 4.8180383369326583 768.28454024344683 38.065600238740444 4.0400984883308402 4.9425673633813885 122.12463256716728 11.847213961184027 4.9358389377593985 6.7932637631893176 13.802897557616232 11.782908022403719 12.716841131448748 4.6660248935222617 3.2370924949645987 17.894712746143345 3.6530082672834396 8.9236859977245366 7.647805154323577 5.00136375427246 4.0794544219970703 2.9986391216516495 9.1518227159976941 6.495614677667616 8.4801151454448664 7.9618359506130245 8.3971611857414228 9.0742245614528638 7.044122576713562 274.27568951249123 8.419012248516081
leaf_count=79 41 6638 329 13 21 1053 94 42 21 122 39 39 15 10 55 30 28 24 28 21 19 29 20 26 25 26 28 22 842 26
